<?xml version="1.0"?>
<opencv_storage>
<my_nn type_id="opencv-ml-ann-mlp">
  <layer_sizes type_id="opencv-matrix">
    <rows>1</rows>
    <cols>3</cols>
    <dt>i</dt>
    <data>
      225 16 2</data></layer_sizes>
  <activation_function>SIGMOID_SYM</activation_function>
  <f_param1>6.6666666666666663e-01</f_param1>
  <f_param2>1.7159000000000000e+00</f_param2>
  <min_val>-9.4999999999999996e-01</min_val>
  <max_val>9.4999999999999996e-01</max_val>
  <min_val1>-9.7999999999999998e-01</min_val1>
  <max_val1>9.7999999999999998e-01</max_val1>
  <training_params>
    <train_method>BACKPROP</train_method>
    <dw_scale>1.0000000000000001e-01</dw_scale>
    <moment_scale>1.0000000000000001e-01</moment_scale>
    <term_criteria><epsilon>1.1920928955078125e-07</epsilon>
      <iterations>10000</iterations></term_criteria></training_params>
  <input_scale>
    1.9451356814274214e-02 -2.7051043307476710e+00
    1.9440189923545039e-02 -2.7033859004531493e+00
    1.9514518397355671e-02 -2.7170230045645938e+00
    1.9402140248780966e-02 -2.7235238359857963e+00
    1.9179620331626651e-02 -2.7426244958683612e+00
    1.8947245518739868e-02 -2.7827859806661581e+00
    1.8036056810793330e-02 -2.7449535355413879e+00
    1.7604840171730762e-02 -2.7049087781729351e+00
    1.7850413962366550e-02 -2.7028944903398728e+00
    1.8611472294231334e-02 -2.7270162787543297e+00
    1.9220611962484025e-02 -2.7253191966039583e+00
    1.9441158074643725e-02 -2.7170466155128676e+00
    1.9451009420085024e-02 -2.7108085511370410e+00
    1.9595581120450910e-02 -2.7235147730250531e+00
    1.9585915120929019e-02 -2.7151495738385751e+00
    1.9495012424458964e-02 -2.6901250602010602e+00
    1.9421254820911810e-02 -2.6900917236088930e+00
    1.9328863904528964e-02 -2.7121069198806893e+00
    1.8470313702327056e-02 -2.7379882151312329e+00
    1.6669755536845618e-02 -2.7186065888872020e+00
    1.5350448769405148e-02 -2.6786043194672531e+00
    1.4689894743077940e-02 -2.6217242678542387e+00
    1.4609446910574754e-02 -2.6053928109586271e+00
    1.4699541121285950e-02 -2.5945941103845982e+00
    1.5321203561711429e-02 -2.6161444056204024e+00
    1.6694337377555254e-02 -2.6727811740799763e+00
    1.8523229134808056e-02 -2.7169044861294260e+00
    1.9234503301909203e-02 -2.6878990630164799e+00
    1.9314063795178065e-02 -2.6714843197715497e+00
    1.9350358566066844e-02 -2.6817126714028294e+00
    1.9353837616512513e-02 -2.6477079318836805e+00
    1.9367997452922104e-02 -2.6798096986430870e+00
    1.8283763700521569e-02 -2.7127659104088746e+00
    1.5596605371897141e-02 -2.6201633339452224e+00
    1.4604047443294136e-02 -2.6068380048486874e+00
    1.4421148464435277e-02 -2.6111637125482434e+00
    1.4265048665474364e-02 -2.5748868108691827e+00
    1.4034920686721483e-02 -2.5266589927770671e+00
    1.4132276927529143e-02 -2.5260993977843635e+00
    1.4383785264781675e-02 -2.5352339643130772e+00
    1.4935932807463616e-02 -2.5886513841769760e+00
    1.6252585948697558e-02 -2.6657526053023837e+00
    1.8512298716658097e-02 -2.7528379009714739e+00
    1.9275705242742434e-02 -2.6927339981334892e+00
    1.9340459988322373e-02 -2.6800322305307525e+00
    1.9861961072574968e-02 -2.7006139432413607e+00
    1.9100303783062843e-02 -2.7316279135875212e+00
    1.6327634932478251e-02 -2.6638015297606379e+00
    1.4824747548366391e-02 -2.5951982264057780e+00
    1.4516662517436182e-02 -2.5723525980896911e+00
    1.4612175915808000e-02 -2.5934902315079693e+00
    1.4474416321222133e-02 -2.5708719150623454e+00
    1.4230221898944382e-02 -2.5167964052355347e+00
    1.4099923139589724e-02 -2.4685215437863208e+00
    1.4327860581680141e-02 -2.4807471204789233e+00
    1.4598041493583576e-02 -2.5177739118587628e+00
    1.5150386010162458e-02 -2.5894427306156493e+00
    1.6688502624222012e-02 -2.6910210481557995e+00
    1.8856641435939573e-02 -2.7256873990513717e+00
    1.9113966770982538e-02 -2.6619248829673658e+00
    2.0109839794278172e-02 -2.7377407535250766e+00
    1.8439317970067703e-02 -2.7695463265127436e+00
    1.5802529557036340e-02 -2.6313397168680841e+00
    1.4939588997487529e-02 -2.5707695096921275e+00
    1.4838181254885259e-02 -2.5557662240595347e+00
    1.4952696311313581e-02 -2.5805490551054859e+00
    1.4787816909127696e-02 -2.5454552416643592e+00
    1.4415379544038024e-02 -2.4690631412008019e+00
    1.4456640534568785e-02 -2.4504774676335290e+00
    1.4540903137811489e-02 -2.4531586426700374e+00
    1.4894549043340548e-02 -2.5132966984143206e+00
    1.5189951727708300e-02 -2.5599754922891718e+00
    1.5717185626297772e-02 -2.5842230047579280e+00
    1.7911774243153263e-02 -2.7195789824801273e+00
    1.8773993892253097e-02 -2.6488907041933447e+00
    2.0178382191516138e-02 -2.7782841650393362e+00
    1.7694398369385130e-02 -2.6894544330062771e+00
    1.5750592120948918e-02 -2.5450108356112429e+00
    1.5185408301280089e-02 -2.5013113769454280e+00
    1.5439425556554566e-02 -2.5740314639313282e+00
    1.5603198939973247e-02 -2.6059832101926594e+00
    1.5322468034865611e-02 -2.5455998570221894e+00
    1.5039839534190512e-02 -2.4899734335195727e+00
    1.4988410593880090e-02 -2.4716207971661328e+00
    1.5072986290509897e-02 -2.4686184174577543e+00
    1.5251607583527086e-02 -2.4917232764015123e+00
    1.5588401348270541e-02 -2.5445577690198213e+00
    1.5957421869340759e-02 -2.5372979811480287e+00
    1.7516828253926829e-02 -2.6635269106279464e+00
    1.8766217870577289e-02 -2.6586939347832552e+00
    1.9910910482797382e-02 -2.7672988298138983e+00
    1.7748742157034328e-02 -2.6717899071326290e+00
    1.6057104031745571e-02 -2.5126976326102621e+00
    1.5942807587387635e-02 -2.5335156508391385e+00
    1.6526348319644234e-02 -2.6678273117742290e+00
    1.6295115718510032e-02 -2.6059183727500219e+00
    1.5941138621612717e-02 -2.5408309510458778e+00
    1.5701299763157539e-02 -2.4932995883478721e+00
    1.5879113352163996e-02 -2.5158427985650387e+00
    1.5889596851526806e-02 -2.5199041185613358e+00
    1.6039703272685737e-02 -2.5290004912213040e+00
    1.6210888458881977e-02 -2.5343137261558959e+00
    1.6294085702953962e-02 -2.4489664128865272e+00
    1.7542374194638024e-02 -2.5638553127467612e+00
    1.8818934316024123e-02 -2.6647811192919049e+00
    1.9783042397748675e-02 -2.7376994725812138e+00
    1.8102009026977166e-02 -2.6433362394361346e+00
    1.6746024371627151e-02 -2.5050627266390673e+00
    1.6676123838575006e-02 -2.5204719342996866e+00
    1.7060743052848586e-02 -2.6002205887939924e+00
    1.6649660088550258e-02 -2.5227600390980047e+00
    1.6179674601719717e-02 -2.4317362429593175e+00
    1.6018114958827396e-02 -2.4055970964071327e+00
    1.6160003111668073e-02 -2.4310489787457255e+00
    1.6328626220845563e-02 -2.4586915786432999e+00
    1.6729176323236922e-02 -2.5114053060396331e+00
    1.6771437656661566e-02 -2.4909688569781818e+00
    1.6352930880135095e-02 -2.3069984222825481e+00
    1.7498685032436307e-02 -2.4160843967977055e+00
    1.9070873356840840e-02 -2.6568364047288218e+00
    2.0944740227969359e-02 -2.8178919812878731e+00
    1.9427358362980162e-02 -2.6932105563794373e+00
    1.8232457550379295e-02 -2.5813862531992862e+00
    1.7538902723709303e-02 -2.4808591318615281e+00
    1.7697656838612578e-02 -2.5083604474556958e+00
    1.7515823022549063e-02 -2.4787684655048818e+00
    1.7008982255706205e-02 -2.3754853186291132e+00
    1.6836084548945602e-02 -2.3444785056254061e+00
    1.7059406700886341e-02 -2.3859758067789660e+00
    1.7331537165077515e-02 -2.4359291107461498e+00
    1.7776586781889824e-02 -2.5053829717569638e+00
    1.7611623431720052e-02 -2.4424511334354482e+00
    1.7230487045151843e-02 -2.2869255582204620e+00
    1.8105159485580297e-02 -2.4043073972611735e+00
    1.9374437649561892e-02 -2.6586469009091895e+00
    2.1183899718330013e-02 -2.8141458611989614e+00
    2.0797176705738461e-02 -2.8037249158063835e+00
    1.9656637881976580e-02 -2.6624916011137274e+00
    1.8715359030556794e-02 -2.4799443512000994e+00
    1.8804759278229232e-02 -2.4975320979686475e+00
    1.8855202772646379e-02 -2.4940217999359153e+00
    1.8301991512188327e-02 -2.3994494978590990e+00
    1.7931564683825930e-02 -2.3387338619543181e+00
    1.8111809517281228e-02 -2.3558839890191234e+00
    1.8264238633399443e-02 -2.3758859955887770e+00
    1.8671078938965319e-02 -2.4226916694303604e+00
    1.8501243273718781e-02 -2.3570190287243817e+00
    1.8248758154460035e-02 -2.2691942493620956e+00
    1.9466282395937132e-02 -2.5326254661445993e+00
    1.9628163149347008e-02 -2.6614953989529462e+00
    2.1558823997070157e-02 -2.8108578206733239e+00
    2.1474885701967490e-02 -2.8079098424015112e+00
    2.0925976315667238e-02 -2.6808847061601520e+00
    2.0128944839282403e-02 -2.5007001897142542e+00
    1.9838984086353241e-02 -2.4474974771894042e+00
    1.9818975406908391e-02 -2.4298274689033592e+00
    1.9478644971707714e-02 -2.3658057635903171e+00
    1.9176252409780013e-02 -2.3226113716577386e+00
    1.9328073591680341e-02 -2.3359621877979029e+00
    1.9294640636070719e-02 -2.3133453074111086e+00
    1.9620467426626646e-02 -2.3277597317923724e+00
    1.9667574427413865e-02 -2.3077178606872764e+00
    1.9891632257813111e-02 -2.3716962431477873e+00
    2.0389136714394719e-02 -2.6144079004887493e+00
    1.9857677979100798e-02 -2.6279101782619168e+00
    2.1540312051236493e-02 -2.7400422690452140e+00
    2.1634881762628927e-02 -2.7294704926722626e+00
    2.2036624883781830e-02 -2.6953839851200168e+00
    2.0932332308441218e-02 -2.4331386780314057e+00
    2.0928768131743995e-02 -2.3762835041839412e+00
    2.0513013288695162e-02 -2.3096343621797004e+00
    2.0207328746279594e-02 -2.2559117857814690e+00
    1.9738285533196134e-02 -2.1925875519205040e+00
    1.9647205281149979e-02 -2.1690096604745297e+00
    1.9533051930589514e-02 -2.1389523057694695e+00
    1.9850148181930080e-02 -2.1456531982142231e+00
    2.0573181288557903e-02 -2.2667706234637683e+00
    2.0992903557668821e-02 -2.4709094144898707e+00
    2.0538710033691676e-02 -2.5799897256045528e+00
    2.0116237887979702e-02 -2.5789016972389978e+00
    2.1667385652123054e-02 -2.6333019194512657e+00
    2.1410628329766271e-02 -2.5149516245012156e+00
    2.1585602788974662e-02 -2.4446843328874919e+00
    2.1515467183391888e-02 -2.3346112997570274e+00
    2.1476158845475202e-02 -2.2264836508609038e+00
    2.0804849454723089e-02 -2.0914406906638918e+00
    1.9834974226777179e-02 -1.9754790288413613e+00
    1.9397794806905757e-02 -1.9110955075186618e+00
    1.9065553293703304e-02 -1.8573702583732765e+00
    1.8958326679445185e-02 -1.8353072015987577e+00
    1.9233014309479990e-02 -1.8722521004137942e+00
    2.0050646878044462e-02 -2.0504772699356768e+00
    2.0334783107738872e-02 -2.2714601713783926e+00
    2.0563297803556205e-02 -2.4340381844792391e+00
    2.0860735571301876e-02 -2.5231725441646149e+00
    2.2380712335143670e-02 -2.5737819185415223e+00
    2.1865683873954871e-02 -2.4156230566580761e+00
    2.1390897163319850e-02 -2.2857311432686163e+00
    2.1163803427185442e-02 -2.1927501525323878e+00
    2.0958549724769428e-02 -2.0680514495973816e+00
    2.0256091418765238e-02 -1.8837518548448946e+00
    1.9643205159300459e-02 -1.7546815434214265e+00
    1.9100888678468632e-02 -1.6731972080451745e+00
    1.8704077914585001e-02 -1.6278119213152871e+00
    1.8605720019517290e-02 -1.6136107586713915e+00
    1.8764454837556767e-02 -1.6844292166466781e+00
    1.9459263746433773e-02 -1.8872380632379095e+00
    2.0327947463416787e-02 -2.1677160912611013e+00
    2.0997050741963712e-02 -2.3930160032311858e+00
    2.1386035627840510e-02 -2.5094010188080347e+00
    2.2220730011507841e-02 -2.5829471121674636e+00
    2.1860879968542218e-02 -2.4711166616355551e+00
    2.1719371342487373e-02 -2.3973102704983349e+00
    2.1337827628998416e-02 -2.2982883339927689e+00
    2.1089397035285368e-02 -2.1880922489971395e+00
    2.0280197497168178e-02 -2.0103069389240784e+00
    1.9790145152750491e-02 -1.8865482200507087e+00
    1.9455144326817126e-02 -1.8201322365839911e+00
    1.9211945288957075e-02 -1.8003636559719689e+00
    1.9300989078392543e-02 -1.8410679624733925e+00
    1.9455317111453450e-02 -1.9271733427646438e+00
    1.9947309831090609e-02 -2.0886955447389219e+00
    2.0898830820163621e-02 -2.3181249939310429e+00
    2.1489279894793170e-02 -2.4896245195560218e+00
    2.1759828937135118e-02 -2.5840028350389836e+00</input_scale>
  <output_scale>
    5.2631578947368418e-01 4.9999999999999994e-01 5.2631578947368418e-01
    4.9999999999999994e-01</output_scale>
  <inv_output_scale>
    1.8999999999999999e+00 -9.4999999999999996e-01
    1.8999999999999999e+00 -9.4999999999999996e-01</inv_output_scale>
  <weights>
    <_>
      -4.7751722310399023e+00 -4.6359455904924735e-01
      -1.1884388959830617e-02 -2.5228330071636618e-01
      -5.4791715759626403e-01 2.1945896497123363e-02
      1.1501327295689602e-01 -5.6504705796377275e-01
      2.5289576445308513e-02 -2.0026646249862046e-01
      4.1703829959454153e-01 3.8382615357563843e-01
      9.1047107540752764e-02 1.3345131911630898e-01
      2.0650380105967807e-02 2.1248049447019710e-01
      -5.2314636994070032e+00 1.7920792858626652e-01
      -1.3167609608709535e-03 9.6280858495389005e-02
      2.3285087323382525e-02 1.1149625717150050e-01
      4.4631712441955677e-02 -2.6088826611353144e-01
      9.3481154613232975e-02 -1.9085889771088221e-01
      -1.9077534587223863e-01 3.7660637304900679e-01
      3.7325669883812605e-02 -3.0499941079259917e-02
      1.0569946528346198e-01 1.6831590771609986e-01
      -5.3769910147156006e+00 1.3485820351790285e+00
      -1.7994719866334299e-02 2.4050325487005075e-01
      6.7408812745506774e-01 1.8054556721018877e-01
      1.6299456659085259e-02 -2.5648601481927996e-01
      3.1831848567571147e-01 -1.7334517769842289e-01
      -6.6023001239550827e-01 3.3210368117412264e-01
      6.4142872577748746e-04 -1.9477771188241880e-01
      1.7700934762395798e-01 1.0047267865986147e-01
      -5.6642931053221357e+00 1.2902040334729525e+00
      -1.5787302883042062e-01 1.9186750368400898e-01
      6.4994829441778690e-01 7.3250402186716107e-02
      -1.3442902301269435e-01 -1.9889669461168638e-01
      -8.5504875420568064e-03 -1.7417356713404841e-01
      -2.2516008358776798e-01 3.1910277830274630e-01
      6.1754585769469598e-03 1.0503182603389120e-02
      2.8078998188878468e-01 4.2861605490194424e-02
      -6.2750918005224863e+00 1.0325055235144642e+00
      -3.4086339823773115e-01 1.5016626856112228e-01
      4.3857197386642882e-01 -1.0630438795080850e-01
      -1.2114752575145746e-01 -2.6506816230193597e-01
      -1.1358906995209504e-01 -2.2592680925169936e-01
      1.0205487895334332e-01 1.4715363421655581e-01
      1.3234347197770830e-02 1.6168707970091908e-01
      3.1179207939121267e-01 1.1363610267046161e-01
      -6.4455758032190609e+00 4.3495101317465240e-01
      -4.8367061393268163e-01 -9.5233798307855864e-03
      -1.8158242430246407e-01 -3.9648751173762709e-02
      -6.5548350590544799e-02 -4.2012582942982496e-01
      -1.7148551419753476e-02 -2.2769048104188283e-01
      3.5466216193505506e-01 -1.1846503955779934e-01
      9.7040590473468136e-02 -1.8896981209179025e-02
      5.8368065311040628e-02 1.6697108656327644e-01
      -5.3082124137020319e+00 1.8168635767240809e-01
      -4.0563752714919693e-01 1.3140374380786768e-02
      4.1660514902696916e-01 6.2470617173075810e-02
      -1.3129179940854732e-01 -3.8532842878179395e-02
      2.4898369590108610e-01 -3.6278744043706002e-01
      2.6495302953246808e-01 -2.7079414458626400e-01
      2.8176015817956657e-01 -2.1267962981220617e-01
      2.8073108066253927e-01 8.6956238873155178e-02
      -5.0007915474312030e+00 -1.4089207065660614e-01
      -2.3931612602148394e-01 1.8285723688916011e-02
      2.6326772568770468e-01 8.8507443880099498e-02
      -3.6782051905022750e-01 -3.0588432011505767e-02
      3.2844398971644581e-02 -3.1305667024656259e-01
      2.2514796239694446e-01 -3.5690142485981968e-01
      4.2425245323461219e-01 -2.7104822054635092e-01
      1.4800747709497575e-01 8.0139950780545408e-02
      -4.8704689441505042e+00 1.4095826772334889e-02
      -2.0994722759090520e-01 3.0355622773718186e-02
      7.7390456119968165e-01 2.1411965359972268e-01
      -1.5280293583179125e-01 -9.7159425403555738e-02
      2.6425814285230587e-01 -2.1778187217073608e-01
      1.6498121696566362e-01 -3.4564113019944087e-01
      3.5915188559343059e-01 -2.7147760666030857e-01
      6.0518067789054997e-02 1.4508117118653815e-01
      -4.9278831724491257e+00 3.1565066011098952e-01
      1.1322014800146253e-02 4.7858313213990658e-02
      7.6168897705940519e-01 1.8155274221746515e-03
      -6.7842284151459695e-02 -1.5258123994516529e-01
      9.5613953672505775e-02 -1.2739615735773507e-01
      5.8986160281576945e-02 -5.4796348897191718e-02
      1.2302957863587803e-01 -2.9722673055472698e-01
      -3.4214149968556665e-02 1.8476860883487981e-01
      -4.7887097050538774e+00 5.6860651322326417e-01
      -1.0736692991334441e-01 4.2600930785923329e-02
      3.2706936413461701e-01 4.9500960915350757e-02
      -6.8698157589802092e-02 -2.3737349257637871e-01
      7.6217091352245567e-02 -3.5364224872214661e-02
      2.3261646310871617e-02 -1.2714602749679516e-01
      1.4932998587110374e-02 -2.6481052830300350e-01
      1.1850433955822852e-01 1.3052249578876204e-01
      -4.1231789735253068e+00 6.4544963513813070e-01
      5.8631899345272555e-02 5.3498143055858739e-02
      4.4287046912421940e-01 1.7760008267864585e-03
      -3.9094667221039582e-02 9.6312266920039968e-02
      5.7713296109959442e-02 -4.5884976749697243e-02
      -3.3572584592287902e-02 -5.5722556496603251e-02
      9.4933991739746034e-03 -3.9419960630030410e-01
      2.1882720282612517e-01 1.6361945028357544e-01
      -3.3775192188464280e+00 -9.6709761080790463e-02
      7.6945915687525596e-02 -1.4566488457318438e-01
      3.2290222034868969e-02 -2.5500567322106569e-02
      1.0530854412057464e-02 7.4273760413086278e-03
      4.2310720482746325e-02 2.7650164459232091e-02
      3.3799441176290979e-01 2.1115452679864390e-02
      -7.8121723812851665e-02 -4.6069719149867089e-01
      -1.8301695354721734e-02 2.9126160384620142e-01
      -3.2384995419453384e+00 -4.0811976812901474e-01
      2.3149887444745929e-01 -1.7418027544607920e-01
      -1.8545435579617562e-03 -2.1077204612735206e-01
      2.2509050000301442e-02 4.1520983947285151e-02
      -5.2498630483501951e-02 4.0272099199698465e-02
      4.9139149268119808e-01 6.9954166216546626e-02
      -1.0315073559901478e-01 -4.0142587030860044e-01
      -7.9117590061586987e-02 2.6357734654221721e-01
      -3.0215317348952664e+00 -3.9570773400762366e-01
      2.0850350891590314e-01 -1.5495602347954235e-01
      8.8043364994581888e-02 -8.8338637827889852e-02
      1.6369394562656428e-01 1.7088194579619587e-01
      -1.3663302056487817e-01 1.6889740530021266e-01
      5.6466197160580345e-01 -9.0874759596667590e-02
      -3.4727346881669963e-01 -2.0536024137453676e-01
      -3.5821736276281158e-03 2.8099688337334683e-01
      -5.7692121662143530e+00 -2.5940732279971107e-01
      1.5726912541380009e-01 -3.2463959176364989e-03
      4.8432154395130284e-01 4.7725468188590872e-02
      -1.0174421410936864e-01 -2.0057361755739394e-02
      -1.8158400909626818e-01 -2.2868368276715159e-01
      4.6728679669465428e-01 2.8385156601896250e-01
      7.9534297457593120e-02 1.8984609297793537e-01
      2.0637272795746270e-01 1.9139568321975811e-01
      -6.5520800672313770e+00 1.8632257681162884e-01
      5.7815902379126906e-02 1.8936192940590851e-01
      7.2473607866888579e-01 9.4772418257116478e-02
      -9.3087257679295266e-02 1.3860134455988252e-01
      -5.4548107307044395e-02 -2.4058460371273491e-01
      -7.9572707195043446e-02 2.8953739714616844e-01
      4.2202500201783427e-02 1.2835340669911197e-01
      1.1169869109323102e-01 1.0570041221383626e-01
      -6.5935748863844275e+00 3.3689244855224709e-01
      -2.6175093319840093e-01 2.2875135714482375e-01
      2.1690536935279881e-02 4.3608618860932891e-01
      5.3865398821214848e-02 -6.4873950570593183e-02
      4.1756506554976525e-01 -2.3856059667177454e-01
      -2.3350316086703601e-01 1.5881119438081684e-01
      4.1391744036033302e-02 1.6667959836997401e-01
      -3.7320526438516964e-03 8.7786142834080247e-02
      -7.1150194086596219e+00 -4.6604108018819657e-01
      -3.8617285713505944e-01 8.2239192257323041e-02
      -8.6107255905824287e-01 4.0426624083528245e-01
      -1.4714894417864827e-01 4.1133186785660310e-02
      -7.6749912700481444e-03 -3.2455734765567590e-01
      1.5054238209768639e-01 -1.3831763535849476e-01
      2.0831117938422186e-01 7.3335514367694782e-02
      -7.5861598665604421e-02 -7.5730467630569431e-03
      -7.1679102581303669e+00 -6.6454857731091999e-01
      -5.0229163468150761e-01 4.8472003503199024e-02
      -1.0792196227819657e+00 3.2228465370672554e-01
      -4.3273612519699911e-02 2.5854262756138024e-01
      -4.8177367176546705e-03 -2.7966403332027123e-01
      3.8739719045025345e-01 -4.8782045894695630e-01
      4.5917909695107167e-01 -1.4350360830295544e-01
      -1.2297598154987521e-01 6.6902073610815736e-03
      -6.3097843669310905e+00 -9.6958770052850840e-01
      -6.8302744525737313e-01 3.6443590765259277e-02
      -1.4402539993550558e+00 6.2765075874860388e-01
      -4.4003235725989395e-02 6.2881409905430452e-01
      2.0921884983037820e-01 -3.0120348269160363e-01
      5.5049337972232804e-01 -9.1049436432154096e-01
      6.2772672421956444e-01 -4.2615304298164963e-01
      5.8047730562987433e-02 3.4567094069200763e-02
      -4.5749201013959429e+00 -1.1600961037128517e+00
      -6.6535029772427479e-01 2.8550304432879241e-02
      -1.1403710275722800e+00 6.8458710434847170e-01
      -2.3680602594120495e-01 8.3978002661203821e-01
      5.1553762296678261e-02 -3.3164399231544123e-01
      5.8104910453232317e-01 -1.0463794742858346e+00
      6.6986531866353249e-01 -4.4355487192670850e-01
      2.4670156781961941e-01 9.5582945015479523e-02
      -4.2041806918056688e+00 -1.2607935043165392e+00
      -5.5908678973963821e-01 1.1582193980554611e-02
      -1.0836826652378793e+00 5.2269489100677313e-01
      -2.2906911152502407e-01 8.4308916549724333e-01
      2.1434227099799194e-01 -3.5619167203679614e-01
      6.7305810470096117e-01 -7.9800550077913590e-01
      6.4220901131353214e-01 -4.6183904862461794e-01
      1.6624900142776969e-01 1.6531831422947699e-01
      -3.7933147375323708e+00 -1.5089913111308462e+00
      -4.5927572732179256e-01 1.6220371662235635e-02
      -1.1785746123847594e+00 6.7321973383003708e-01
      -2.7165684533254475e-01 7.8233165948258909e-01
      2.4266801676642571e-01 -3.9453366550662372e-01
      8.1907302638057156e-01 -7.4539306521502058e-01
      6.3676020436671577e-01 -4.2735582179035098e-01
      4.3203621428031178e-02 3.6902834460766387e-01
      -3.6521789334135928e+00 -1.2969383392173555e+00
      -1.6746263198432598e-01 3.4533235487132941e-02
      -6.9050383503033441e-01 4.9362403172483460e-01
      -2.7690590671200299e-01 7.5195427266056458e-01
      2.1454334895594704e-01 -4.2653080537346461e-01
      6.3198687998029435e-01 -5.2677561212961810e-01
      6.2308748156272920e-01 -4.7972205463173606e-01
      -9.8045679647707051e-02 3.2594620092680077e-01
      -4.1558349454306684e+00 -7.7419424553675031e-01
      -9.2824654937312831e-02 6.6478749919223590e-02
      -4.6156272125239373e-01 1.6888042850263937e-01
      -1.3501154213745381e-01 7.6024606798466465e-01
      1.9596210612316098e-01 -3.4813664191363508e-01
      5.5774936030244127e-01 -4.8780416599946652e-01
      5.1183249933859531e-01 -3.0914116435271627e-01
      -1.6565569145680820e-02 2.7132655949895246e-01
      -4.6954026599712817e+00 7.7738190338582355e-02
      1.3446758373342199e-01 8.2121155600889631e-02
      3.1679801658238985e-02 -5.3278546911054929e-02
      -1.9048807466712511e-01 1.1179086648206144e-01
      -1.6878053573373495e-02 -1.2277493844519728e-01
      2.9706353543028463e-01 -8.6956932303207973e-02
      1.7977537614446668e-01 -5.2034375158123362e-02
      1.4069394272255178e-01 1.2259178606985272e-01
      -3.8198106635646836e+00 7.3720531459148153e-01
      2.6991259094135767e-01 -5.2607562026840450e-02
      6.8966390975120584e-01 1.4302653313223423e-02
      -1.4141695167308646e-01 -2.8672579408971760e-01
      1.9263500097513434e-01 7.2612536339424855e-02
      1.8219689373792577e-01 2.6864494164406305e-01
      -3.6678855932443306e-02 -4.6671349794430689e-02
      -2.9251545891715237e-02 3.1558432914922591e-01
      -3.6353520746770642e+00 3.7225675751144105e-01
      3.0143187844135277e-01 -1.3517770688283084e-01
      6.0604116049298462e-01 -1.1532670222566443e-01
      -1.2228685372120528e-01 -2.6415200823575385e-01
      5.2025060639116230e-02 5.9404451396220921e-02
      3.2501515587056701e-01 2.3682867528941828e-01
      5.6219321998730656e-03 -2.0842181675473387e-01
      -1.7188160909177591e-01 3.4077468606416850e-01
      -3.4947061918941182e+00 2.6118345239013936e-03
      2.4783898236194712e-01 -1.5007462994343018e-01
      4.0609664185373345e-01 -1.2986637636522580e-01
      -1.3980834507698378e-01 -1.9420953910014779e-01
      -1.7719090794168510e-01 1.1429032000258196e-01
      4.4862284504036720e-01 7.8321551679575066e-02
      -4.7790133017041957e-02 -7.0920976114991097e-02
      -1.6285120551799764e-01 3.1633590855659277e-01
      -6.8419616052392032e+00 4.0907943708563349e-01
      -3.5250392853359583e-02 -3.6551474143664407e-02
      3.2608045984165385e-01 2.2008536188542033e-01
      5.3147058006583300e-02 -2.5159856942076364e-01
      -7.2424997647082684e-03 -1.1723363993351867e-01
      1.8576943944334515e-01 2.8672341230103582e-01
      -1.7499347155426653e-01 4.3568688594292632e-01
      1.8058508847053431e-01 7.2699062277928009e-02
      -7.7199524411970861e+00 1.0165739663119291e+00
      4.8788977007329731e-02 1.9961225758913725e-01
      7.3077019975262869e-01 2.2598099559248838e-01
      1.4520915206089149e-01 2.1404070961145744e-01
      1.5591474034651914e-01 -1.9658216284392466e-01
      -4.3156061621360409e-01 2.3800030030533065e-01
      -1.4050605083859111e-01 1.1145422551953137e-01
      7.0155045826798976e-02 -1.3665349897820511e-01
      -7.6733776786703860e+00 4.8369499744702854e-01
      -5.0172341542944907e-02 1.6883523154574834e-01
      -6.3920836901205274e-03 4.5249149296537877e-01
      1.0819439237955981e-02 4.8850055317175556e-01
      1.2561381353779594e-01 -3.1910369849549591e-01
      -1.7014243158107370e-01 -7.1519970799511903e-02
      5.8624657792755192e-02 5.9591700575422672e-02
      -2.2450054281631249e-01 -9.4986525445553915e-02
      -6.6112885477589467e+00 -2.5286091287324680e-01
      -2.1167616520014185e-01 2.2138693572512802e-01
      -5.6953117747141468e-01 3.4222394828250546e-01
      -5.4065197340644688e-02 7.9612454957596690e-01
      8.5427077073142510e-02 -4.0919617161091693e-01
      1.6209643485925102e-01 -3.8565343476594577e-01
      4.6633524173363983e-01 -2.6781143686833558e-01
      -5.2069284433888675e-02 -8.9895353383263460e-02
      -6.5027048488300334e+00 -8.1378939493837354e-01
      -6.0908372289827817e-01 8.3106631940329717e-02
      -8.4269355455749950e-01 6.1515566600446103e-01
      -1.1483029322456295e-01 6.1579608751232084e-01
      4.8569187542834132e-02 -3.1327551338023391e-01
      2.4911081037830135e-01 -9.6770829300951211e-01
      5.3825467017715722e-01 -2.7082681717414964e-01
      9.2750816535131106e-02 5.6266233244771424e-02
      -6.6451545946601973e+00 -1.3434006796495226e+00
      -8.2551927926996538e-01 -5.1615467692750362e-02
      -1.3360053123431359e+00 7.8019890400846270e-01
      -7.7634770289750424e-02 6.7976210522778024e-01
      6.2352653171472065e-04 -3.8895421642304639e-01
      3.8016682492411774e-01 -1.2969321972165071e+00
      5.8272899222366048e-01 -2.4648754178970803e-01
      2.0736225344522732e-01 4.1724017024494638e-02
      -5.4348076764030484e+00 -4.7903502479564380e-01
      -6.4695696876133546e-01 8.7097431864134725e-02
      -5.7853608843751458e-01 3.9948736328974999e-01
      -8.1489254656659238e-02 8.5345393193876951e-01
      8.6629890817246535e-02 -4.5354161921818353e-01
      3.1304528742464288e-01 -9.8936539877540386e-01
      5.8063360836769828e-01 -2.4114768586411145e-01
      2.9580603489104906e-01 -1.7778836310321757e-02
      -4.6794337787985860e+00 -4.8547876942415158e-01
      -5.3836285101209636e-01 1.4899233801241635e-01
      -6.6648000739895097e-01 1.4827604369683497e-01
      -2.9625409059273494e-01 7.0346881931572558e-01
      8.2199675310123843e-02 -4.3728165344907055e-01
      3.7308529412952052e-01 -6.2937477956253551e-01
      4.8541196336918768e-01 -3.6891941068252737e-01
      1.3741884090084577e-01 5.1549777598061273e-04
      -4.5393466499143456e+00 -1.1278885898336948e+00
      -5.0500472869688562e-01 3.2460984563585783e-03
      -9.9394420115389526e-01 4.6139938107562978e-01
      -1.5184702210626813e-01 7.3734462830178416e-01
      2.8474728646848724e-01 -5.0155963181369856e-01
      5.7136799175475095e-01 -7.6070199429393115e-01
      6.0217806364917781e-01 -4.5742234768935430e-01
      1.1088793049207296e-02 1.4305982085070171e-01
      -3.5788025715922451e+00 -6.8891505876082904e-01
      -2.7761716063887099e-01 1.8715530611962933e-02
      -4.3934448131740028e-01 6.6748793768627723e-01
      -1.2930386236488667e-01 8.5403756988163004e-01
      3.7743471303477444e-01 -4.4469622294898936e-01
      2.7860832127832585e-01 -7.3134609676708473e-01
      5.1136907964429101e-01 -5.8182938219773306e-01
      1.8163624358856953e-01 1.4993623847794277e-01
      -3.3176290775501416e+00 -4.8952293859022428e-01
      -2.3474429580510817e-01 1.0798996365121932e-01
      -3.5808680267823845e-01 6.3905864244751065e-01
      -2.4987007704000927e-01 6.4560178921098998e-01
      3.0642206622926493e-01 -3.2446153835278246e-01
      2.6685963571890003e-01 -7.7065763077840355e-01
      4.2571497410645120e-01 -4.9566891521813872e-01
      7.0385308143486924e-02 1.7369871247388377e-01
      -4.4876047467357925e+00 -6.6064998794266694e-01
      -1.7478871453348460e-01 7.6447266375782502e-02
      -7.5552924027322999e-01 4.7762323644402327e-01
      -1.5738353359722673e-01 1.7570441821738947e-01
      3.0465399121741829e-02 -1.8405338320040254e-01
      4.3715685767537382e-01 -6.5318786705256193e-01
      2.5720885164154933e-01 -4.4094254599293653e-01
      6.2492447045498764e-02 4.9966750860555555e-02
      -5.1201757360297346e+00 -3.4636345754321218e-01
      -3.8944397578335739e-02 -2.2833580193360146e-02
      -6.1698477098112736e-01 3.3166620742723296e-01
      1.4040052378511312e-02 -3.8224603398603750e-02
      3.2810618351741649e-01 -1.4247015261078788e-01
      2.4202973363630292e-01 -2.1199760089974656e-01
      1.5106797800814675e-01 -2.1773574506914434e-01
      -3.2389495356602412e-02 1.1865137668903489e-01
      -4.8576019494150771e+00 3.0329518474560463e-01
      -7.4574645725283420e-03 2.0614496802298973e-02
      -4.5684332344826203e-02 1.2740257685487028e-01
      -1.5285428307195226e-02 -3.9696755183086146e-01
      3.1832044277813637e-01 4.4475228741821908e-03
      6.3116142345201215e-02 -3.4135713866707107e-02
      5.3548263200072334e-04 -1.5258429342236521e-01
      7.8618725184539905e-03 1.2747604154399148e-01
      -5.0863754274965025e+00 2.9221675431533978e-01
      1.3522360006696621e-01 1.3152134476946797e-01
      1.4002339384964263e-01 -2.1531891090774916e-01
      -1.3293386420324646e-01 -8.5892754262403684e-02
      3.2947089055957599e-02 -1.4897372268445400e-01
      -6.1246947485839726e-02 4.1721687995925336e-02
      6.6275692623683616e-02 -8.1268662262722613e-02
      3.8498952755132279e-02 6.4758648508781616e-02
      -7.1402514126664061e+00 1.1982856511397957e+00
      2.5923596669230159e-01 -5.9975063033082171e-02
      1.5932070589028018e+00 1.1495214784513377e-01
      5.3673089374506530e-02 2.6050540917100490e-02
      -6.1362629168864799e-02 6.6405278169643284e-02
      -4.4888962880436384e-01 5.6482556334342715e-01
      -2.5353445969281568e-01 2.7428520669793893e-01
      1.6869821548846942e-01 -1.2561239045614678e-01
      -7.9520007333414338e+00 3.7519628155688345e-01
      -2.2059340827698594e-02 4.4605620645372643e-02
      4.2971787755543150e-01 2.1178280341594266e-01
      8.5252098937569326e-02 1.5951323769990650e-01
      2.7276428992758540e-05 -1.0285855726820298e-01
      -3.0573819027165161e-01 2.4921372129685476e-01
      1.0036468915491363e-02 -2.5799035570828799e-02
      -2.8253759475108803e-01 -1.6091664536148204e-01
      -6.3634002252238533e+00 -4.7604700016707774e-01
      -3.5571893814450106e-01 5.3766387949267136e-02
      -7.1518824572443829e-01 6.4245867534414347e-01
      -1.2488158556718142e-01 5.3275750771089436e-01
      1.2038678512405848e-01 -2.4572303791440170e-01
      8.1237192323359617e-02 -4.6611861897104612e-01
      3.4968252175145603e-01 -2.9135413275912736e-01
      -1.4582106649722110e-01 6.0543706962631096e-02
      -6.4352056765587768e+00 -6.6632403366193038e-01
      -4.7840833767397917e-01 9.3223946627026807e-02
      -2.9634071496020975e-01 5.2681056509402158e-01
      -2.1779815446441050e-01 4.3809022319111468e-01
      1.3443089418103144e-01 -2.5411772375383873e-01
      1.5628554426943425e-01 -6.7606306156440577e-01
      3.7743605007537501e-01 -2.5559481816448759e-01
      1.6472007536862614e-02 -2.7329434899033882e-02
      -6.2761647590041676e+00 -5.2471926946634984e-01
      -5.2846853165627516e-01 2.3800457577737199e-02
      -2.0862507686245049e-01 5.3928682542701012e-01
      -2.7604485931613132e-01 5.6248376825350876e-01
      1.6734560911201787e-01 -3.4287108981780895e-01
      1.3263720917172844e-01 -7.6878651292285416e-01
      4.0121981939865542e-01 -1.4701271882438480e-01
      1.2158517846103462e-01 -1.8195421353045468e-02
      -6.1715029085694999e+00 -6.5180622124850263e-01
      -5.7356600208733832e-01 9.5618318465035851e-02
      -3.7927514214903452e-01 5.9250493146691663e-01
      -2.1635671206202803e-01 6.0265606690441098e-01
      3.7014192949416841e-01 -3.8939219240566819e-01
      1.5858381769778770e-01 -8.9668700551427316e-01
      4.4975132328568423e-01 -1.4128609755415922e-01
      6.9415766216776628e-02 -3.7747839718320020e-02
      -5.3816772481919282e+00 -3.0684658524181629e-01
      -4.7425619514189310e-01 1.2297337197813648e-02
      -2.6663079896845111e-02 4.3586421735306691e-01
      -1.3277049140578054e-01 5.6000836743040650e-01
      3.3878480190992261e-01 -3.7382568543706524e-01
      2.2770293260163205e-01 -7.0648326914887294e-01
      4.3841695573993311e-01 5.8002479121127916e-02
      1.2836931582946612e-01 1.1407855469779326e-02
      -5.2141318675175761e+00 -2.4207175684929469e-01
      -2.9034499717911150e-01 4.4186344202781690e-02
      -1.0720723197958736e-01 2.0373516727351282e-01
      -3.1438910012453797e-01 5.8972614507072985e-01
      1.5814906716902344e-01 -3.6394165597015093e-01
      2.2637017834755349e-01 -3.7677727104124387e-01
      3.8880762025766380e-01 -6.1665177939150648e-02
      3.2536004339973654e-02 5.4704075507638582e-02
      -5.4616633844530895e+00 -5.2768421404813592e-01
      -2.5108536299682127e-01 -9.3199364864993334e-02
      -3.4090290580838295e-01 3.2086274715993129e-01
      -2.5726428563281811e-01 4.5017273556519516e-01
      2.1785171215668511e-01 -4.4309604105952488e-01
      4.1796986387459961e-01 -5.0705392737451238e-01
      3.9187916303908371e-01 -1.5924670000620508e-01
      8.5119668677276994e-02 1.3363247899381911e-01
      -5.1640869310663211e+00 -3.4697868729484399e-01
      -1.6942258306979677e-01 -5.9585582558398423e-02
      -1.9522187733345781e-01 4.6678215186028882e-01
      -3.6522825379791513e-01 3.9393949853450633e-01
      2.1605475847197594e-01 -4.5821802701059322e-01
      2.4804280761978681e-01 -6.1378189281799711e-01
      3.3752324488121843e-01 -3.4102530670214648e-01
      1.3600069224669112e-01 9.9501603598344368e-02
      -4.4469343911890782e+00 -1.4141542090813947e-01
      -4.1918027128150193e-01 7.7305923851592170e-02
      -6.3319959717602359e-01 6.0330044117421588e-01
      -4.5300449642184881e-01 1.2203859059070316e-01
      4.7323229164365382e-01 -2.6577020021448805e-01
      2.0030629038277882e-02 -7.8979057513752959e-01
      1.5827171991373443e-01 -3.0945373487136141e-01
      2.0336366932973599e-02 2.4511364513100362e-02
      -4.3107237510829730e+00 4.6945079125458783e-02
      -3.4441281581772704e-01 2.0342444863762257e-01
      -4.8800221288229040e-01 2.6268050086649913e-01
      -3.6892270727498488e-01 -2.4057605719148492e-01
      3.2625150664538033e-01 -1.5687787598412581e-01
      -1.6985135188930367e-01 -5.5813656889505181e-01
      9.9873808415720217e-02 -2.2444907746322429e-01
      -2.0169511545134626e-02 -9.8388379915394411e-02
      -4.9254883412782826e+00 -6.8560758236624567e-02
      -1.5257305831654153e-01 1.5313853786466144e-01
      -4.8436169413961661e-01 4.0167791165305156e-01
      -2.5154117333735915e-01 -1.1730148416013562e-01
      2.2414007691283422e-01 -1.6444758494444711e-01
      -8.6125953542969056e-04 -3.3584703149268758e-01
      9.9013820454876764e-02 -2.2127479678335965e-01
      -8.6983895149201809e-02 1.0908444985447861e-01
      -5.5481090320989503e+00 3.5293837311097320e-01
      1.0412937153896316e-01 2.6036227937543843e-01
      -3.5548602040392785e-01 6.9763731712609967e-02
      -3.7655545161437565e-01 -1.2075334809323562e-01
      3.4653151350770800e-01 -2.1354186683720799e-01
      -4.1484484855137671e-03 -1.8063267560513106e-02
      3.6253921807046875e-02 9.8680312905410045e-02
      -1.4265865785245913e-01 1.2813408244972771e-01
      -5.6434405339833269e+00 5.8842133747505809e-01
      1.7680513318621804e-01 3.2310829182083900e-01
      1.9197684496424094e-01 -3.0947738637782923e-01
      -4.2824684579673422e-01 -1.0203125829699042e-01
      1.1167025802214209e-01 -2.3654701923701885e-01
      -1.2905524331692877e-01 9.3300603820507269e-02
      1.2382870823466679e-02 2.1372237276986231e-01
      -2.0072906284137321e-01 8.9652336695114729e-02
      -6.9500293926916488e+00 9.4011672612880204e-01
      2.3208754677309218e-01 -1.3611739585845621e-02
      1.5297578116769988e+00 -3.4058647007550964e-02
      1.3469209491657910e-02 1.1864244809439441e-01
      -2.6093659776359074e-01 5.2898237418519990e-02
      -5.0820305319881708e-02 6.1600255593375908e-01
      -9.8638079042154492e-02 1.0915123584165221e-01
      1.6640454353320205e-01 2.3315608709906066e-02
      -6.9768978650246289e+00 -8.3166936295137417e-01
      -6.8851585890595840e-02 -1.2413364453210876e-02
      -3.2830179996994990e-01 3.4969047769132283e-01
      6.0781866599173617e-02 3.1514040112694275e-01
      -6.8705124880982821e-02 -1.1940215768409167e-01
      1.1666026215865200e-01 5.1501024166806485e-02
      4.1424134446342942e-01 7.6284156057495993e-03
      -2.8408609740911261e-01 1.4166569456524755e-01
      -6.2277750930511138e+00 -8.2007517508424921e-01
      -4.3103455160529186e-01 -2.7662077026257215e-02
      -7.1976297392255262e-01 5.3398058955472161e-01
      -9.1358601525520874e-02 6.3382863088111863e-01
      8.9034388398141193e-02 -2.2705357322727243e-01
      -5.1076867661755995e-02 -4.5180986791947758e-01
      4.7111966737067029e-01 -3.5346149732263443e-01
      2.3493160847996519e-01 -4.8394651385515412e-03
      -6.6487324743868887e+00 -6.9003061155316436e-01
      -4.3652661341515470e-01 9.0899593445121392e-03
      -5.6231775773757153e-01 4.2365300278873508e-01
      -9.9778029956952854e-02 2.8187556771490840e-01
      2.8460048796367077e-01 -3.6450594775459294e-01
      1.5455518847744151e-01 -5.7572894574579736e-01
      3.1428273584429256e-01 -2.5589991277605229e-01
      1.3952990754048517e-01 -8.1798327238258112e-02
      -6.3618088894190326e+00 -8.2617223433971335e-02
      -3.1281031906089446e-01 1.6778967932225586e-01
      -2.8468216237296134e-01 1.3120733966999401e-01
      -3.7210577931832328e-01 3.8991279998933964e-01
      1.6591899492286902e-01 -4.3064965037066139e-01
      1.2009047257885754e-01 -3.9920555627576304e-01
      3.6035854009712098e-01 -1.6143653729218668e-01
      1.4642756126575773e-01 -1.5446090630733936e-01
      -5.8790477531460139e+00 -4.3218566622318308e-02
      -3.4817533761779623e-01 2.3298394457693236e-01
      1.0092787334168352e-03 8.1653822257550704e-02
      -3.4599787043934427e-01 5.6195023268446265e-01
      1.9683177146839323e-01 -4.2244792586754126e-01
      4.5348915088318204e-02 -4.9941667847628940e-01
      3.6408165244103297e-01 -1.9622960974157508e-01
      6.7358959320018646e-02 -6.8706631112033983e-02
      -5.4253852067819990e+00 -4.7729414440913898e-01
      -3.4029648096916104e-01 3.7664544550276860e-02
      9.3394041494482258e-02 1.6150659677003409e-01
      -2.5853797049192673e-01 6.3150512365464206e-01
      2.3020891558105655e-01 -3.7779122230392864e-01
      1.1768637669153094e-01 -5.6075050325494347e-01
      3.6400015261024776e-01 -1.3652525692810744e-01
      5.5501506646354698e-02 -5.8682654410611608e-02
      -5.4684573762421698e+00 -3.7904159121931763e-01
      -2.7217609111795915e-01 -7.6464262698749244e-02
      1.4180856405099757e-01 2.5030663697269273e-01
      -2.7057844446042462e-01 4.4428233152081803e-01
      2.3546658482616464e-01 -1.9473750414748406e-01
      1.0784996343523422e-01 -3.0122881622650094e-01
      2.3478592225278674e-01 -1.5971609787074806e-01
      7.7486256410162865e-02 6.6767959572942856e-03
      -6.1770533277200812e+00 -4.0992727356119635e-01
      -3.2254655289338452e-01 -7.8599975889477869e-02
      -2.1970266677611228e-01 3.8487913002570195e-01
      -2.4658502018014686e-01 2.7139653031604544e-01
      2.3168921112083268e-01 -2.2782017952058453e-01
      3.1086692554944845e-01 -3.7682524623362385e-01
      1.4175788845975712e-01 -1.6743043597789786e-02
      1.2376994715447287e-01 5.1849445500180530e-02
      -5.8720343981556304e+00 -4.0461792277356334e-01
      -2.6587871476336655e-01 -3.4773018664418807e-02
      -1.2495963329375402e-01 3.8901393288618635e-01
      -3.7106310060126063e-01 3.1033546019645558e-01
      2.5495371064221722e-01 -3.1403734651149368e-01
      3.2886738181434377e-01 -4.2424276171359937e-01
      7.8847833893919334e-02 1.5311694149882300e-02
      1.6412822129902868e-01 1.1096790210634165e-01
      -4.8675697038688552e+00 -1.3890134774733195e-01
      -2.3389333247381586e-01 7.0359486268896428e-03
      6.9952837412316782e-02 3.5504640568941631e-01
      -4.9397385886120881e-01 2.2648646928455021e-01
      5.2892905581432115e-01 -2.3084256456347835e-01
      1.9336846679435454e-01 -4.8556238573934341e-01
      -2.8148727058745437e-02 -3.1181765903260323e-03
      7.0392759171597402e-02 1.6503492576799456e-01
      -4.5709828102830912e+00 3.1952589797606602e-02
      -3.0173690803268027e-01 6.7554591336587921e-02
      -2.9837110903432940e-01 2.5754236220862292e-01
      -4.3002239282978860e-01 -1.5341923467466800e-01
      4.0955910563724529e-01 -1.4731856009301023e-01
      -7.5181301537010664e-02 -4.1109796405034715e-01
      -4.2574836819323308e-02 5.6435579369098175e-02
      6.2193739439549880e-02 2.7734683366445332e-02
      -4.4469792275783053e+00 6.0210459685722606e-01
      -1.7598697444552047e-01 1.1339525427025225e-01
      4.1635776091082155e-02 3.9165762716784208e-01
      -2.7248603277398492e-01 -1.5291371141987128e-01
      2.6161694458839568e-01 -1.0493574250292532e-01
      -6.5451560968404210e-01 -1.3426649279893257e-01
      4.0008208237460680e-02 -1.4785831485805731e-01
      1.8405726170824446e-01 -5.9050426697231574e-02
      -5.7113397705900084e+00 6.5561368343801962e-01
      9.8567419568304032e-02 2.8767917900918116e-01
      5.6982914359327541e-01 1.7203993972272610e-01
      -2.3647340047891813e-01 1.4261340569914832e-01
      5.0278489053452136e-01 -1.8554404010532458e-01
      -3.4158959764119068e-01 2.2346578901396222e-01
      1.7463964422324782e-01 5.5760189475229184e-02
      1.0705800720975538e-01 5.5082104161133155e-02
      -5.4679269134373873e+00 7.0832558380751565e-01
      9.8393695776947426e-02 3.1988556225188880e-01
      5.0955647073523569e-01 -2.5455701211741816e-01
      -4.1755656893294302e-01 -2.8547164370379474e-01
      2.3028184722155143e-01 -1.6101123559745945e-01
      -3.7495104820353087e-01 4.4892684722856446e-01
      -8.7864876598718470e-04 4.3837170350608345e-01
      -5.7259971244921951e-02 2.9894959846519846e-02
      -6.9082741070502012e+00 1.0438211583248991e+00
      2.0684906968822586e-01 -7.6263930804431057e-02
      1.5842944411801545e+00 5.1746146376805663e-02
      1.5989147714973857e-02 -1.8867134960998727e-01
      -1.1503275630910895e-02 8.7041674173560096e-02
      -3.7493068443620736e-01 4.4338263448991200e-01
      -1.1646843563113592e-01 3.2118568028521133e-01
      9.6630994368821124e-02 1.3119700517697270e-02
      -6.4779127387609918e+00 -1.2951521902064382e+00
      -3.0249135795343879e-01 -1.0951083369938276e-01
      -1.0129424596900691e+00 3.6249653825936762e-01
      6.2520999822121420e-02 6.3466060673179572e-02
      2.7695960469328186e-02 -1.7317106809476202e-01
      2.9722488316207379e-01 -3.6694308982100104e-01
      3.7937877993414759e-01 -3.0529540858363229e-02
      -2.5282339984784846e-01 1.8392886600322367e-01
      -6.3741494643689505e+00 -7.5440598087408306e-01
      -4.6761655683450998e-01 -1.5152084935449533e-01
      -1.0468697853617197e+00 3.8361507096848985e-01
      -6.0472377566239958e-02 3.4557509519775470e-01
      6.9604650016647437e-02 -2.9040733115875639e-01
      4.6209213177980363e-01 -5.3004430916851764e-01
      3.2472144043373691e-01 -2.4238169587153705e-01
      2.0427396275210527e-01 -5.8614727866915651e-04
      -6.4160586937316095e+00 -4.1418438825999893e-01
      -2.9251547341449557e-01 -1.0674068526615270e-01
      -1.9922646640852038e-01 1.2863642917631110e-01
      -1.9596530171499293e-01 1.6998792493920573e-01
      1.2827144248428279e-01 -3.5146834570660351e-01
      4.2425360980662330e-01 -3.4908932878073057e-01
      1.5129215858753595e-01 -1.7750080069502128e-01
      2.6811076396467659e-01 7.9453840840791129e-02
      -6.6142103139692292e+00 -2.5228421717124744e-01
      -2.9194851541183892e-01 8.1527576176776105e-03
      -5.0415828423956935e-02 1.1711018300856553e-02
      -2.2603484983690794e-01 1.5078780501957709e-01
      2.7002090145037455e-01 -3.3957360525879199e-01
      1.8389568444353346e-01 -4.2038191249306589e-01
      1.7054645493985168e-01 -1.3346328995172019e-01
      2.8439952107253996e-01 -1.1262351529866935e-02
      -6.3699132332461881e+00 -1.0012056276920073e-01
      -3.9591788460628907e-01 1.2953929647507094e-04
      -2.3775742592427060e-01 1.4951988802015717e-01
      -2.1445635376774022e-01 2.3429900772455958e-01
      2.0932472670567973e-01 -3.0874257102624436e-01
      1.1237882862344735e-01 -5.1404830226917408e-01
      2.4864243968773267e-01 1.4738710407853465e-02
      1.5655544952319503e-01 -4.5748709621950406e-02
      -5.3268549258248230e+00 -3.1985872693382272e-01
      -3.4179295778012520e-01 -1.2514392468786070e-01
      -1.2268784687020487e-02 2.1545297520115358e-01
      -2.2145116766998413e-01 1.7231187695463732e-01
      1.9969376402652678e-01 -2.2590244191585737e-01
      -1.9733306393111813e-02 -4.5896386326142818e-01
      3.1275053733727426e-01 2.2137939949384611e-02
      1.4061525521629925e-01 -1.0911933806703465e-01
      -5.1745418002004691e+00 -6.2213103094531312e-02
      -9.9817860413865769e-02 -7.3866871770605344e-02
      2.5882616028234617e-01 1.7615279877332254e-01
      -1.7208102409729029e-01 5.9747411338430360e-02
      3.0507092594138818e-01 -9.7283158300504491e-02
      -6.4142164901146423e-02 -5.0550396518410153e-02
      2.1108725018306443e-01 -9.0738912044511441e-02
      2.0509191388460457e-01 -4.3685635286811852e-02
      -5.6558718233809380e+00 3.8261580187278993e-01
      -1.7123816852108786e-01 -4.0588192333401482e-02
      4.6678145177542807e-01 2.5797188762961931e-01
      -2.6454832058072320e-01 4.6791157187273413e-01
      2.6845882208185307e-01 -1.0478733355285695e-01
      -7.1438970388655182e-02 -1.5046315051438747e-01
      9.6151556928507589e-02 -6.9626638494720713e-02
      2.4327531216173334e-01 -5.0915837282624346e-02
      -5.9899711800916933e+00 -1.1088911082340117e-01
      -1.7672066716517054e-01 4.9338162292306989e-02
      2.1353373710058500e-02 2.4602003580817153e-01
      -4.3017152156160315e-01 3.3128554189696563e-01
      5.0511838761482530e-01 -2.2235779075243564e-01
      2.6863601517405944e-01 -2.4815574506694957e-01
      1.0608434671109375e-01 1.2249196832001425e-02
      1.0463714422859571e-01 -1.4055992563149941e-02
      -4.9609757045999583e+00 -3.1098772358975074e-01
      -1.2454099687399420e-01 -3.4518092052250655e-02
      -1.2168607232849828e-01 4.1556209685075540e-01
      -4.5667679112043830e-01 2.6078243019653363e-01
      6.9893578963629421e-01 -2.5823966012549660e-01
      1.6654742765208685e-01 -2.4703475222172741e-01
      8.1451733224445114e-02 -3.7063182809615783e-03
      -7.9818371689949874e-02 9.6320168652731283e-02
      -4.5610075138814494e+00 8.2544724561408059e-02
      -1.7386553649318065e-01 -2.4969910534839452e-02
      -3.2641375327399663e-01 3.3481776860380813e-01
      -4.4377625698938183e-01 2.8773496707969964e-01
      4.5176292039602300e-01 -1.5230820007282073e-01
      -4.9605836740101800e-02 -2.2125596218038693e-01
      -2.3785183131050817e-02 -1.0282631764127390e-01
      -5.3204138445969787e-02 -5.1601281194248463e-02
      -4.7758516691987500e+00 8.5896656410866384e-02
      -3.3294351101043751e-01 5.3849941799765891e-02
      -3.6347856027019776e-01 5.0467971145719825e-01
      -3.0429771759863894e-01 3.3068561420018856e-02
      3.7745325193106544e-01 -2.5482487303780017e-02
      -5.4316637663816369e-01 -2.5321622452460446e-01
      4.7042177575065965e-02 -5.0422474974570350e-02
      2.1409766907337763e-01 -1.1140155798542449e-01
      -5.7686634482192041e+00 2.9719969519027545e-01
      -2.9973010631728980e-01 3.6575516680969353e-02
      8.7635862589345082e-02 4.5088875675742007e-01
      -1.9172499471596918e-01 4.0137600389418082e-01
      3.1350397046374806e-01 -7.3845874214630736e-02
      -2.6770904870284962e-01 5.7774445527830846e-03
      1.1290705037348961e-01 1.4361879772826661e-01
      2.3987101425415880e-01 -2.6825343136704594e-02
      -6.0860766786590483e+00 8.8933840316631285e-01
      -1.6128108752189196e-01 1.7799747369459934e-01
      1.2027956941059945e+00 -1.0711423974561998e-01
      -1.2832948356470220e-01 6.2742722293926620e-02
      1.0731539545691947e-01 1.4153160588407309e-02
      -4.0683769611041615e-01 5.5058033819312724e-01
      -1.3461901994067008e-01 7.6328393467001998e-01
      3.0784188670214807e-01 -1.3979325739653431e-01
      -6.5986553828347034e+00 8.2856503167729356e-01
      1.7595111977875810e-01 -1.3698626758221802e-01
      1.1802916661038603e+00 4.5371943708046404e-02
      -1.2345378647262481e-01 -1.3220538626168743e-01
      -4.1623114545499038e-02 1.0519048454465749e-01
      -5.4744119318221351e-01 3.2295358855057105e-01
      3.9384319233769843e-03 5.1819196480822827e-01
      5.2845381624614302e-02 -3.0273741922513860e-03
      -6.1681395135365147e+00 -9.4151400856177825e-01
      -2.0856396476610625e-01 -2.3519297372821901e-01
      -7.6041367768924328e-01 3.2240910071941359e-01
      3.8336713719823945e-02 -1.0062029868386499e-01
      7.2631390959068051e-02 3.0874699327269647e-02
      -6.3826329747762884e-03 -2.9471671727961607e-01
      1.2378625692370840e-01 -7.6858939034392157e-02
      -1.6890602532602259e-01 1.4529949515098090e-02
      -6.2465973021140311e+00 -7.3353294837838301e-01
      -3.3460255720327575e-01 -1.9994173630903864e-01
      -1.0861472322211490e+00 2.8979896823055878e-01
      -1.7321922064429440e-01 1.2733884609821276e-02
      2.0108501825842542e-01 -2.5238129730342296e-01
      3.0014183979298509e-01 -4.5447533504424126e-01
      2.0950036153552862e-01 -2.2269723165255223e-01
      5.8566004611911616e-02 -9.5633611443983510e-02
      -6.5154177365554036e+00 -8.6453779061390262e-02
      -1.6801213796590925e-01 -1.2599188697650027e-01
      -1.9930707269372763e-02 9.6187437976672605e-02
      -1.7828094725201810e-01 1.4611582768074752e-01
      1.0043652326379135e-01 -2.9597010092032278e-01
      -6.1839846785613920e-03 -2.7357585624659947e-01
      1.0681921954806008e-01 -1.2554299140195296e-01
      3.1680953099701686e-01 -7.5589834644107234e-03
      -6.5439022402510192e+00 -1.6054459714155023e-01
      -1.7651744478323561e-01 -3.9259209405513251e-02
      -5.7431953230256530e-02 -1.3809163464452465e-02
      -1.7996905488805229e-01 5.6581576058426099e-02
      1.1988641098237010e-01 -2.3973600379330942e-01
      5.0372404921994865e-02 -3.7299419856896060e-01
      1.2616481460017148e-01 -1.8744376696596732e-01
      3.8938078158840755e-01 6.4474494274312580e-02
      -5.8930104560554524e+00 1.2076572979452238e-04
      -1.9807586577191449e-01 -4.6872693338148537e-02
      9.4695076843292675e-02 2.2546941055972916e-03
      8.2297283245613473e-02 2.2496014466212061e-01
      2.0023162173830578e-01 -1.5035016728361458e-01
      6.5016245193369210e-02 -3.2625214009967041e-01
      1.2153939519794878e-01 1.0677602095922555e-01
      1.8485238691612293e-01 1.1287542957547050e-02
      -4.6737520086706059e+00 2.9564098762934066e-01
      -5.3443215863757276e-02 -1.3929695940009379e-01
      5.8046501643010617e-01 2.5104124252843734e-02
      -7.9411314040373243e-02 3.5417492485997643e-01
      8.9076706644074050e-02 -5.3005304937417369e-02
      -2.8983021109117508e-02 -1.3430614286690140e-01
      1.9307292005459986e-01 1.8861257725512401e-01
      1.8832559137001509e-01 -2.1880582271292633e-02
      -4.8880542256023762e+00 4.8834439843953770e-01
      7.5170097507531730e-02 -9.2324006704243095e-02
      2.1288381195815723e-01 1.6325805494498505e-01
      -2.5210327829967211e-01 1.4173305863256025e-01
      1.3136277869212915e-01 -2.8871126147856099e-02
      -8.1162953711269942e-02 -3.6277229503149738e-02
      1.3751914639989235e-01 1.0988319451618489e-01
      2.5157648315576553e-01 6.7002711841256052e-03
      -5.6605045481381211e+00 1.0678751073755219e-01
      -1.8435073375154265e-01 -1.6383974983763824e-01
      -1.5478859604040782e-01 3.4080253687131101e-01
      -3.0853512926887572e-01 -1.4802650997189534e-01
      1.8330517059411511e-01 1.1322174918058649e-01
      -9.3289407377979514e-02 -2.7140810718885500e-01
      -1.7283510930787327e-01 -1.2790855899228834e-01
      2.6222147943108198e-01 3.2658893052947467e-02
      -5.9922420255735744e+00 2.1566662600646505e-01
      -5.0893477286941817e-02 -4.5539155581194347e-02
      1.1871943857599543e-01 1.9569895836874235e-01
      -3.9657604418175085e-01 7.0295664099585611e-02
      3.4410706015405240e-01 3.2968388209459951e-02
      -1.4352796628517611e-01 -1.6932491760921578e-01
      -1.1041067659654016e-01 -7.8282092434714345e-02
      1.1018476247236597e-01 8.6775837422585853e-03
      -5.4646860960554706e+00 1.0144990723813663e-01
      1.4411992379357324e-02 -7.8313913615793554e-02
      -4.6014321884194319e-02 3.9449413870451339e-02
      -4.7069156757902281e-01 4.4675845674949577e-01
      3.9956214176703375e-01 -1.1041957866015589e-01
      -8.5559925873409728e-02 -7.1721892911611768e-02
      1.0680748682591409e-01 -2.2023952985016926e-01
      -3.0058362118277105e-02 7.5039289594607868e-03
      -5.1587988966820797e+00 3.0944640290330327e-01
      -1.7235237135457906e-01 7.1239985048575691e-02
      -7.1819215765961744e-02 1.3774156636908551e-02
      -4.7755039526648141e-01 3.7436423727777829e-01
      3.0271445343745956e-01 -7.0760568924281550e-02
      -5.1425712979220599e-02 -5.1016625454867952e-02
      1.7523028449298828e-01 -6.0922235575505072e-02
      -5.3021545264436976e-02 -1.1238165565397176e-01
      -5.2423217420226482e+00 1.2936140424551235e-01
      -5.3261325360059664e-01 1.0636889970196052e-01
      -2.8510777502622248e-01 9.4756683476517015e-02
      -2.7344853886166315e-01 1.7586589287639345e-01
      2.4498179463563405e-01 -3.5555184165151937e-02
      -7.7283698550748084e-02 -5.3073237572482730e-02
      2.9293939850875417e-01 5.4511651425397448e-02
      6.5044886322920242e-02 -1.2179470980637389e-01
      -5.9925168456798081e+00 -5.1446584061745038e-01
      -5.5604071567300917e-01 -7.4980686322477563e-02
      -2.7373221847587426e-01 3.3676976726108476e-02
      -9.5492175554722281e-02 6.5373546506105129e-01
      2.2867796537982987e-02 8.0185522370922312e-03
      1.1672706704083713e-01 -2.9995898659498615e-01
      1.8182856605305348e-01 1.8101072829750928e-01
      2.9056811004108896e-01 -3.9055530462087817e-02
      -6.7997411770747922e+00 -8.3800170088131631e-01
      -3.5866089270547047e-01 -1.6376419022163341e-01
      -1.0028905056055473e-01 -3.3009591774830531e-02
      8.8751934069543778e-02 2.8312068947892755e-01
      -2.4669349875590543e-01 8.5158525784474096e-02
      1.6975408571160908e-01 -1.2413654973024414e-01
      -6.9022565312897799e-02 4.3509894361647555e-01
      1.2993958613632439e-01 -5.3259026140282509e-02
      -5.7475864632059457e+00 1.6865875126290775e+00
      3.5142713775183387e-01 -1.2960180637153124e-01
      1.2454989619245189e+00 -2.2090070249652535e-02
      -2.0745996321448509e-01 -9.1655814538086799e-02
      3.5790433228860474e-01 1.4588917587058070e-02
      -6.2936885495759110e-01 5.2217857245709209e-01
      8.2841028584958024e-02 4.5037893387392064e-01
      1.7912276704049435e-01 -7.2447548646392121e-02
      -5.3458147651527321e+00 -2.8565174774635615e-01
      -7.3639375765140958e-02 -3.1864041648491404e-01
      -2.3579113705563826e-01 2.0608334155824004e-01
      -2.6624844260406888e-01 -3.2280950992284291e-01
      1.2726783716130172e-01 5.3440575165804138e-02
      8.6221998803327926e-02 -1.5361460977388272e-01
      1.5700357840013002e-01 -2.1350314727079947e-02
      2.4393360530242800e-02 -8.5318714221889774e-02
      -5.4485379791803483e+00 -1.7620243229654706e-01
      4.9183888105546358e-02 -2.1158847168989853e-01
      -3.4477569957963472e-01 3.9995574147451106e-02
      -2.9944027848042309e-01 -4.5917667751702487e-02
      2.4606080538740391e-01 -1.8405238669689253e-01
      3.6402319016792362e-02 -5.1598292488954707e-02
      2.7552528410411098e-01 -2.2763928834977931e-01
      1.2916037639538472e-01 -1.9196044279078714e-01
      -5.9733515516028834e+00 6.4610466919947637e-02
      4.0760295953949720e-02 -4.5970090463002350e-02
      -3.5155151679147362e-01 1.5249219599422773e-02
      -3.1602084858463697e-01 -1.2415034063014753e-01
      1.8209603253769005e-01 -2.5521556659788391e-01
      -1.0003140948011753e-01 1.4754838606148287e-02
      1.5937882639974560e-01 -1.2578678616982647e-01
      2.1573147443658447e-01 -1.2557950564831782e-01
      -5.9559326260665282e+00 -3.7294900138942022e-01
      -3.1396667916125547e-02 -1.7102423145480022e-01
      -4.4091663856780544e-01 5.0157860552420941e-02
      -1.4959029782843195e-01 -4.2739145205093670e-02
      1.9051304498302635e-01 -1.2547328759933601e-01
      7.2269515502619577e-02 -2.4647679969062394e-01
      1.1658709235823882e-01 -1.5676647958775666e-01
      1.8575731050798638e-01 -1.1862669314785969e-02
      -5.0802387318497120e+00 3.8036730774425292e-02
      -1.1790168300965045e-02 -1.1624516043460241e-01
      1.0087394366188579e-01 4.0936868092207618e-02
      -5.3164472609487388e-02 5.8746406234713132e-02
      -7.0490572570622217e-02 2.7362381052534274e-02
      4.8160436559723796e-02 -1.0547192000672258e-01
      -2.8673887477001208e-02 1.0896505151601669e-01
      8.2077923893669157e-03 -1.2110166091553536e-01
      -4.2254109832238242e+00 2.0395380997868237e-02
      1.4341171782679499e-01 -2.9183465897958651e-02
      6.9683499450924891e-01 -6.6195565919386301e-02
      -1.6528364872429274e-01 9.4784660297748291e-02
      -2.1998652965551235e-01 6.9623880325575885e-02
      -7.4379963607815902e-02 2.1571058896351029e-02
      -2.8731565301513669e-02 2.9275265934925948e-01
      3.0366891332110610e-02 -1.1062865709589942e-01
      -4.5417317047042376e+00 8.2780798454269500e-02
      8.6824914459988217e-02 -1.8088769992448150e-01
      4.8332974123147987e-01 2.2120363613737596e-02
      -4.7727548869686397e-03 7.0976311084886640e-02
      1.4771648304103094e-01 1.5097121386836890e-01
      -9.9266809188958225e-03 -6.6415631362117741e-02
      -6.0076164226634123e-02 3.2491816731652923e-01
      -4.4784818136661353e-02 4.8835681761698252e-02
      -5.0742102611997648e+00 -2.5450503386297396e-01
      6.4179273636062031e-02 -2.0593662777253843e-01
      1.6959202605122774e-02 1.2658497971842297e-01
      -1.4915772224630972e-01 -1.4965192808299502e-02
      4.7371794911487276e-02 1.5997478197244833e-01
      2.1531088203977377e-02 -1.0337254643439202e-01
      -1.5572146888159349e-01 7.0737890299723896e-02
      1.1114917539092295e-02 1.4466322302459519e-01
      -5.0695571756446327e+00 2.0291796868083958e-01
      1.3656241097468697e-01 -1.0234128516344795e-01
      1.4214123743010343e-01 1.3570703424722877e-02
      -2.2986449845998996e-01 5.7723799853521177e-02
      2.7797164468450980e-01 -2.6606317671856259e-03
      -1.0177854081749280e-01 -1.0946499761545140e-02
      -5.8374608503543056e-02 1.1556469253650489e-02
      -1.3896770397819092e-01 2.0001540852889690e-01
      -5.1642743660569161e+00 3.7110980858279419e-01
      -1.5988082832472458e-01 4.0258131743151140e-02
      5.9901113204864145e-02 -3.3490187152097124e-02
      -2.7347714898449238e-01 2.6840601489377791e-01
      2.5211446230127588e-01 -1.2430459893893199e-01
      -1.6721002382886951e-01 -1.4695623576934816e-01
      8.4335911949972142e-02 5.3457392056703142e-02
      7.3569925963098359e-02 -2.9623558033094650e-02
      -5.3033138446997228e+00 1.3114593953078688e-01
      -4.8757435757860779e-01 1.3979873565763007e-01
      -1.3066082726843445e-01 -5.2712866311401214e-02
      -2.6017530245721793e-01 1.7445489495372007e-01
      2.0764623461580473e-01 -7.8905969348724153e-02
      7.0171384306701723e-02 -1.4224790573513260e-01
      2.2196930751462593e-01 1.0408619751519431e-01
      1.1341921411820016e-01 -1.2963763518797253e-01
      -5.3602303790585095e+00 5.6844739057074234e-01
      -3.3732215820827677e-01 1.9574693221422890e-01
      1.4826257882331426e-01 -5.3751540768983481e-02
      -1.2793919052888730e-01 4.2223271184117811e-02
      2.5910872606963564e-01 1.0544313368047722e-03
      -2.7510111131017645e-01 4.3862203098336182e-02
      2.9788693764514435e-01 1.9479961510991201e-02
      -1.4697390533301637e-02 -2.2410931333913134e-01
      -5.7786720810657828e+00 -3.4734529508692776e-02
      -2.0149321467854661e-01 4.7181316107218749e-02
      -1.5971147556352355e-01 -2.0103216778335259e-01
      -9.5809770539195080e-02 3.7415552642659361e-02
      1.6324052108114645e-01 5.2060805001409145e-02
      5.5984781950490288e-02 -2.0879861374425057e-01
      1.8929532449373432e-01 -4.9937730077167890e-02
      1.3931372461592392e-01 -1.6522960113659471e-01
      -6.1800287860704888e+00 -3.6665254832664057e-01
      -1.9369207300307370e-01 -2.2683548596299868e-01
      1.0086522282479785e-01 -1.0580784957120845e-01
      1.4703101730491017e-01 2.4877467825119604e-01
      -9.3257468885754105e-03 2.1135728537584442e-01
      1.3528829168976789e-01 -4.1457743628349496e-02
      -6.0751408462737883e-02 1.4044502854539320e-01
      -1.5646517227325292e-03 -9.7525426296550380e-02
      -5.6134944956804933e+00 1.2078741569903537e+00
      3.0579315208147789e-01 -1.7233620603006050e-01
      3.9717273516842977e-01 2.2502043029596330e-01
      -3.1975454660031183e-01 -5.3372228865169270e-02
      5.2752785870611341e-01 8.0681811860364619e-02
      -4.9443869403565799e-01 6.1273574049355406e-01
      -1.4577023048740334e-01 1.8891981758235935e-01
      2.7146805208931274e-01 -1.7264423522864625e-01
      -4.9238602835654932e+00 -7.8320904986368164e-02
      6.9651909617352056e-02 -2.6910308432782393e-01
      -4.8802454044807220e-01 1.3085146155552310e-01
      -2.7863100210057762e-01 -5.6677729803821353e-02
      4.5303740798207293e-01 1.8530632175211555e-02
      -2.0321477539220725e-02 1.5613398233013676e-01
      1.8120268847054168e-02 4.8911118071252341e-02
      5.5135973588289151e-02 -9.1513616845412843e-02
      -5.3511243475165724e+00 -5.3906875527808518e-01
      7.5415154015388786e-02 -1.9910600944373991e-01
      -4.5558490264189144e-01 -2.7887362344124141e-02
      -2.8322958029120870e-01 -2.5983887133768663e-01
      3.5949913709965875e-01 -8.6208558582678105e-02
      1.3475105742129789e-01 2.6322308041728519e-02
      1.2532516541542599e-01 -6.7066872564488969e-02
      3.9608740398012418e-02 -1.7408068295322870e-01
      -5.9148375102135935e+00 3.7585425096421342e-02
      1.3654582431784923e-01 4.4483611367332913e-02
      -3.2267666602824036e-01 -2.0432561270607374e-01
      -2.6976547415003888e-01 -2.0532144038058472e-01
      2.3545443353034640e-01 -1.0804229977200878e-01
      -1.9887565535164270e-01 1.9358055469274747e-02
      4.3960868777787175e-02 -1.1209434446922692e-01
      1.2736164622984367e-01 -2.8735913784620432e-01
      -6.1105895116877091e+00 -2.6288689715805608e-01
      -6.0797623047927463e-02 -4.2304533064043449e-02
      -4.5183339659862370e-01 -3.0539759974289080e-02
      -1.8438138044959693e-01 -2.3029912666927758e-03
      2.6012859389920340e-01 -7.8974594690821173e-02
      -2.6389234367125819e-01 -1.5384940014283521e-01
      1.1217846310605820e-01 -6.1128730265122257e-02
      5.8442291285169735e-02 -1.6165233912896060e-01
      -5.1343515300490798e+00 -2.8138832859124324e-01
      1.1257829283548035e-01 -1.7377323483666129e-01
      -7.5461391735079680e-02 -4.1209041709631772e-02
      -1.4930567936307293e-01 8.5823851747192231e-03
      1.3259129365892466e-01 1.0260596208265686e-01
      1.5043862850293607e-01 -7.2241023405306345e-02
      -4.5399689477877904e-02 1.4588621098238405e-01
      -6.9872443327612374e-02 -8.9297821256366025e-02
      -4.2617018316223971e+00 4.0328476941970287e-01
      2.4855092721632199e-01 3.7256357927796857e-02
      5.2467247022463537e-01 -2.0346537286466337e-01
      -8.0772283605085191e-02 -4.8093732787767296e-02
      1.4677740991404831e-01 1.8557100447288019e-01
      -1.3469440745365391e-01 1.5420343441433843e-01
      -1.1958950460305917e-01 1.5202805353276133e-01
      -8.5337932052011022e-03 -2.3562536422274710e-01
      -4.2233056690388784e+00 3.6579210993613565e-01
      1.9506061207217132e-01 -1.1388282428546004e-02
      6.8385323736469894e-01 -3.1845748824843662e-01
      -1.2300815470559313e-01 -1.2399733037687752e-01
      2.1497531888044802e-01 2.0442674805380676e-01
      -3.0446762217755358e-01 2.2506486756451830e-01
      -2.0852600269883392e-01 7.0883749786052899e-02
      -3.5348382077414746e-02 -1.0475634121623791e-01
      -4.2187023731580116e+00 5.0292403088858051e-01
      1.1823845263946263e-01 -3.6917552194761033e-02
      6.7069738490971764e-01 -1.7013051339458948e-01
      -2.1933502234241126e-01 -1.7082909038149605e-01
      1.2626416895401832e-01 1.6074460904439866e-01
      -3.1434690838508555e-01 2.6509555873223328e-01
      -1.8772862900454512e-01 1.3290622492526930e-01
      4.0106059385613534e-02 8.0660224919042331e-02
      -4.2967634513666493e+00 2.2031059013415819e-01
      -1.3096012634251838e-01 -1.3661927881655314e-01
      3.5197248893508393e-01 -8.0430714276266593e-02
      -2.3727180424216421e-01 -2.0015222501453672e-01
      2.3197575355820771e-01 4.6673692098048350e-02
      1.3775443190878844e-02 2.8028748983020046e-01
      -6.6577131099016015e-02 2.9498198142323306e-01
      -1.5848435659394275e-01 2.6045837302684161e-01
      -4.7160456259445240e+00 3.6562784703030388e-01
      -2.0528216715749367e-01 1.0539954923761724e-01
      8.9287158642475835e-03 -7.0868350501791161e-02
      -1.9388128875099672e-01 6.5057989193499366e-02
      1.8958616756880736e-01 -1.3466598116693329e-01
      -1.0313229114788534e-01 1.2706269283678512e-01
      1.1122234823620898e-01 2.5244408405720054e-01
      3.1327576481729104e-02 1.4557589193616416e-01
      -5.3835423629427828e+00 -8.2132592478011995e-02
      -2.6850274623460912e-01 5.4756371201734599e-02
      -2.8339787608093125e-01 7.2542799172992709e-02
      -4.5077256289187836e-02 -1.6962173265882349e-01
      1.8097347440141009e-01 -7.8531364700810041e-02
      -3.3911553400403451e-02 -1.0602892283497958e-01
      1.3495717688697659e-01 2.1075235884722485e-01
      3.1235305870720726e-02 -5.4467475516751004e-02
      -5.5820168402744423e+00 2.9368816009697907e-01
      -1.4428582790946601e-01 2.0949856424258012e-01
      5.9702391764697681e-02 -8.4731286993606977e-02
      -1.0842647962642837e-01 -1.5185539368360323e-01
      -1.3064894089893066e-02 -2.9520666237132526e-02
      -2.4197481907607887e-01 -2.8563206238772531e-03
      5.1918863801930268e-02 1.4367052667782168e-01
      4.3065805543915543e-02 -2.6990911988407607e-01
      -6.1740839937429035e+00 5.2150990520833507e-01
      -1.5696271222565245e-01 5.3192895575316583e-02
      4.2614041484772082e-02 -2.3333176683718326e-01
      -2.1323815965914081e-01 4.0399716650164501e-02
      -8.0896950422654684e-02 5.2821431033780016e-02
      -1.6261198716427808e-01 -2.3654140635201333e-02
      -1.1930261771025305e-01 -8.8150981691327698e-04
      9.0268945616041554e-02 -2.8788632921547702e-01
      -5.7458930649536946e+00 3.1389452256783124e-01
      -1.3213055546480341e-03 -1.7481991595074536e-01
      2.2699546386974276e-01 -2.6106033568614223e-01
      -7.6934318159764935e-03 -4.9648120631559878e-02
      -7.2658766821028758e-02 1.4890451651185221e-01
      -7.1951961777764320e-02 2.4305362718446719e-01
      -2.0725791146354389e-01 -2.4095026332183525e-01
      5.5268633707543570e-02 -1.7140078073654966e-01
      -4.7585879630138725e+00 1.6084488579137596e-01
      3.4897444305996905e-01 -2.6876064488436457e-01
      1.7611944511784708e-01 1.1105863719303841e-01
      -1.2104689265338713e-01 -1.0455846033855352e-02
      -3.5669870773041559e-03 7.4222937311377010e-02
      4.5842876250602016e-02 6.3729055520897759e-01
      -3.1223746603760205e-01 6.1898059174908350e-02
      1.5354650707507983e-01 4.7915593357453587e-02
      -4.6814169468199891e+00 -3.5662903818560643e-01
      1.8033469333871172e-01 -1.8914358507955234e-01
      -3.7456603368796471e-01 -1.0316701577217678e-01
      -2.6300938519944234e-01 -1.2449177760726390e-01
      2.0438800433509943e-01 -1.2644317805742752e-02
      7.0509630032936036e-03 3.0209762420177999e-01
      -2.1688059902191778e-01 5.2264462037200976e-02
      4.5327848441339788e-02 7.2389139831945198e-02
      -5.4025597296906822e+00 -9.8592456382228877e-01
      5.5112587525818308e-03 -6.7710680671215301e-02
      -7.4294960169198776e-01 2.6320749146340229e-02
      -2.7098783989325520e-01 -3.5528844828762030e-01
      1.0035638024036554e-01 -3.7581720234700397e-02
      3.4533473914433260e-01 -1.1084491663757447e-01
      -2.9389125142287885e-02 3.6360980422742689e-02
      -5.3121497365462358e-02 6.0324192787499377e-02
      -5.8280250257774542e+00 -4.2958354629877979e-03
      1.9570199493765900e-01 1.1303913669963206e-01
      -1.5159455779680175e-01 -9.3867762045053885e-02
      -1.6319390140009954e-01 -1.4837600746102075e-01
      1.8386714108017976e-01 3.5655137646430683e-02
      1.6540642925990091e-02 3.5715875282336516e-02
      -1.1931714167933363e-02 2.5695811967509165e-02
      -1.7442526662787939e-02 -9.4690948765463814e-02
      -6.0537289339059530e+00 -6.4904950821692411e-02
      4.4119327519444050e-02 1.3805964138697399e-01
      -1.4266705559058315e-01 8.3454454315695523e-02
      -2.8345544777757309e-01 8.4957481107656080e-02
      1.4493617735185901e-01 3.2069781160529637e-02
      -2.0145439251834601e-01 -1.0439248290132164e-01
      6.3281219515625056e-02 1.0127022221506916e-01
      9.1424814720780009e-03 -5.5292149311528371e-02
      -5.3669914399624430e+00 -9.8946964372397944e-02
      1.3511085892162963e-01 1.0308724944903845e-01
      2.5769885908304986e-02 -4.1224544157644268e-02
      -2.9916715318931952e-01 -1.0624977567141108e-01
      3.8133525322279460e-01 1.8826217687411098e-01
      7.1177363603752127e-03 4.9103579292319788e-02
      -3.5680409343833215e-02 1.7162891465893165e-01
      -1.0015627952786973e-01 -2.7629192306991155e-02
      -4.6645593429966858e+00 3.9085369666189862e-01
      1.6770485244068042e-01 2.7155755372702001e-01
      4.9279631707909188e-01 -2.8630103355895070e-01
      -3.2143524034574361e-01 -2.3853790183552295e-01
      3.5696278998293091e-01 1.3375220559424808e-01
      -1.7374705123527409e-01 2.5704223818539268e-01
      -1.0815186430734519e-01 2.1989113566712054e-01
      -7.2978073484563644e-02 -1.4032592996602766e-01
      -4.2278818971358501e+00 6.8631217519498799e-01
      4.4283835552719933e-02 1.9880321739410117e-01
      3.2121658369717421e-01 -4.3098267617851138e-01
      -3.3374851089167218e-01 -1.8836530407538032e-01
      3.2108861252813686e-01 1.1557224073363193e-01
      -2.5203122565473646e-01 2.3776915833769535e-01
      -2.0554291994659049e-01 8.7189781364417920e-02
      -2.7731663370991210e-02 -3.9832006679269172e-02
      -4.5502778981465521e+00 2.9452061546538488e-01
      -2.1945052880515084e-01 8.4542317575846501e-02
      -4.1146716380433074e-02 -8.9806104384763885e-02
      -2.5011203405258114e-01 -2.3377496711423523e-01
      1.8004723271418130e-01 8.6793681058396493e-02
      -1.0476750188086145e-01 -4.4707684025024626e-02
      -2.9521669913824505e-01 1.5332804251436694e-01
      -8.6458264227678202e-04 4.0438957625179323e-02
      -4.3955603766448696e+00 3.7951313656034275e-01
      9.4054621830341745e-03 -5.2513880745794022e-04
      3.3303272790554650e-01 -2.6852733201043078e-02
      -2.4132559002229839e-01 -7.0485991313017096e-02
      1.7003018082938465e-01 6.2958963212309510e-02
      -5.5305780312191674e-02 1.4716409970295408e-01
      -1.9702161488270353e-01 6.9006050272450797e-02
      -4.1012232708918551e-02 8.5916764103954227e-02
      -4.9577387685156458e+00 4.9754061517741869e-03
      -2.4729154752404194e-02 1.9189428071701414e-01
      -1.4986185096735255e-01 5.2469249540475674e-02
      -1.9374038412392963e-01 -4.8102995837918125e-04
      8.7931615556425619e-02 -5.0975281782564878e-02
      -6.7481755715387920e-02 1.0352063642097013e-01
      2.8602791797094896e-02 6.2254245098278309e-02
      -4.2151789889533352e-02 9.7565393324868549e-02
      -5.5339871947273149e+00 -2.9465501435382457e-01
      -6.5104625627675827e-02 2.4684602368435971e-01
      -3.6182610136648635e-01 2.0895674181726175e-02
      -1.8293600429128594e-02 2.3183661784112807e-02
      -4.8740626109121755e-02 -5.9189638400980092e-02
      -2.2234143199941570e-01 -6.1624749947498336e-02
      1.3377272130316653e-01 -6.5899086005079419e-02
      1.1962926186765449e-01 -1.4038242302040338e-01
      -5.8748185001100586e+00 3.4263247145565884e-01
      -4.9512964248344664e-02 2.8781016655853553e-01
      -8.6226970072277465e-03 -1.2387883664253080e-01
      6.4227114314059003e-02 -5.0432838160046699e-02
      -3.1684465041581761e-02 -1.5065001021657037e-02
      -3.4111425384927235e-01 2.9989187818114684e-02
      -3.5131647813290569e-02 2.7963799121883592e-01
      1.0638341069352797e-01 -2.8552961135396565e-01
      -6.6823896907714655e+00 -6.9712969677547726e-02
      -1.6313975855837007e-01 -6.1252387291906456e-02
      -2.9879925622946452e-01 -1.4655602525619479e-01
      1.8263162902808486e-01 2.3441304498891000e-01
      -7.2630540851734579e-02 8.6496388751444012e-02
      -3.4239366478073199e-02 -3.2702962898225080e-02
      -3.7235931888672147e-01 -7.4047236816652123e-02
      1.1100581362378731e-01 -1.6476336366023184e-01
      -6.3875838604889843e+00 -6.9797436016633574e-01
      -2.3695356034891699e-01 -2.7605444850585970e-01
      -6.2517911184597019e-01 -4.1067524536765133e-02
      3.9188629408742132e-01 2.2573529642905843e-01
      -1.1391517381741754e-01 4.7604854002914816e-02
      2.6175369558668815e-01 -1.9340109504170241e-02
      -3.9945905252299468e-01 -1.7047048510759910e-01
      5.7535504765563301e-02 3.4024965873795186e-02
      -4.9678829337529988e+00 6.0289893356987027e-02
      2.4656429374714139e-01 -2.4578377200135648e-01
      7.3653240812901588e-02 3.1401266924937599e-01
      -1.6876331341580436e-01 -2.1052320165405865e-02
      1.3554392732060161e-01 2.4510808758967786e-01
      8.7761812847567178e-02 3.8472634193283645e-01
      -2.5253430631789003e-01 -8.9106464093635360e-02
      1.1612123201336709e-01 3.0521412685796324e-02
      -4.7986997577913444e+00 3.6745656778212697e-02
      2.0558205029379426e-01 -1.3128265184559521e-01
      -5.9384861476434729e-02 2.3926133840066233e-01
      -2.2417173349775094e-01 -1.2050016148923670e-01
      3.6521756438128217e-01 9.2670806646855730e-02
      -1.1166039267662325e-01 2.0825331482686404e-01
      -2.4516787076310245e-01 -9.3170587441426689e-03
      2.5920327588100478e-01 4.7785109890999940e-02
      -5.5568707611094403e+00 -5.4003446327138138e-01
      1.9687182593077368e-01 1.0730737639867055e-01
      -5.9818937464404398e-01 7.4397368655231708e-02
      -2.8243096401498663e-01 -1.4018603072834560e-01
      2.6229942267893541e-01 8.9412928416258645e-03
      -3.5611954699705392e-02 -5.6624283444255526e-02
      -7.9771721894398868e-03 -9.9882301421556005e-02
      8.6096857085363590e-02 -1.3750689383981438e-01
      -5.7889967550372452e+00 -1.8709685565998280e-01
      4.5738338406343304e-01 3.1098470956348584e-01
      -4.3352912287695539e-01 -1.7877169901899087e-01
      -2.1808086027235069e-01 -1.9114214128461141e-01
      3.1573120914219038e-01 3.3505565129232098e-02
      -5.3272961640752929e-03 6.9943224927833433e-02
      -1.1905221479599347e-02 -1.0743139578427605e-02
      -1.9657975782547396e-01 -1.1994470076162736e-01
      -5.6308715374465725e+00 -1.3455984396160626e-02
      3.8117948861861756e-01 4.2206495126136767e-01
      -1.6239104101084129e-01 -4.4621123997739244e-02
      -2.8908940178514381e-01 -2.5892525479061823e-01
      3.2373293672199760e-01 9.3436473258484254e-02
      -3.4957500417613968e-01 1.3311771546726894e-01
      6.8582053879766999e-02 -4.6448402113103270e-02
      -1.0035164699735008e-01 -1.6570361858512694e-01
      -5.5269712084515223e+00 1.0024185234825075e-01
      1.0967379907665060e-01 3.3214775425363380e-01
      -3.6333190479294236e-01 -2.1461627740762514e-02
      -3.7839717158502195e-01 -1.0507178409580530e-01
      2.8232163539229471e-01 7.5015279952864500e-02
      -4.3223232227280484e-01 1.0215545062460459e-01
      1.2950718211846329e-01 9.2317585521371925e-02
      -1.9594554487896640e-02 -2.1459731605944268e-01
      -4.7009790199987336e+00 3.3725582890744615e-01
      1.9145373815895851e-02 2.6076820432666808e-01
      5.9961690723572172e-02 -2.2771278043779358e-01
      -3.6618372773272245e-01 -1.7198342981472284e-01
      1.9720435396772776e-01 6.2187373988267319e-02
      -3.4807013196985620e-01 2.4964363574399370e-01
      2.6369266518862594e-02 4.2258939435818749e-01
      -8.2373353749110138e-03 -1.2783255772915078e-01
      -4.1764416216653633e+00 4.9252393401791911e-01
      1.5889187711085573e-01 1.9962459995726001e-01
      3.6609071750479283e-02 -3.8581250105923076e-01
      -3.1766080716092310e-01 -4.4224450193595127e-01
      2.6085331747938495e-01 5.7666893360846176e-02
      -2.8738321418569018e-01 2.8614084165577996e-01
      -1.2533310376164356e-01 2.2474079122367260e-01
      -8.7320373601347367e-02 -1.3822886919991927e-03
      -4.8789808325271498e+00 2.2563897879869685e-01
      1.1843893740815083e-01 1.0471072283365798e-01
      -6.6632593054885739e-02 -2.8546459834370580e-01
      -1.7880161598641026e-01 -3.5043766599193399e-01
      1.1601318881370189e-01 4.6864490093036927e-02
      -1.3461886284786673e-01 2.3617478516273206e-02
      -1.5199706202469240e-01 -2.9924208699244954e-02
      -5.2939509876578014e-02 -7.1990763789679710e-02
      -5.2730308403662747e+00 2.8416498487746972e-01
      1.8501954265286716e-01 -1.7155747262512611e-02
      2.6172699698617952e-01 -1.9054037040280938e-01
      1.7664299862930288e-02 -1.9103175775600037e-01
      1.7961601840124372e-01 1.9366660377441786e-01
      -9.0269432883129969e-02 9.9901867767165087e-03
      -9.8530736128694688e-02 -5.3607474583152695e-02
      -1.4599329227289776e-01 -4.1456409774978518e-02
      -5.7421576894533315e+00 1.2578586748005667e-02
      8.5574240233876192e-02 1.0452629343013745e-01
      1.3078851250354256e-01 1.4224954929983827e-01
      -1.5311301849493454e-02 -2.7200635161276104e-01
      -1.6164574425288441e-02 2.4876250717474496e-01
      -4.4622911653087446e-02 -1.2115410507708602e-01
      -3.3649969006259078e-02 1.3396960878725286e-01
      -1.7317623930283688e-01 -6.6392441452913065e-02
      -6.0301202290956013e+00 -4.2406611051319743e-01
      -9.0855504461637190e-02 1.2463874030337295e-01
      3.3378219983036589e-01 -2.6888163622121670e-02
      2.3299441343154109e-01 -5.1249475586532416e-02
      -1.0742093909567695e-01 8.0396819396630598e-02
      -2.0926131229792028e-01 -3.1839984545679031e-02
      1.5438004994852475e-01 3.2782012275207439e-01
      1.6359158602375547e-02 -1.5134341890474515e-01
      -5.4899890296810927e+00 8.2912063892475885e-01
      1.2332433420040234e-01 1.4487590811173712e-01
      8.1909594456613721e-01 -3.1688548118945398e-01
      1.2029569410283185e-01 -1.3860623240996964e-02
      -1.4471708534466873e-01 1.1638487950908862e-01
      -2.7761857748987884e-01 5.1467693111158330e-01
      1.9634609637643977e-02 3.2308162949350988e-01
      5.0455049659471930e-02 -2.4062036487766605e-01
      -6.1273406651755993e+00 -7.3863846935859082e-02
      -2.9750894139596567e-02 -7.7552091555956179e-03
      -1.0338561845450414e-01 -3.4108799788921024e-01
      1.5048662141766259e-01 2.4671483364945893e-01
      -2.9951408475772490e-01 1.3778088697517521e-01
      1.7135048900864336e-01 3.2619224878256509e-01
      -1.3737436880375337e-01 -1.5195222359314434e-01
      -5.6436842123143732e-02 -8.9722623284862218e-02
      -6.0457003669650140e+00 -6.6438380625617910e-01
      -8.5597168081689795e-02 -1.0179851766560565e-01
      -5.7876803849433422e-01 -1.2179750983226084e-01
      1.8158872141521692e-01 4.6885366070047002e-01
      -4.0438520333922018e-01 7.3115741014435673e-02
      2.8181870330753755e-01 9.6003550175856503e-02
      -1.8845186996083230e-01 -1.7283870266931342e-01
      -7.4403472865279985e-02 -2.1645700755617270e-02
      -5.1908590564768424e+00 -5.7841658995393830e-01
      -7.3281396506238924e-02 -2.5233776286127096e-01
      -2.7101067232401899e-01 1.8390490937550402e-01
      4.9173191064677768e-02 3.7190428013478702e-02
      2.2409506624298967e-01 3.1665933613265185e-01
      1.9399742169197040e-01 3.2518242738205742e-02
      -1.9991961994303781e-01 1.0295087660742115e-02
      -6.7583399716652101e-02 6.1929996750244770e-02
      -4.4332093223063715e+00 -2.2064137388213023e-01
      1.8148954496347455e-01 -1.6019378955179545e-01
      2.7525261390759248e-01 -1.8828034568452925e-01
      -2.9936032341965924e-01 2.1683612484953277e-02
      1.2220099422072640e-01 2.4974437760811519e-01
      -3.7793758896651257e-02 2.2679109004516204e-01
      -1.4957318488346524e-01 -6.1030368234135282e-02
      6.3506721737550134e-02 6.0865750218271938e-02
      -4.3019226706073352e+00 -5.2146449193066102e-01
      3.8112221533847662e-01 -1.1814052952550133e-01
      -2.2117044524106480e-01 -3.1122630282255787e-01
      -3.4838839230211160e-01 -7.8701068664982846e-02
      2.1118138677038048e-01 8.4364215942164908e-02
      -8.9320285976833377e-02 1.2838201725951770e-01
      5.8835086161943329e-02 -5.5135715701102615e-02
      -3.1678621922936682e-02 -2.9405705281117444e-03
      -4.3390899206086910e+00 1.1174477936504063e-01
      4.5181510999322594e-01 1.1314986721029879e-02
      2.4977186644497940e-01 -4.0253041780378435e-01
      -1.6426449604001297e-01 5.5834269374759243e-02
      5.1926440661114164e-03 1.4421419888446232e-01
      -3.2998831632238429e-01 1.2928924773300099e-01
      8.6317748793707724e-02 2.2067231360739567e-01
      9.3221754836572093e-02 -2.4594194457605395e-01
      -4.6222840722565888e+00 -1.5030861045578614e-01
      7.4331126371443484e-02 5.2271635787573031e-02
      -4.3813678099041997e-01 -2.4502306665110118e-01
      4.3760617026758980e-03 -5.2462397428393044e-02
      1.3898793475882118e-01 1.2857956634985654e-01
      2.0601782167506921e-02 4.3416700324959111e-03
      1.2053044043817725e-01 2.9341220717015665e-01
      -2.1587379792667305e-01 1.4988405687182129e-02
      -4.8398183097268959e+00 -9.4419667390697140e-02
      -2.8038326377936598e-02 3.9492377137789948e-02
      -6.2743852858273752e-01 -4.0219918605801645e-02
      -1.8214442225115421e-01 -2.3832026893645000e-01
      1.7962991360918915e-01 1.2084976660580848e-01
      3.1742632817332771e-02 7.6491890840899149e-02
      1.1171548638284874e-01 1.4299433382262591e-01
      -8.6255195115219785e-02 2.7466131190474082e-02
      -4.3931976667285468e+00 -1.0040107792647882e-01
      8.0116000433699569e-02 3.7054391583091914e-02
      -1.8122561388282010e-01 -3.7618933088717582e-02
      -1.7924968195557209e-01 -1.6092887924416280e-01
      9.9521627874748372e-02 1.3050287203200278e-01
      -1.7441326405950480e-01 1.3793729271682045e-01
      -4.5064463374952103e-02 -7.2406098272053382e-02
      -7.6821548484848567e-02 5.1747220982918370e-03
      -4.3393796487445453e+00 -1.8247881217331896e-01
      1.1820488838651777e-01 -7.5654842362827254e-02
      -2.7427808170371221e-01 -8.2775067936590660e-02
      -7.6509049514997360e-02 -3.5555251510936559e-01
      3.3132672019985532e-01 1.5259075509928471e-01
      -3.3518527104254951e-02 6.1123198021698959e-02
      -1.5145403256502196e-01 8.2138437090029284e-02
      -2.0840513615287673e-01 6.9326842665051860e-02
      -4.9603377283371728e+00 -9.8368241390015872e-03
      1.8274419072607390e-01 2.8075282019849480e-03
      1.9270796123970452e-02 -2.5328698280653106e-01
      -1.0521635267562551e-01 -2.7331256768341261e-01
      7.5743682491718117e-02 2.1766710544814138e-01
      -5.5977616762980777e-02 -2.4808097575278451e-02
      -1.5759960028673078e-01 2.2122762274571484e-01
      -1.4674295555099151e-01 -8.1230805288042725e-03
      -5.4181190994151160e+00 6.4495763369749909e-02
      1.7504480199989431e-01 1.3314135075646719e-01
      1.6966166125286933e-01 -3.2184827414400530e-01
      -7.0497347898855964e-02 -1.9791372652688813e-01
      -1.4427911444393565e-01 3.6329481483409287e-01
      -1.5855472159037962e-01 -1.4681741133765863e-01
      -6.3524493672160037e-02 2.4357660501240525e-01
      -5.9235714340539113e-02 -1.4606737617773816e-01
      -5.7640955855022495e+00 3.3865714380589063e-01
      3.5272288335361633e-02 2.3203174756579839e-01
      6.4131347132537841e-01 -1.0920145699177564e-01
      6.4446368213321073e-02 -1.6453748121513878e-01
      -1.7875450269527277e-01 3.5319447923530772e-01
      -5.0672710826142575e-01 -1.5739697234621716e-01
      -2.9370742602741379e-02 2.0550603932644579e-01
      7.0685041444293925e-02 -2.7107195763809583e-01
      -5.0979017473309627e+00 8.0222187853573212e-01
      1.3031019974342811e-01 1.6141100698421851e-01
      1.0578771567339778e+00 -5.0824689072331408e-01
      1.7258890604991087e-01 -5.9777480747890049e-02
      -1.7104644673669983e-01 2.4544405953483286e-01
      -5.5110592191933749e-01 2.7388948739721569e-01
      -6.9507664912684647e-02 3.8566538599765371e-01
      1.9403301244652008e-01 -2.1346036522172857e-01
      -4.8002064186856224e+00 6.5243723234037621e-01
      1.7371377917056541e-01 -7.3202539217453566e-02
      8.0054734839121822e-01 -5.5268368861456363e-01
      2.8118139242064866e-01 -1.8569919792285935e-02
      -2.0538132697410552e-01 1.5855344478110653e-01
      -6.6484010181732708e-02 4.4396917770790706e-01
      -1.9528591435169917e-01 5.5344103100099282e-02
      1.4292615266598094e-01 -1.1964947215553957e-01
      -5.9318979775957814e+00 -5.7451548069108604e-01
      -1.0013434204907976e-01 -1.3324406976492015e-01
      -4.9792990974089618e-01 -2.0622969590511789e-01
      3.7713685171708855e-01 2.6548959880273081e-04
      -3.4039478131452272e-01 8.1012042255109940e-02
      2.3390780620526613e-01 6.7158935918205639e-02
      -1.8789839906790937e-01 -2.8471287795190592e-01
      -5.3624295102847871e-02 -3.9049425233157291e-02
      -5.9276626321703283e+00 -8.2546597519220366e-01
      -5.1204820908480719e-02 -1.5685924422315203e-01
      -6.5082328274865620e-01 -1.9041842731772224e-01
      2.7957057099203847e-01 -8.7572930051255146e-02
      -4.1592397543110426e-01 3.9869313809876253e-02
      2.4122869842182254e-01 1.5956447078176886e-01
      -1.6735030042432927e-01 -3.1433043913961911e-01
      -2.3752389349946815e-01 1.0533056090804680e-02
      -5.3059404679157227e+00 -5.0094503575606097e-01
      -1.5203222284419770e-02 -2.5427306620310469e-01
      1.0565620494971448e-01 -4.9867360543369509e-02
      -9.7516309655778732e-02 3.3032287494338808e-01
      1.9748952625313509e-01 1.1590513918345710e-01
      6.5629602213188851e-02 7.9442589573371261e-02
      -3.9299736471551258e-02 2.0869090393861527e-02
      2.0692075781435455e-02 6.1488058810959721e-02
      -4.9739531045768812e+00 3.1411358878246955e-03
      1.3126852173894615e-01 -1.7908266058997249e-01
      7.0228691354137118e-01 -2.0385383509579827e-01
      -1.8578046641948226e-01 2.4217207208226355e-01
      7.3790331716794277e-02 1.3209636472392466e-01
      -8.5136483043631347e-02 2.4069729764119213e-01
      -7.0413505490293321e-02 1.1373545434390737e-01
      3.6464482135820812e-02 2.6585344718882409e-03
      -4.2675852643116361e+00 1.1187095520798690e-01
      8.8386950646082235e-02 -2.4540046121640072e-01
      6.5141084399897764e-01 -1.7254368740471279e-01
      -2.4195036231220979e-01 -9.2575960215387665e-02
      1.2870306539119264e-01 9.6150571120002498e-02
      -5.3321708173756442e-02 2.7550811767076933e-01
      -6.8546015807921273e-02 2.9425152314161335e-01
      9.3014234950110200e-02 -4.1669877058427868e-02
      -3.8623335583802030e+00 -5.9066836609028894e-02
      -3.3570306705401731e-02 -1.9187366843276810e-01
      1.4573336676123758e-01 -2.0081117415361027e-01
      -1.0733360045581729e-01 -1.7775508431026887e-01
      1.2892673519934317e-01 1.3440342587930412e-01
      -6.4619025699916302e-02 1.4866397227134337e-01
      4.4200963382662944e-03 5.0987821743360351e-01
      1.5592242661214611e-01 -1.5607005012809355e-01
      -4.2862689845742787e+00 5.4497784511358882e-01
      2.4556840230317412e-01 -9.3067725065778525e-02
      1.5543579839245492e-01 -2.2755869209216806e-01
      4.7745543263103513e-02 -1.3232616656613602e-01
      -1.5154059977059714e-02 2.5606626090060264e-01
      -4.5072219998751056e-01 2.8625715486229053e-01
      5.0910045853027566e-02 4.5989055580549465e-01
      1.2189872291647162e-01 -1.9021873410794954e-01
      -4.5566149009493762e+00 6.7930303692091965e-01
      3.4721403631571690e-01 -3.9662809739605093e-02
      1.5323408887785903e-01 -2.3276394981588117e-01
      -7.0661984891552190e-02 -5.5738762167491329e-01
      -7.0802755891550981e-02 2.7931050101714122e-01
      -4.0922645349731024e-01 3.1724532419097395e-01
      -5.6249370376387470e-02 2.9544731057316986e-01
      1.3529925618467199e-02 -2.0144332319201361e-01
      -4.3192874712114593e+00 4.7717046212525682e-01
      3.3194193481718004e-01 9.2901864702966894e-03
      2.6615576037666122e-01 -5.8673700152272787e-02
      -7.2474537639165754e-02 -2.4311876274349989e-01
      7.0353539535729728e-04 1.9009131807313615e-01
      -3.8993550908020930e-01 2.1020557497548670e-01
      -1.4672436421220034e-01 2.8206390088351763e-01
      -5.0837285325558611e-02 -2.4851962471039268e-01
      -4.4670123264474180e+00 -4.4691511517302770e-03
      1.6469937472547275e-01 4.7932677119713517e-02
      1.4378035379690984e-01 1.2816811030600042e-01
      2.7381328101958882e-02 -3.4276840487418431e-01
      7.9616106042217374e-02 2.4445037747816151e-01
      -2.4860458748566913e-01 2.0539753633373535e-02
      -2.4012547347923688e-01 4.0215349553881613e-01
      -1.2477159418997698e-01 -2.2211991344513013e-01
      -4.6344355799628127e+00 2.9147219755651826e-01
      -1.0842064010427657e-02 2.3624643285770477e-02
      5.7313805380165650e-01 -1.7608428427950448e-02
      -1.9365189052491384e-02 -3.6351193864085390e-01
      4.2759136029018728e-02 3.2296400604818809e-01
      -4.2529909212939909e-01 1.4927558128807897e-03
      -2.1245500166609985e-01 4.8634202046038694e-01
      -1.7044068328919004e-01 -2.2797849004323792e-01
      -4.7477808229210812e+00 3.2701917500220651e-01
      1.4742641188350511e-01 5.2950144331861293e-02
      6.9292074244608703e-01 -1.4681631343927676e-01
      5.9408542363726814e-02 -1.5730660470564117e-01
      4.2826551635668633e-02 4.3977084738448485e-01
      -5.1743763295484502e-01 9.5380802954325994e-02
      -2.5101492035047113e-01 5.3366667391502309e-01
      -1.1964122653078216e-01 -2.9608141495763368e-01
      -4.9642783758938132e+00 5.6974473967153871e-01
      2.4247157760307964e-01 4.1923028980908973e-02
      9.2447042116961997e-01 -2.7079104926785086e-01
      6.0256048802840440e-02 -1.8281204497760073e-01
      -8.8480632483485172e-02 4.2614137972582650e-01
      -6.2419853943094505e-01 1.4716089755514777e-01
      -2.6848523217204101e-01 7.1524578249174853e-01
      7.1052792696588402e-02 -3.6020616472584166e-01
      -4.9542734288962693e+00 9.2700672959353358e-01
      4.4082663919937287e-01 -1.4390340568803892e-01
      9.5887707065699379e-01 -4.6681696520327809e-01
      9.5566036149903583e-02 -2.9783800835780488e-01
      -1.0513102078162237e-01 3.2417386152911593e-01
      -4.8438797059588568e-01 4.0643589425784343e-01
      -3.3192839515501532e-01 5.3079410806131011e-01
      1.0308268111329924e-01 -3.3213406016517827e-01
      -5.4007003881857800e+00 1.7145097968369186e-01
      2.3526801554499352e-01 -3.4326909137393180e-01
      -5.5159429665862696e-03 -2.9311261163045793e-01
      3.3887928529819034e-01 -4.5093662401873730e-01
      -1.2626323200635425e-01 1.8958067585751667e-01
      4.9971197920262243e-02 3.0784567053804096e-01
      -3.8863116214560428e-01 7.2220909043468173e-02
      -3.5143909798042716e-02 -2.0425905244250517e-01
      -5.4007240455451724e+00 -5.1255882726759083e-01
      1.5154762296194824e-01 -3.3989036724761623e-01
      -6.6276066431589209e-01 -2.0394753844926056e-01
      2.2814295841709212e-01 -2.1990712713716884e-01
      -2.4879041014878717e-01 9.5658998533538708e-02
      3.5679843361305114e-01 1.0541825142211721e-01
      -2.9825842718357509e-01 -1.8790886693125686e-01
      -7.6842309466742323e-02 -1.0022018407092025e-01
      -5.6164264350009194e+00 -9.4263188985177426e-01
      1.1590203566229701e-01 -3.5005622292209310e-01
      -9.4494181358374429e-01 -1.7963609067571401e-01
      1.9032762925979776e-01 -4.7801455454545963e-02
      -2.9634652998315586e-01 5.9327032540854176e-02
      6.1243896402495202e-01 2.1554420159344681e-01
      -1.5690620147672027e-01 -1.7328771307358995e-01
      -3.1259512979975373e-01 5.7618594398048902e-02
      -5.2179904592582380e+00 -1.3314057682194454e-02
      -1.5511632624493973e-01 -3.2514311628703313e-01
      4.6357720311006817e-01 -1.7364816919239264e-03
      -2.0995363630297934e-01 4.5566525206168867e-01
      -3.8363558563419144e-02 6.3100152010827623e-02
      -3.8235416964102265e-01 9.7747627878596102e-02
      8.2746413710520397e-02 1.1145288436351449e-02
      -2.6500905754122915e-02 -9.3152194617326517e-02
      -4.8420460689674441e+00 4.3220632457319008e-01
      -3.3351174281138535e-01 -2.9563722339551746e-01
      5.7622464172794896e-01 -1.9262055011901499e-01
      -7.6868604483756792e-02 1.7903565142311148e-01
      -1.3881237765466761e-01 7.7016031579949282e-02
      -2.4799265119665539e-01 1.7241251290625759e-01
      2.0742965353016320e-02 2.9706055074828630e-01
      6.6918361141961119e-02 -8.6559987898330443e-02
      -4.5108612493416889e+00 7.3178751427571809e-01
      -2.4604206186154445e-01 -2.1564960379712761e-01
      7.9474501121436358e-01 -1.3228945766351696e-01
      8.7058430253456415e-02 -2.1001973411844119e-01
      -5.0998283899120568e-02 1.0605748924999564e-01
      -3.5311261202688765e-01 2.2288820029861781e-01
      -8.0149188546882036e-02 3.4313432891044560e-01
      1.6085103743009316e-01 -1.1224980880989537e-01
      -4.2951107737076448e+00 4.6566889826302382e-01
      2.1302838559487971e-02 -1.5041756048346527e-01
      6.2422551996615627e-01 -1.6124898369550245e-01
      1.4618000695802402e-01 -3.3870519996185861e-01
      -1.8306955746315884e-02 8.9650853448074275e-02
      -3.1278129308485364e-01 1.5957434766116638e-01
      -1.2225808246237954e-01 3.3517602938615554e-01
      1.6302722101261397e-01 -1.7593214927867870e-01
      -4.5413697353796811e+00 2.5948667631890948e-01
      2.4557437974634841e-01 -1.6684440509585169e-01
      2.1454691053871516e-01 -2.1892701798003472e-01
      1.6476117785197478e-01 -3.1820614581066808e-01
      -6.3533731387784453e-02 1.8287940637465966e-01
      -4.0238409985303397e-01 1.7618100620297686e-01
      -1.3677715238360225e-01 4.7161671590415233e-01
      1.0985279120054264e-01 -2.5097878616644226e-01
      -4.1966689023071888e+00 6.7296419805725760e-01
      5.8301853084375399e-01 -4.3822660615440309e-02
      3.2655566314755330e-01 -3.8686899859545881e-01
      1.0769869332178737e-01 -3.1127622690225326e-01
      -1.4460896023840350e-01 3.0627085239203528e-01
      -5.8170962276188354e-01 4.8251957543193186e-01
      -1.9998500843954381e-01 5.7906724232306583e-01
      3.4138463678924008e-02 -3.3018505791215769e-01
      -3.8163401370023711e+00 1.0060846296120420e+00
      6.8583357416003166e-01 1.5399709046581170e-01
      5.5364527501360694e-01 -5.0410620771693981e-01
      6.2294836260060424e-02 -4.5186859774197374e-01
      -1.3100166596179258e-01 2.8127510785622478e-01
      -7.4246700536976440e-01 6.4205869029111107e-01
      -2.0869645537607825e-01 5.0446909221715153e-01
      -8.4743500400634011e-02 -3.5558978856716744e-01
      -3.9381005390039272e+00 6.4691076017062688e-01
      5.4185173954173216e-01 1.4849299029696697e-01
      5.4340240937402573e-01 -3.4473471347638163e-01
      1.1914746968905249e-01 -3.2792289263600705e-01
      -9.4906186372196819e-02 3.3110993325769178e-01
      -6.2120868343280433e-01 4.3565582709521611e-01
      -2.8676566482884852e-01 5.6599350972412554e-01
      -8.2961278085731879e-02 -3.6042615948798051e-01
      -4.1135963879091175e+00 4.2716871528028955e-01
      4.7146604320017371e-01 1.4619671858259553e-01
      6.1827490417078546e-01 -2.2908364788789362e-01
      1.6061963217052627e-01 -3.3641520420281773e-01
      4.9017408565871820e-02 3.9278327109163746e-01
      -5.9006947888315964e-01 2.9482465274546060e-01
      -3.9639920098422937e-01 5.1279144112303243e-01
      -4.6584841533005815e-02 -3.7323544940508430e-01
      -4.0483828493244349e+00 1.1644297724098533e+00
      5.4305220124773967e-01 7.2284127340481355e-02
      1.4355214497133539e+00 -1.5894802190676210e-01
      2.8163390630488749e-01 -3.0471794439613076e-01
      1.7294888213330714e-01 4.6435178246388320e-01
      -8.0420158463741076e-01 4.6012625741228774e-01
      -5.2182120861906744e-01 6.2202029591726393e-01
      -3.2283615213292642e-02 -3.6945592756699813e-01
      -4.6993693392122404e+00 1.5389236801984660e+00
      5.6434019646354316e-01 3.4755853647191401e-02
      1.5523035519859736e+00 -4.1294393935798684e-01
      6.7264196576639790e-02 -2.5055593142258054e-01
      -2.6254801192627603e-01 4.5509314506554660e-01
      -8.2283920299099089e-01 4.9328489508026829e-01
