<?xml version="1.0"?>
<opencv_storage>
<my_nn type_id="opencv-ml-ann-mlp">
  <layer_sizes type_id="opencv-matrix">
    <rows>1</rows>
    <cols>4</cols>
    <dt>i</dt>
    <data>
      225 16 8 2</data></layer_sizes>
  <activation_function>SIGMOID_SYM</activation_function>
  <f_param1>6.6666666666666663e-01</f_param1>
  <f_param2>1.7159000000000000e+00</f_param2>
  <min_val>-9.4999999999999996e-01</min_val>
  <max_val>9.4999999999999996e-01</max_val>
  <min_val1>-9.7999999999999998e-01</min_val1>
  <max_val1>9.7999999999999998e-01</max_val1>
  <training_params>
    <train_method>BACKPROP</train_method>
    <dw_scale>1.0000000000000001e-01</dw_scale>
    <moment_scale>0.</moment_scale>
    <term_criteria><epsilon>1.1920928955078125e-07</epsilon>
      <iterations>1000</iterations></term_criteria></training_params>
  <input_scale>
    1.9549024250031299e-02 -2.7505144841761462e+00
    1.9499616622342151e-02 -2.7422647818213357e+00
    1.9595326055328873e-02 -2.7446779078744501e+00
    1.9465900210243504e-02 -2.7461808228615485e+00
    1.9316667785381998e-02 -2.7686038194547011e+00
    1.9159314354358834e-02 -2.8186987885691712e+00
    1.8167832912079785e-02 -2.7781858940341833e+00
    1.7761037718384814e-02 -2.7376149072445264e+00
    1.8042546421850700e-02 -2.7254467502899287e+00
    1.8996227138850661e-02 -2.7597266752455476e+00
    1.9456168169066031e-02 -2.7400678310395143e+00
    1.9441144776168984e-02 -2.7036133644037492e+00
    1.9087410729616092e-02 -2.6527175155360792e+00
    1.9314607706502184e-02 -2.6767693510301602e+00
    1.9581812649473371e-02 -2.7182107695094748e+00
    1.9895784027827955e-02 -2.7583278255804142e+00
    1.9782992609535557e-02 -2.7615768706056061e+00
    1.9648495250877786e-02 -2.7648716844103465e+00
    1.8994607865489177e-02 -2.8043144009003798e+00
    1.7212337180154937e-02 -2.8061473221470727e+00
    1.5662086662301771e-02 -2.7600545497029390e+00
    1.4941284553191358e-02 -2.7017694191417396e+00
    1.4924298413447260e-02 -2.6874306760645186e+00
    1.4970440003912540e-02 -2.6654380721413742e+00
    1.5607479041755461e-02 -2.6769700455017738e+00
    1.6907327732849965e-02 -2.7186551929409721e+00
    1.8669681511936723e-02 -2.7481189410792863e+00
    1.9097912622215961e-02 -2.6757365821904986e+00
    1.9371776359607303e-02 -2.6779971684437864e+00
    1.9450725862476120e-02 -2.6906194595683854e+00
    1.9653268602689563e-02 -2.6979261093015072e+00
    1.9657958760445526e-02 -2.7257179872203023e+00
    1.8783908910075538e-02 -2.7790074867668411e+00
    1.6001801395011461e-02 -2.6923597483133515e+00
    1.4841727985071027e-02 -2.6581408687596615e+00
    1.4612135877455776e-02 -2.6685982315802237e+00
    1.4403549073669123e-02 -2.6280152554895388e+00
    1.4124922851078329e-02 -2.5678549548019847e+00
    1.4170305626647466e-02 -2.5592053671831612e+00
    1.4478536057497993e-02 -2.5787585220256162e+00
    1.4918165387595706e-02 -2.5986134011347484e+00
    1.6425360190257990e-02 -2.7150003656126578e+00
    1.8512316602751860e-02 -2.7722587433795187e+00
    1.9438940936047748e-02 -2.7175419157309357e+00
    1.9729994009428944e-02 -2.7197489334159126e+00
    1.9775662628775535e-02 -2.7089856716064298e+00
    1.9489741563879455e-02 -2.8032652929825823e+00
    1.6853838068251793e-02 -2.7525707430902333e+00
    1.5170153674835006e-02 -2.6636082431816179e+00
    1.4865659555118819e-02 -2.6740500012207784e+00
    1.4960172842388613e-02 -2.6989762251204499e+00
    1.4750091292953287e-02 -2.6621825535722192e+00
    1.4356248978341287e-02 -2.5930313841644819e+00
    1.4313079514391201e-02 -2.5790709594104282e+00
    1.4561848991938828e-02 -2.5841919240099487e+00
    1.4821340858575336e-02 -2.6064986378456041e+00
    1.5301398576468141e-02 -2.6410950837533020e+00
    1.6646661882516064e-02 -2.7249359401936744e+00
    1.8848715147923807e-02 -2.7551428571108971e+00
    1.9265132461740008e-02 -2.6950446776930455e+00
    1.9896748511706319e-02 -2.7551642039680355e+00
    1.8689849141971505e-02 -2.8485077302057733e+00
    1.6004598641386002e-02 -2.7049585256196322e+00
    1.5072679301752500e-02 -2.6453192656698943e+00
    1.5106602368440790e-02 -2.6459663394853417e+00
    1.5321415869720202e-02 -2.6679446214954567e+00
    1.5026024304275186e-02 -2.6089945656023645e+00
    1.4627172266482982e-02 -2.5386638415817178e+00
    1.4705175608260389e-02 -2.5411626551826969e+00
    1.4727725562701311e-02 -2.5421806628513210e+00
    1.4972175215594729e-02 -2.5747475820472463e+00
    1.5249971973713101e-02 -2.6047211337424474e+00
    1.5717903316555013e-02 -2.6142479873132518e+00
    1.8059743978825701e-02 -2.7744473540275290e+00
    1.8894890466204843e-02 -2.6912907795907830e+00
    2.0407209238997241e-02 -2.8263406688100727e+00
    1.7945566330929370e-02 -2.7575929951041567e+00
    1.6055673514175271e-02 -2.6505278929229656e+00
    1.5360831963745138e-02 -2.5852106134564212e+00
    1.5466417557180687e-02 -2.5924432307105496e+00
    1.5746768765123233e-02 -2.6180229803295108e+00
    1.5566495242721501e-02 -2.5800914643307959e+00
    1.5261592395429950e-02 -2.5225726104706836e+00
    1.5217498622307608e-02 -2.5193366486863424e+00
    1.5324376715003326e-02 -2.5327331056847706e+00
    1.5370372520495085e-02 -2.5221997547760284e+00
    1.5703222022459312e-02 -2.5864274312147821e+00
    1.6113971377104179e-02 -2.5961296888347563e+00
    1.7746374948501811e-02 -2.7184128401992593e+00
    1.9013675927099256e-02 -2.7060823755735597e+00
    2.0830614594038246e-02 -2.8686352746534967e+00
    1.8399465791715554e-02 -2.7754265006922774e+00
    1.6681876584792702e-02 -2.6490630986887806e+00
    1.6370452027300968e-02 -2.6258807929627452e+00
    1.6428230736205758e-02 -2.6354046745888375e+00
    1.6240391236307040e-02 -2.5531919321532452e+00
    1.5747646161832180e-02 -2.4549375872114019e+00
    1.5679104541453520e-02 -2.4453184742923004e+00
    1.6101813224521387e-02 -2.5439724539699564e+00
    1.6202074664392115e-02 -2.5792509511770962e+00
    1.6332570474192919e-02 -2.5819804399782886e+00
    1.6400837381574489e-02 -2.5613183092675311e+00
    1.6424520747082030e-02 -2.4605141817200900e+00
    1.7591089066005396e-02 -2.5720115705926450e+00
    1.8858056155350272e-02 -2.6663581891492560e+00
    2.1046975388575005e-02 -2.8693943741157684e+00
    1.8590071318462131e-02 -2.6840797872182987e+00
    1.7267410422958901e-02 -2.5781760162959539e+00
    1.7073341935693299e-02 -2.5721739305442082e+00
    1.7205878974055112e-02 -2.5948220200079262e+00
    1.6558557819961548e-02 -2.4703445035454532e+00
    1.5987841151796099e-02 -2.3499182556384270e+00
    1.5961278473778512e-02 -2.3606188269682482e+00
    1.6273739871523928e-02 -2.4362664511347125e+00
    1.6688401290158188e-02 -2.5129281200501796e+00
    1.6859160729339216e-02 -2.5188923400172225e+00
    1.6789560360614797e-02 -2.4682318417391631e+00
    1.6407740941151362e-02 -2.2696367883454687e+00
    1.7615538104035985e-02 -2.4004539077009714e+00
    1.9493896333885808e-02 -2.6949069152793981e+00
    2.1532080423602499e-02 -2.8835603510061549e+00
    1.9804366028761535e-02 -2.7190328600111267e+00
    1.8158685185905753e-02 -2.5380492022306060e+00
    1.7814301289365453e-02 -2.5058110941137457e+00
    1.7787967243416695e-02 -2.5137975464733291e+00
    1.7332543893773315e-02 -2.4276609106739011e+00
    1.6817895904656540e-02 -2.3223465605452778e+00
    1.6757123430465221e-02 -2.3138359456358386e+00
    1.7056159912080395e-02 -2.3845767818158401e+00
    1.7640467483943607e-02 -2.4903542679740673e+00
    1.7810809709437110e-02 -2.4995427977355797e+00
    1.7349373212393545e-02 -2.3693935784597180e+00
    1.7233123839616036e-02 -2.2478974610681024e+00
    1.8465597585318103e-02 -2.4121144562475800e+00
    1.9754962004938356e-02 -2.6826175104468057e+00
    2.1459244152909101e-02 -2.8408574168036020e+00
    2.0958206811875591e-02 -2.8102996068932558e+00
    1.9316143066632558e-02 -2.5802098980762751e+00
    1.8762382607456843e-02 -2.4831455293101201e+00
    1.8717346012188215e-02 -2.4890623659409217e+00
    1.8739415735836932e-02 -2.4788849504044572e+00
    1.8431236022400741e-02 -2.4050413418238610e+00
    1.8105044026607633e-02 -2.3563996890550931e+00
    1.8202947603626382e-02 -2.3781918995230740e+00
    1.8304333232813903e-02 -2.3861746587564130e+00
    1.8439336316605819e-02 -2.3754096298285869e+00
    1.8336493979302742e-02 -2.3096450426309558e+00
    1.8498153744426902e-02 -2.2795437307632929e+00
    1.9804291156807770e-02 -2.5467028063075170e+00
    2.0031677828057093e-02 -2.6954239806087363e+00
    2.1496165873441921e-02 -2.7981248549623783e+00
    2.1501152521583529e-02 -2.8055654002738213e+00
    2.0806788917126874e-02 -2.6438178756056909e+00
    2.0123275702287096e-02 -2.4906401616735816e+00
    1.9848458881022560e-02 -2.4546583475367716e+00
    1.9760725477015906e-02 -2.4438083599486342e+00
    1.9350459554687751e-02 -2.3610027429183535e+00
    1.9031464018492834e-02 -2.3184420600205309e+00
    1.9129859904752210e-02 -2.3183710245191271e+00
    1.9085139328238437e-02 -2.2869187208078121e+00
    1.9249653522952642e-02 -2.2733404557836012e+00
    1.9634310566901660e-02 -2.2903451086928981e+00
    2.0074740795302186e-02 -2.3669427383605446e+00
    2.0693733612170917e-02 -2.6129502590042160e+00
    2.0524474664269869e-02 -2.6846361718791290e+00
    2.1583552360168370e-02 -2.7449937434379006e+00
    2.1667169659302613e-02 -2.7287743953076946e+00
    2.2031094071905871e-02 -2.6908828228250923e+00
    2.0993256685824725e-02 -2.4270702510062123e+00
    2.0775735657695107e-02 -2.3543087189210188e+00
    2.0265345800856822e-02 -2.2874867878414742e+00
    1.9541150554805497e-02 -2.1776204247865758e+00
    1.8917993058919270e-02 -2.0951543332632276e+00
    1.8935454950879359e-02 -2.0739419115179847e+00
    1.9140871867278815e-02 -2.0717689300424618e+00
    1.9688175127180609e-02 -2.1090330148986052e+00
    2.0491249587340020e-02 -2.2347652311994790e+00
    2.1033048446131714e-02 -2.4288106340217195e+00
    2.0867376445657497e-02 -2.5715937964277407e+00
    2.0671058352857305e-02 -2.5928417046680332e+00
    2.2366708157131456e-02 -2.6838465744070699e+00
    2.1838247785457829e-02 -2.5350617524889469e+00
    2.1547514195353251e-02 -2.4205854827669495e+00
    2.1165757595497312e-02 -2.2945360103809946e+00
    2.0926872471070588e-02 -2.1644788690970489e+00
    2.0149546301835408e-02 -2.0131280424168021e+00
    1.9236186378420776e-02 -1.8883886251121935e+00
    1.8992060516826059e-02 -1.8374953054707093e+00
    1.8838020107260940e-02 -1.7890248897331891e+00
    1.9013684553238621e-02 -1.7921609611830935e+00
    1.9426101131246983e-02 -1.8342256763598515e+00
    2.0194233921984654e-02 -2.0061226573914928e+00
    2.0255363773708523e-02 -2.1994857690988905e+00
    2.0693312698463247e-02 -2.3930966127177480e+00
    2.1160190984210982e-02 -2.5026571489824603e+00
    2.2959395521438369e-02 -2.6055011470001710e+00
    2.2380121272496729e-02 -2.4379433239432093e+00
    2.1834303111842954e-02 -2.2946120671149974e+00
    2.1623417873932592e-02 -2.2073650512384164e+00
    2.1354247606447999e-02 -2.0770786648475785e+00
    2.0234214652256517e-02 -1.8536374884551594e+00
    1.9555569329610365e-02 -1.7100320511796394e+00
    1.8988890038806862e-02 -1.6278804259330686e+00
    1.8686818640526712e-02 -1.5787185521447815e+00
    1.8859078866872814e-02 -1.5807434150510846e+00
    1.9011533167537186e-02 -1.6519298897486807e+00
    1.9350079781250192e-02 -1.8258965509165817e+00
    2.0180757829284007e-02 -2.0953686571074148e+00
    2.1079494240968444e-02 -2.3521849239426262e+00
    2.1772947738486845e-02 -2.4996330879601074e+00
    2.3437434522652314e-02 -2.6852461278098834e+00
    2.3062576207789041e-02 -2.5623959494549293e+00
    2.2698556640124840e-02 -2.4681947517078524e+00
    2.2123055937967900e-02 -2.3502770035628986e+00
    2.2032573409711424e-02 -2.2476969791233081e+00
    2.1009273510331258e-02 -2.0467377093018038e+00
    2.0184787379177709e-02 -1.8913660400596630e+00
    1.9834151275014960e-02 -1.8224382340088108e+00
    1.9452607338325996e-02 -1.7950127624219883e+00
    1.9644505133348460e-02 -1.8405454405886694e+00
    1.9884036892182190e-02 -1.9284980993178344e+00
    2.0196279704116499e-02 -2.0725788397208844e+00
    2.1094672569707946e-02 -2.3044286429726988e+00
    2.1624075232234113e-02 -2.4784069342304362e+00
    2.2063263738264085e-02 -2.5904021689301842e+00</input_scale>
  <output_scale>
    5.2631578947368418e-01 4.9999999999999994e-01 5.2631578947368418e-01
    4.9999999999999994e-01</output_scale>
  <inv_output_scale>
    1.8999999999999999e+00 -9.4999999999999996e-01
    1.8999999999999999e+00 -9.4999999999999996e-01</inv_output_scale>
  <weights>
    <_>
      -1.0628055888786755e-02 8.2420477910251144e-02
      3.6166372588638501e-02 7.5811271537970737e-02
      8.9136562409645858e-03 4.5599958692368429e-02
      -8.6943829212878646e-02 -2.3747751935704206e-02
      3.1229013027268195e-02 6.5929035556509710e-02
      4.1108365370837778e-02 1.0143818856166820e-01
      5.0540902822282227e-02 2.8449795568230619e-02
      2.0443871740110239e-02 1.2822527470014014e-01
      -8.3875890944742293e-02 1.4484466786878136e-01
      2.4847382753242449e-02 1.4419465245835297e-01
      1.0188324066424055e-01 6.9498407353455999e-02
      -2.2858237281141028e-01 -6.9220649829952394e-02
      2.3290120314083802e-02 2.2137701812083624e-01
      3.9548132007928546e-02 2.5590258028584761e-01
      -8.6123600391048327e-02 9.4584576349920457e-02
      1.3194349503492219e-02 8.6765816213616259e-02
      -4.7886294758106518e-02 2.3889671860291128e-01
      1.0643450105917116e-02 2.8932741867213524e-01
      1.8929627959006706e-01 9.3960135697418873e-02
      -3.6755942658148555e-01 -1.3080287986113204e-01
      3.1336341552474133e-02 3.8712590889761511e-01
      4.3502444353551717e-02 4.0987537790909551e-01
      -2.1812817799656053e-01 1.3803710308964279e-01
      -1.3225022221341785e-02 -1.6103443167736957e-03
      -2.1807147078181732e-01 2.1760673366645947e-01
      5.9572038285093994e-03 1.6826095212211820e-01
      1.7219244727143973e-01 6.4000324005267825e-02
      -2.3016313417595446e-01 -1.2162047390581811e-01
      6.4878395633326102e-03 2.6210080388782148e-01
      2.8756465414690759e-02 3.4055557875632891e-01
      -1.5205197851362473e-01 1.1685118433885225e-01
      -1.7726819014681455e-02 2.8445239560391172e-02
      -1.0046293049153521e-01 1.7178089089405754e-01
      5.0702409928554584e-02 1.3189847610315758e-01
      1.4791944848760746e-01 5.2216426725325643e-02
      -1.7034111840925151e-01 -7.2249534776179028e-02
      -1.8162366166378982e-03 1.8116569804830152e-01
      2.5811402940027341e-02 2.4260726885923525e-01
      -1.0163304717123459e-01 8.6616944703607951e-02
      2.1300350959466845e-02 5.9783140207785551e-02
      -3.7994475148649776e-01 1.3827068451133448e-02
      5.6738920001962428e-02 -1.5645184286010247e-01
      2.9415841920540271e-02 -6.8486657307583285e-02
      6.2864871051283230e-02 -1.1339666969627675e-02
      -5.1872989779467492e-02 -1.4546095112849033e-01
      -3.6717045626597930e-02 -6.0049195149260007e-02
      9.6699991317783576e-02 1.4574297034824506e-02
      3.0775882273186794e-02 1.0177405712546618e-01
      2.9099007723843312e-01 4.7827559015664781e-02
      1.1575960440139846e-01 5.2251737663151908e-02
      -4.0077951633914963e-02 4.0732795302563596e-03
      -1.5881022092500380e-01 6.5545067440231849e-02
      3.8307634002563954e-03 -5.1497911251445538e-02
      2.0932715224209059e-02 -6.8802058945513694e-02
      1.1010187906909269e-02 -6.1704302414706265e-02
      1.2097555082962604e-01 3.2729889532987548e-02
      2.8314470400024760e-01 3.7798583430335382e-02
      1.2262428806168311e-01 1.4338001433442396e-01
      -4.4179894025880191e-02 6.2042553468621003e-03
      -2.4887835758563442e-01 7.3935319085549886e-02
      1.2425631657668863e-02 -9.8255374196820513e-04
      3.5468775853385877e-02 -1.2265397369306836e-03
      -8.4434895525003689e-02 -5.8276633375730851e-02
      1.1924447845749865e-01 -2.4999573494345142e-02
      4.4983232889517744e-01 1.0026755025324850e-01
      1.1049461355456394e-01 2.6014435706371319e-01
      8.1370990909675964e-03 3.1077005730851891e-02
      -3.8128619941559416e-01 3.3102570867609017e-02
      4.4357377451204050e-02 1.9705594227606252e-01
      5.2018870797533687e-02 1.9562910574342796e-01
      -2.0703477693129216e-01 -2.7559660383680205e-02
      9.8369463415163089e-02 -8.4966880356030922e-02
      1.0214895825662431e+00 1.5242211489808696e-01
      1.3507582887962641e-01 4.5500370510557725e-01
      2.5276114745969427e-02 1.0512905377868892e-01
      -4.7829757891587532e-01 2.5520877555862766e-02
      8.6476515917133137e-02 2.6944998884724480e-01
      1.0975092806982749e-01 2.3624563163302775e-01
      -2.5822906209335206e-01 -6.9186283577819261e-03
      1.0271791609646426e-01 -1.0488102490784389e-01
      1.5246607820255813e+00 2.5481487344952082e-03
      1.7368226923642271e-01 3.9496017339209355e-01
      -3.6631815633422889e-02 1.2861850216080462e-01
      -2.7614343528186658e-01 7.5174457596114644e-02
      1.2984701549119324e-01 8.0765765552450353e-02
      1.4243948218051100e-01 4.2326166339313791e-02
      -7.2780818761466956e-02 -5.6053069692992424e-02
      1.5482024861225802e-01 1.0617774350556154e-01
      1.5596951384549922e+00 -1.4777502317248731e-01
      1.7396194599665046e-01 1.7241955495707545e-01
      -8.6393291134662736e-02 7.4337737752746949e-02
      -8.4554585707842286e-02 9.8084373929504629e-02
      9.2165866403985511e-02 -1.1925766613591823e-01
      1.2600061362359957e-01 -1.5746117972607723e-01
      1.3823428664537912e-01 -1.0297072008612000e-01
      1.5124575202802390e-01 2.5855088613417704e-01
      1.4258963211848681e+00 -1.5888879342896858e-01
      1.3981632331200669e-01 1.0744902282208647e-01
      -8.5873191035171659e-02 5.0815317423287341e-02
      -2.3420036982002880e-02 6.7630161983937273e-02
      6.9152738953468296e-02 -2.2008740441884025e-01
      1.0505354641046197e-01 -2.1984077961441353e-01
      1.5701126634327414e-01 -8.1666251421267794e-02
      1.1011772497691769e-01 2.4925397892566323e-01
      1.4942169354225747e+00 -1.2950458830789929e-01
      1.4010260075474323e-01 1.5726176749906687e-01
      -9.6250251035665008e-02 5.0463045235171970e-02
      -7.6074893171549668e-02 8.1761783488011344e-02
      7.0639236367514763e-02 -1.6519732318174873e-01
      8.8275777367862407e-02 -1.9170218767335737e-01
      1.0258446632271334e-01 -7.6355695932584025e-02
      1.2198113751731487e-01 2.1827054841880869e-01
      1.4021788888270783e+00 -1.2421154594248697e-01
      1.1866724368058383e-01 1.0903671824072762e-01
      -8.4846208207567789e-02 4.4286401397744583e-02
      -5.3305061006608111e-02 6.5155936189304681e-02
      5.9162618908659509e-02 -1.6812315684018683e-01
      8.1319794917473570e-02 -2.1314491836129001e-01
      1.2930145772204896e-01 -7.6333465603067127e-02
      8.8853176563659861e-02 2.0070196814355751e-01
      3.6126535121085523e-01 1.5145153726504540e-01
      7.6178097297720265e-02 1.4242380354595249e-01
      3.3677429454923503e-02 1.6304753495718646e-01
      -2.7756433051293894e-01 -1.5820005204480129e-02
      9.3205093762915067e-02 2.7225855087342754e-01
      1.0797570525263055e-01 2.3150340509136813e-01
      -1.3641309893945119e-01 3.3188381364266530e-02
      4.7676666462209367e-02 -3.5309984334723564e-02
      1.0592705599120607e-01 2.0943230673555974e-01
      5.0505817027614447e-02 1.9196555142130156e-01
      1.0622337451596356e-01 1.5203695298978756e-01
      -3.5060042830577015e-01 -6.7030243143042220e-02
      7.8526301491807365e-02 3.1905095303504794e-01
      8.5404410500705019e-02 2.8639656911192235e-01
      -1.7016954379866184e-01 9.1868039385904737e-02
      4.3991243375700935e-02 1.4675968079392400e-02
      -2.2777429085452119e-01 -7.0371229802817459e-02
      5.4540888782913841e-02 -3.1663964793794339e-02
      4.1530666986622715e-02 7.6919834273191254e-02
      8.6256727712546929e-02 -3.0619103748238844e-02
      4.2215612283067624e-02 -5.0582386341388216e-02
      6.4713714696816776e-02 2.8933558060483165e-02
      1.1219579464482057e-01 3.4644557599919169e-02
      3.7002341856120627e-02 2.9273974043233375e-01
      -4.8466130390730328e-01 -2.4900650981304390e-01
      7.2290426888660164e-02 -2.6002669420752367e-01
      -5.4408229940687815e-02 -4.5391394671234417e-02
      3.7226279724569272e-01 3.6079926027709652e-02
      -1.8433350917637044e-02 -3.2088745129963175e-01
      -1.3950612827208463e-02 -2.0100458784277123e-01
      3.1053606990509869e-01 -3.7822457391713457e-02
      5.9156945934751556e-02 4.4939723317731123e-01
      -9.6280842135082878e-01 -2.0343813396078150e-01
      8.6850765263481108e-02 -4.3918281696166528e-01
      -1.3851576792735384e-01 -1.5406253484874186e-01
      3.5812017424840864e-01 1.2378550537072411e-01
      -1.1405855861651143e-01 -3.4839850536915051e-01
      -8.7019380931677270e-02 -2.8396997202883900e-01
      3.2678986448858482e-01 -1.3421748369096195e-01
      9.9893183310718281e-02 3.5357456664458781e-01
      -1.6781437514197577e+00 -3.0767432306226195e-01
      7.8716528238016059e-02 -6.4783049632457212e-01
      -2.1072384948549738e-01 -1.9420356124829141e-01
      4.7355955413479195e-01 1.7243602525510521e-01
      -1.4628139184449987e-01 -4.7581497970473646e-01
      -1.2584050845764511e-01 -3.3183764240023911e-01
      3.7193679706776889e-01 -1.8552164516451200e-01
      1.0999646839032544e-01 2.9645226470477970e-01
      -1.0338433509397555e+00 -4.0755058954928719e-01
      1.3566321230489936e-01 -5.7147555642206771e-01
      -3.0340643427336023e-01 -1.5654418007230539e-01
      4.6322504105889289e-01 2.3591893044723714e-01
      -1.1227486401519890e-01 -5.6798465600423009e-01
      -8.0456414665819098e-02 -4.6011108710332105e-01
      4.4032265260917669e-01 -2.4078704198234288e-01
      1.5068496105504789e-01 3.3939126776763584e-01
      -6.6809603117399907e-01 -4.4085038856391334e-01
      1.7140475265556915e-01 -5.4294834860235663e-01
      -3.2760959187969269e-01 -1.2638847486129681e-01
      3.7566446014932781e-01 2.6163015684129515e-01
      -6.1334727836367071e-02 -5.5064664940685570e-01
      -3.4079580652334962e-02 -4.9638663184246856e-01
      4.2942680721533916e-01 -2.6346571680279007e-01
      1.7878809167653759e-01 3.4932337041293221e-01
      -6.5764688884187383e-01 -4.8169365959859456e-01
      1.5984109535304761e-01 -6.2628140296051393e-01
      -3.2092042316331187e-01 -1.6782890536835376e-01
      3.8429407480111316e-01 2.5381299909946087e-01
      -7.4665170616839874e-02 -5.1732750489861601e-01
      -5.4884144560112272e-02 -4.6889888648327382e-01
      4.2084293556820246e-01 -2.4730164293381143e-01
      1.7058664531149853e-01 3.7789638740967180e-01
      -4.7973612511995067e-01 -3.1679560749654806e-01
      1.4852642083702125e-01 -3.7808032571081712e-01
      -2.1521904160308969e-01 -1.5126003709970728e-01
      1.2653072317533937e-01 1.8159951512092640e-01
      -5.3374821026497821e-02 -2.5229987837352846e-01
      -3.5780587667164472e-02 -2.3463546824372208e-01
      2.4373475246432716e-01 -1.8155217304462726e-01
      1.5790265962515154e-01 2.4227140408120978e-01
      -9.9605927086580906e-02 -1.5301742814182670e-01
      1.0982316151152458e-01 -6.1152922498548611e-02
      -8.7813658663349281e-02 -7.0853442869881642e-02
      -8.9716422638416241e-02 9.7432142919249717e-02
      -3.0313758346589309e-02 -2.7862347000910438e-02
      -1.2534149917703746e-02 8.9758444354831827e-03
      1.9318655059385861e-02 -1.0055805648488438e-01
      1.0704869555729248e-01 5.5631906803208682e-02
      4.3914028250236636e-01 -4.5072607627806016e-03
      8.3393869892731814e-02 1.6414029191602833e-01
      -4.9974296424044246e-02 4.1820738040870865e-03
      -1.3626816920075491e-01 4.4172472226808951e-02
      8.4514113252974320e-03 -1.1835553175599107e-02
      2.5673744186970410e-02 3.0001091277976170e-02
      -2.0940033577404100e-02 -4.6794183509281516e-02
      6.5128123280000533e-02 -3.4672217858737295e-02
      1.1898585244421043e+00 1.1113967094712741e-01
      9.9296989869124386e-02 3.9174299293820369e-01
      -2.6831906190264057e-02 9.5667859489137946e-02
      -2.5634717472249063e-01 2.6605808403153450e-02
      7.1170420982533789e-02 1.0037067256769597e-01
      9.1320498257764324e-02 7.3815991747693030e-02
      -9.0519978040689078e-02 -2.4723475607213424e-02
      7.9248330876771161e-02 -6.5241478301559325e-02
      1.5828866518625673e+00 3.0549149337006299e-02
      1.0860065227913557e-01 4.4138928465265809e-01
      -6.2584810322740547e-02 1.2532906336625360e-01
      -2.4917557615318778e-01 3.1680461321267075e-02
      9.4021495039320446e-02 9.9498092150543629e-02
      1.1709250019930798e-01 1.7798884668211255e-02
      -6.1921303144260025e-02 -3.7406629979426780e-02
      9.2269161688539034e-02 2.7169193414256711e-03
      1.6179211429777167e+00 -1.2437783282674258e-02
      1.0781927433054017e-01 3.9249691180238644e-01
      -7.3510796296555408e-02 1.1078998914607568e-01
      -2.3764049007498694e-01 5.5251144914278606e-02
      9.7806185158893652e-02 8.0794231630036184e-02
      1.0728035627206532e-01 4.5707233753566577e-03
      -3.8654104918416532e-02 -5.9091894105716553e-02
      9.1916145379495773e-02 4.3977133901310854e-02
      9.4957423183608580e-01 4.0692179960991316e-02
      1.2727070522243550e-01 3.7232666592987435e-01
      2.7934934247603533e-02 3.2589304432325550e-01
      -1.1882888471407309e-01 1.7556533737632645e-02
      2.2085789199043071e-01 2.5895583288651508e-01
      2.2237082670865502e-01 2.1662993955082352e-01
      -3.6992850607331443e-02 -2.3188364878037040e-03
      1.1243634081095526e-01 1.3071762904583772e-01
      8.1040163455120173e-01 8.8096444042544117e-02
      1.2183714815532432e-01 4.1349730962282810e-01
      6.5519832687776988e-02 2.9075409950538528e-01
      -2.3012375651250683e-01 -3.3651650283559389e-02
      1.9005250853526268e-01 3.2195822732015278e-01
      2.0824107801981834e-01 2.7351351352783770e-01
      -1.4434337442902442e-01 4.1645670051280587e-02
      9.8148428703211360e-02 9.5403416680014189e-02
      2.3383837296865531e-01 2.4348655162901002e-02
      9.4763037530925284e-02 1.9397351767966967e-01
      3.2713068600444812e-03 1.2590652922751761e-01
      -6.5178695117019875e-02 9.7554573619665682e-03
      7.8653510725562051e-02 8.6404929818161405e-02
      8.4600120612126087e-02 9.1658628908708698e-02
      -3.8153941668710618e-02 -1.9990999102774357e-02
      8.4727099095375569e-02 1.4900415366176739e-01
      -6.8202214055465182e-01 -3.3079295741770759e-01
      1.5167083844182680e-01 -4.6425202694092921e-01
      -2.3364682624663910e-01 -9.5835526008300184e-02
      4.1332528481075309e-01 1.9429890797340005e-01
      -4.1672328973694758e-02 -3.7064066397233153e-01
      -2.3250156950421891e-02 -3.1226649710091853e-01
      4.0161482284787076e-01 -2.1121112895288716e-01
      1.5516052275185516e-01 4.1943313613998873e-01
      -1.2061512664877845e+00 -3.6701015162236905e-01
      1.2950228610758302e-01 -5.1160084214744206e-01
      -2.5605992901512598e-01 -1.6916218986013046e-01
      4.8865787710061981e-01 2.1722235918578442e-01
      -9.9398264741292985e-02 -3.5670574676099942e-01
      -7.8391881936405408e-02 -2.4386050331803269e-01
      4.2861131268635011e-01 -2.3980580979299193e-01
      1.4904860210211879e-01 4.1302714098534327e-01
      -1.3566223729423588e+00 -3.4064975367916994e-01
      8.4956900394002791e-02 -4.8239222346533422e-01
      -2.4575969993906788e-01 -1.6868485531810354e-01
      4.8307440265622065e-01 1.8642621367772810e-01
      -1.3424504306881652e-01 -3.6769335993958480e-01
      -1.0100942942533404e-01 -1.9260882737396084e-01
      3.8258611945675108e-01 -2.1513387871144962e-01
      1.0671221927690150e-01 3.3145133683129868e-01
      -3.2608561342886461e-01 -2.1536428772817764e-01
      1.1354313573247862e-01 -1.2584115881439772e-01
      -2.3949687805741712e-01 -5.2514749157724930e-02
      1.4882635105994288e-01 1.9605706837042475e-01
      -6.4455036676868319e-02 -1.7440500302917572e-01
      -3.4045696265546252e-02 -1.6031457411824124e-01
      2.0685459408322004e-01 -2.1183113506410134e-01
      1.3901761589242723e-01 2.0316259863716307e-01
      2.6454602521585674e-01 -1.4348823316715426e-01
      1.7267691946042690e-01 4.8583279018873451e-02
      -2.4637504898356832e-01 1.3219782408933518e-02
      -8.5768581970621247e-02 2.1456235935028001e-01
      1.6366966632077859e-02 -7.0755469054599784e-02
      2.9639829647378994e-02 -1.6737558706011826e-01
      7.9525707882300539e-02 -2.3161497916008963e-01
      1.9379300543066000e-01 1.2324907196953150e-01
      1.3159731232081928e-01 -2.8475242514585530e-01
      1.9899188251753247e-01 -1.6461390140686727e-01
      -3.2433125790118217e-01 -2.7219621687012571e-02
      1.3195791849195515e-01 2.5399519317398317e-01
      8.9599888621009413e-03 -2.5144845408281952e-01
      3.3696481885538185e-02 -3.2332115632646680e-01
      2.3642641653406557e-01 -2.7382638684471911e-01
      2.0677185151857580e-01 1.9342189406322732e-01
      -4.2111396972486664e-01 -4.9209486874175518e-01
      1.8189652241407367e-01 -4.8894086600683173e-01
      -3.0616938225592727e-01 -9.7486104910270807e-02
      3.9555213519317511e-01 2.5493378879211021e-01
      -9.8892581052905330e-03 -3.6511478326634750e-01
      8.6838764250712630e-03 -3.5613856646348724e-01
      3.4328072992645664e-01 -2.5996213437502047e-01
      1.8460826574520639e-01 3.1857606560825769e-01
      -4.2087355916762181e-01 -4.7520737640212818e-01
      1.6243131228115854e-01 -5.2032577239111877e-01
      -2.8025365990509760e-01 -1.2864576330571839e-01
      3.5705464974441886e-01 2.3221616899654876e-01
      -1.9651056975736880e-02 -3.0339618883592517e-01
      -1.6963881678356255e-03 -3.2978827463632537e-01
      3.5083835529188928e-01 -2.4728286450013245e-01
      1.7332584809714763e-01 2.5810954786081430e-01
      -2.5566640484447312e-01 -3.3039342565714297e-01
      1.3578985110571545e-01 -4.1094446107222027e-01
      -2.5081820524869863e-01 -8.4346094448746647e-02
      2.8287526645818034e-01 1.9102562688876454e-01
      -2.3627307659146352e-02 -2.2904514149546429e-01
      5.1463422314750908e-03 -2.7290125518522440e-01
      2.9641617655633096e-01 -1.9327528839543962e-01
      1.4389093517908899e-01 1.1896179311440123e-01
      2.4908944589780160e-01 -5.8081518190225535e-02
      8.8156718249609162e-02 -3.1362989731650442e-02
      -9.6591693020558270e-02 5.8120641070368746e-02
      3.6188297314212622e-02 7.8409609039759479e-02
      4.3143211735242409e-02 -1.6264686380622546e-03
      6.0802696578242083e-02 7.2649065938500393e-03
      5.4696314098336717e-02 -9.4295168745588853e-02
      7.2479345731836772e-02 -1.1725408591019615e-01
      1.4202985410884328e+00 1.3160862949721094e-01
      9.7996060144369790e-02 4.8029264189192911e-01
      -6.6639675761527668e-03 2.0726888922152900e-01
      -3.5826023780695687e-01 2.9025741852919139e-02
      1.6718873597553799e-01 3.9268648789153032e-01
      1.7055431589775058e-01 3.2186959542236065e-01
      -2.2809415874927066e-01 -3.7700710037282384e-02
      8.9774675185581895e-02 -2.2187897448263644e-01
      1.9263831083118559e+00 1.6982559424983817e-01
      1.2301290581744299e-01 6.9317385396147191e-01
      5.4734655849580866e-03 2.6402458143693247e-01
      -5.3447323137147806e-01 3.1736426227696034e-02
      2.1342512931493016e-01 5.5359051701502826e-01
      2.3001441063511852e-01 4.2877919160268574e-01
      -3.7933110935628778e-01 -4.3435859708099704e-02
      1.1545951351736915e-01 -2.3740584110895696e-01
      1.2491942955328278e-01 3.1022052379335685e-01
      4.0464208034514837e-02 5.8863927760224188e-01
      2.3249604244070027e-01 3.1920873097106484e-01
      -4.6872869704447545e-01 -1.3564757817856982e-01
      2.1284519067930571e-01 5.7112929003765145e-01
      1.9473826419450335e-01 6.6427685322300800e-01
      -4.8230308814915385e-01 1.5281822436666459e-01
      2.8645132046772126e-03 -2.1755057172542588e-01
      -2.2967251260223873e-01 2.4081112428801721e-01
      2.5521643858726708e-02 4.1814291488260852e-01
      1.8703950364196875e-01 2.0321097534088520e-01
      -3.5922547085177170e-01 -1.1885119931729887e-01
      1.3109879465472335e-01 3.4784432595678205e-01
      1.2151836423042019e-01 4.5932337137697293e-01
      -4.1404992561169462e-01 1.3698571804405385e-01
      1.4183776094575591e-02 -1.9321994893787225e-01
      -9.1807722189382468e-01 -2.2414534502576020e-01
      1.0211787107897988e-01 -2.6798612346361916e-01
      -1.2214466208326455e-01 -1.7081769139570005e-02
      2.4460089139747612e-01 1.0087660568460041e-01
      7.6324949697087578e-03 -2.2909957807820100e-01
      1.0840772558374958e-02 -1.0368875623398635e-01
      1.9955381428722574e-01 -9.2744861336242837e-02
      1.1131033556819059e-01 2.1470578992662648e-01
      -1.3896007818077483e+00 -3.2477383170443974e-01
      1.1139500963333072e-01 -5.7084994181653381e-01
      -1.9628430486127613e-01 -1.6613696856992685e-01
      4.5090353868446609e-01 1.7818997865774752e-01
      -7.1027629780191406e-02 -2.7924673321003979e-01
      -6.5155672693224323e-02 -1.6057013869189432e-01
      3.8758326115830871e-01 -1.9453896714489741e-01
      1.3907335724246345e-01 3.6638932649505240e-01
      -1.6872617984693330e+00 -2.3986623055615519e-01
      1.9680034521316715e-02 -4.7742568045329314e-01
      -1.6014967833276825e-01 -2.3597745875772547e-01
      3.4307155307528342e-01 1.3422490478958748e-01
      -1.5685801666128368e-01 -1.6732383601425457e-01
      -1.5340665316584207e-01 -1.9394888584011383e-02
      2.9617176357870378e-01 -1.3730875542330148e-01
      5.6231173023866834e-02 2.7480036469166957e-01
      -1.1114005269218774e+00 -2.1962169700902504e-01
      4.0360702086902678e-02 -3.6509975654338334e-01
      -1.8654963542121608e-01 -1.5391557320245944e-01
      3.4580327647793452e-01 1.3639772376057105e-01
      -1.2533770400114722e-01 -2.5254597658376821e-01
      -1.0926355702264412e-01 -1.2624372354520949e-01
      2.8122801506375378e-01 -1.7264964662265309e-01
      6.0491523256530816e-02 2.2718193805954359e-01
      1.2987047605264774e-02 -2.7583036527139157e-02
      1.1600619189466635e-01 1.1393112505752817e-01
      -1.6022518953050774e-01 2.2736779038799781e-02
      -1.4168639923738321e-01 1.4137022191434981e-01
      -5.7008618451655202e-04 4.9636217320456824e-02
      1.1764825120812814e-02 -1.0072977840753306e-02
      -3.6791969915873329e-02 -1.6203681232695757e-01
      1.3968648490558455e-01 1.7086271993907456e-02
      2.9286331874503341e-01 -1.6216832175172214e-02
      1.6440139445826374e-01 1.8128041105585863e-01
      -1.9221164114554945e-01 4.7800939093469462e-02
      -2.1755228274013794e-01 1.7825635077905461e-01
      2.4494824720416530e-02 8.7207320797460006e-02
      5.0735317861628333e-02 -5.1866764446745046e-02
      -4.5976617894713988e-02 -1.9370120964552062e-01
      1.6312797507064980e-01 -3.1036602148630525e-03
      4.7831117978933607e-02 -1.0589771238314682e-01
      1.8114027186968709e-01 4.8186223406139199e-02
      -2.2937323613129806e-01 2.4373732741515358e-02
      -5.6458407518400582e-02 2.2309770658123732e-01
      3.7321986820483148e-02 4.8549510531310403e-02
      6.6843757960947006e-02 -1.1158483262510162e-01
      3.3951013330007579e-02 -2.3064461796239899e-01
      1.9564959692069661e-01 5.3568869561828610e-02
      -5.2355771501319703e-01 -3.3241380766654449e-01
      1.6066314611304988e-01 -2.8757547328383593e-01
      -2.7020731369010509e-01 -5.1535004965990214e-02
      3.0834598996602475e-01 2.2484572989092058e-01
      -3.4353534327948034e-03 -1.7874630133617550e-01
      2.2416544746839438e-02 -2.4148266532434495e-01
      2.4595577954473680e-01 -2.4097625671965736e-01
      1.7972604951475363e-01 1.8915019438848862e-01
      -8.4478117151677345e-01 -5.4470342356190959e-01
      1.2540722481146374e-01 -5.3065091088567984e-01
      -2.5983306294249237e-01 -9.5328535756160598e-02
      5.3067362274846097e-01 2.1865696771349363e-01
      -2.2055296267009757e-02 -3.5741691401877329e-01
      -4.5687825590923284e-03 -2.8985066292498229e-01
      3.4607316057834336e-01 -2.2805596292981276e-01
      1.3896753574768483e-01 3.1067049468679109e-01
      -6.2626641039401643e-01 -3.7479156030416155e-01
      9.9609238312662482e-02 -3.6152643486735597e-01
      -1.8874416630452989e-01 -7.7168499056809239e-02
      3.7330966649225011e-01 1.4836603875844320e-01
      -2.3270299859419374e-02 -1.9989019861516036e-01
      -1.1203803228092939e-02 -1.8877965875548036e-01
      1.8400964142065446e-01 -1.5145781954978590e-01
      9.5792209010443510e-02 1.4893916084869072e-01
      -2.0937933944146900e-01 -2.3149489866095657e-01
      9.0537258880691474e-02 -2.4022798334908285e-01
      -1.4518716266427339e-01 -1.9529324722631931e-03
      1.7501531231586082e-01 1.3474527632860342e-01
      1.2345815032488007e-02 -2.9463839743140031e-02
      3.7405819003299021e-02 -7.3111979728367874e-02
      7.1747788432575871e-02 -1.3467705732906249e-01
      9.1397196904692099e-02 6.5297879985518850e-02
      6.3411440028737209e-01 -1.4522976988446012e-01
      1.1409407465351436e-01 8.6585010473788013e-02
      -1.2284920971791817e-01 1.2369909890313109e-01
      1.1730806916224025e-02 9.8745806475169284e-02
      1.3852687098721161e-01 3.1455132175842546e-02
      1.4141687099325492e-01 -4.4883406910492286e-02
      3.0374942629876465e-02 -1.0939646751497570e-01
      1.0792916860777521e-01 5.0254348581046750e-02
      1.4983143091646711e+00 6.3620299349527161e-04
      1.5953784565967449e-01 4.7675551245549774e-01
      -8.5816499971127766e-02 2.3822389981206918e-01
      -3.6667049108672733e-01 8.6191978699938165e-02
      2.3735097106269790e-01 3.3505249328651632e-01
      2.4511460402725652e-01 1.5683569409356152e-01
      -2.2322935743506050e-01 -8.5421265965077459e-02
      1.3264882616495596e-01 -4.2855042628871499e-02
      -7.3939530377341744e-01 4.2865109999046686e-01
      -5.7740954595039924e-02 6.0811732670506891e-01
      2.8557022151835032e-01 1.9216952780318133e-01
      -5.1892274411143013e-01 -2.1086441973284586e-01
      1.0747565618320798e-01 4.9590916528016354e-01
      1.0651636535171301e-01 7.5424668616674095e-01
      -6.5350657624372488e-01 2.1767843469446532e-01
      -8.6348746057197459e-02 -3.7220735896028934e-01
      -1.1191906231893360e+00 5.7571677215616485e-02
      2.3638663572680692e-02 6.1206915086668374e-02
      4.0903388886367728e-02 7.4298209042337096e-02
      -2.7555607490129964e-02 -2.5094762833663960e-02
      4.0850043712901747e-02 -4.8682654485152563e-02
      4.5301581539203321e-02 1.8496950334844955e-01
      -1.6177854722087565e-01 3.6293131100739638e-02
      5.0703760664281942e-03 -6.9387190422370071e-02
      -1.6362293284641571e+00 -2.6735519007035341e-01
      8.0685058937799314e-02 -4.9754651117795845e-01
      -1.6767016930992087e-01 -1.3166198701461418e-01
      3.8080819299350133e-01 1.5287041141933785e-01
      -5.1852905135586977e-02 -3.0329864817810193e-01
      -5.2204681830388060e-02 -1.2261580230528250e-01
      2.4531900656749919e-01 -1.3716967414161996e-01
      9.5233787230267999e-02 2.1904783864469618e-01
      -1.9457738987620321e+00 -2.8925737010808017e-01
      3.8793571321947426e-02 -6.2147599500697503e-01
      -1.7170578720605570e-01 -2.2518691035816712e-01
      4.7836097534247707e-01 1.4390554240413561e-01
      -1.3247620046962683e-01 -3.0506738074877626e-01
      -1.1774778355995649e-01 -1.2005434896541015e-01
      3.0008528037531768e-01 -1.4551383753918723e-01
      6.1541822502516483e-02 2.4038204806962851e-01
      -1.7963045953750985e+00 -1.7857136900421769e-01
      -3.2725767379188451e-03 -4.4139859328568498e-01
      -1.1257866364358356e-01 -1.7757701484845351e-01
      3.5941266169870123e-01 9.6634140327894524e-02
      -1.2994556961237266e-01 -2.4298868638336077e-01
      -1.2240185972631805e-01 -1.0958564215807256e-02
      1.9417963445313449e-01 -1.0302415494836095e-01
      2.4590022140555168e-02 1.7720209376014459e-01
      -1.0671126582156614e+00 -1.4361503095259542e-01
      2.8325020736030979e-02 -1.6081236248931235e-01
      -8.2983443733017373e-02 -7.5733762570797461e-02
      2.0253194018398635e-01 8.0492494156335900e-02
      -5.3410652882475533e-02 -1.8704819966211536e-01
      -5.6595800683138450e-02 -2.1670926508931290e-02
      1.1372334081530257e-01 -7.6130452121689854e-02
      3.2331270091490942e-02 9.8268612418829851e-02
      -3.0128450404237417e-01 -8.4353793494184579e-02
      8.5138172220720926e-02 8.9141895629358897e-02
      -7.4167020064286729e-02 2.6023518328661767e-02
      -5.8845012411862727e-02 8.9204954141299517e-02
      1.3051730236988785e-02 -1.5095724084761387e-02
      3.3959685392710957e-02 3.0883820493249798e-02
      -6.8009108103891047e-02 -8.0079691634485292e-02
      7.7077551795095303e-02 4.4750023903079262e-03
      -3.8310430360686926e-01 -1.2935149935780754e-01
      9.3259643163331199e-02 -1.6071259667573376e-02
      -9.9716168330727689e-02 4.3280651461200595e-03
      5.3950187876526265e-02 8.8824734344288753e-02
      8.5647167154472795e-03 -6.3399987254985996e-02
      3.2799981647385186e-02 -5.7392680696625453e-02
      4.5309988563696675e-03 -1.0169298962322017e-01
      8.3568424224162191e-02 5.2229030774254934e-02
      -5.1654652286135505e-01 -3.6462920241301641e-02
      1.1544144296526201e-01 9.9864995877362722e-02
      -9.7998244251865804e-02 5.3311975289692219e-02
      1.8444215304143672e-02 1.1227620631690113e-01
      3.7285034745886694e-02 8.7756277326829252e-02
      6.1171840973795723e-02 6.2803360371086664e-02
      -1.0271331036285439e-01 -1.1025383637971717e-01
      1.1581465444373007e-01 -3.4465796903146009e-02
      -5.9682357934856745e-01 -1.1788471887406499e-01
      1.0578302010003235e-01 1.6288270193276718e-02
      -1.3211857834167037e-01 5.4567316560402382e-02
      1.0098970972073659e-01 1.3418029652757973e-01
      5.6180885548414009e-02 8.5708250801048338e-02
      6.4095753504087929e-02 9.4578601393176448e-02
      -6.6954879957174987e-02 -1.4671250573288486e-01
      1.2504922161945367e-01 -2.5016711989647149e-02
      -7.8732114928773667e-01 -1.9317955117007085e-01
      9.1625648443962010e-02 -1.5788765447772196e-01
      -1.4482850367631386e-01 2.0043100390706708e-02
      1.9480524071053767e-01 1.2769126586123769e-01
      3.7421490099335764e-02 3.2440085025970247e-02
      4.1410430877435282e-02 4.2522973057626520e-02
      -4.9962429213405296e-03 -1.5190028095167502e-01
      1.1118945662872712e-01 1.4569827640205044e-02
      -7.0471041314932503e-01 -2.4945734683378132e-01
      5.0866938636559306e-02 -2.2712844170306698e-01
      -1.2412193755556303e-01 -7.8970610618623056e-03
      2.1289741817305902e-01 8.5467593581064302e-02
      1.3443642276928706e-02 1.7459570897822971e-03
      1.2745538798422999e-02 3.9501100920909228e-02
      -3.0413296385821839e-02 -1.0403115514241185e-01
      5.6974126900488184e-02 5.0412788970903552e-02
      -3.9108040182911565e-02 -7.8879386570794838e-02
      8.0900261867247455e-02 6.5586753163129202e-02
      -4.1505177322612816e-02 7.1943053059694909e-02
      -1.5217922599166898e-02 7.0877577520013779e-02
      6.7713239622807064e-02 2.6018961993689521e-01
      5.8256502074594395e-02 2.1777500921368986e-01
      -1.2663700033339564e-01 -7.5750257394371509e-02
      6.7168834509470518e-02 -1.5534653048776870e-02
      3.7208839469386618e-01 -3.1075161644212208e-03
      1.0924876359701792e-01 3.9895997677612559e-02
      -5.1745704352342867e-02 1.3085864873255060e-01
      -9.5034442227016208e-02 7.0895556350106720e-02
      1.1007617123892278e-01 2.7874265999456799e-01
      1.3285218408737368e-01 1.8893722328660523e-01
      -1.3097249636630826e-01 -7.7462456303856952e-02
      1.0263550888760170e-01 -5.4610035942266613e-02
      9.4287743212362340e-01 8.9533323012325305e-02
      1.1894300400792843e-01 4.9108119614010265e-01
      9.5078619841623916e-03 2.4367039788580250e-01
      -4.2595063251118498e-01 3.0737313483352326e-02
      2.0434800460663882e-01 4.3798268133596918e-01
      2.1696500470835595e-01 3.0302525869513286e-01
      -3.6550494728760557e-01 -3.7454226904870103e-02
      1.1200019344688801e-01 -1.9448776896417361e-01
      -3.7272715779406906e-01 4.2266945631673386e-01
      -4.7681140634273617e-02 5.8199200663025874e-01
      2.7186179122298010e-01 1.1051148753628574e-01
      -6.7336661827196265e-01 -1.8177320305186173e-01
      5.1891908624233256e-02 6.2592582387335260e-01
      5.3833598901242417e-02 8.1410948179112841e-01
      -5.9832029070557036e-01 1.9964389845880606e-01
      -7.9431085454336414e-02 -3.5179146214040774e-01
      -9.8206349604490517e-01 -1.4841100753266792e-01
      5.5665719913999101e-02 -2.0971899146131512e-01
      -8.5604409276850368e-02 -3.0827810919371677e-02
      2.0848317854526102e-01 6.2031342591800979e-02
      -8.1163356413725060e-03 -2.5993087652101404e-01
      -4.4610732333386725e-03 -5.9341629020758617e-02
      1.0123402148897924e-01 -5.2494111939823077e-02
      5.0016219284246599e-02 1.7694699453176327e-01
      -1.7338592540102515e+00 -2.7740968446529235e-01
      6.0940268236882734e-02 -6.0948215957522889e-01
      -2.2582676681895353e-01 -1.8433554075393235e-01
      5.1257675122937851e-01 1.5703580191533634e-01
      -9.6104192709938807e-02 -4.0648068718242258e-01
      -8.4442963301188195e-02 -2.3581131913513351e-01
      2.9860031888843025e-01 -1.5684400023974096e-01
      6.6555659441256479e-02 2.2996324647717611e-01
      -1.8022689132257426e+00 -7.6360480992815893e-02
      1.2183350394994345e-02 -3.9099264067910749e-01
      -9.7384226954779357e-02 -1.7062257453197169e-01
      3.0593940807627829e-01 1.0180234157024447e-01
      -1.1882592038629976e-01 -1.5539507700011826e-01
      -1.0573267955011151e-01 7.0293746571677288e-03
      8.4605324991228567e-02 -9.5039956064816314e-02
      4.2290805485639189e-02 2.3340397378264897e-02
      -1.7105376753189505e+00 -1.2064992504720298e-01
      -1.5181251343614768e-02 -3.0151006882069514e-01
      -4.6749329343521794e-02 -1.4002285818020357e-01
      3.0608903077247623e-01 4.3666627905675159e-02
      -1.1197045748816516e-01 -1.7606300647930900e-01
      -9.2294794109532993e-02 5.0936202883278991e-02
      9.6408081813879304e-02 -5.7473751525139970e-02
      1.7877116093465744e-02 7.7850370166248087e-02
      -1.2827230441336861e+00 -1.6986585332327858e-01
      8.7251811010633940e-03 -1.4306868877232282e-01
      -6.3838484901899237e-02 -7.3470727352152682e-02
      2.6985268565979287e-01 4.1272207671974939e-02
      -5.1153828162968276e-02 -1.9074344442718366e-01
      -3.3118345975314878e-02 -9.6253515743000492e-03
      9.9610777971232564e-02 -3.7079207366874770e-02
      -2.3423173193085362e-03 1.1467023957894133e-01
      -7.1239696741241720e-01 -2.6366852968478166e-01
      6.5078658077096452e-02 -1.8944044642147492e-02
      -8.4658343979994055e-02 1.5979676617558641e-02
      1.8606395854035465e-01 5.3066635290201086e-02
      2.9047247785497374e-02 -1.5991486036402758e-01
      3.9513880605033351e-02 -6.6595377429125302e-02
      4.3936948110323212e-02 -6.2025019480729401e-02
      4.5395589906345880e-02 1.3089157761532094e-01
      -7.9835629027321842e-01 -1.8258916048610133e-01
      3.7957312614075957e-02 5.0116206239128151e-03
      -6.3433152954669794e-02 9.5675580888842857e-03
      1.1837049004682060e-01 3.9042290240429434e-02
      5.4340108222107296e-03 -8.2037572987185045e-02
      2.2766727650891414e-02 -1.2798564845660157e-02
      -2.1068707793582022e-02 -4.1748305949189074e-02
      4.6908250857749648e-02 9.7227236486221613e-02
      -9.8281453994077483e-01 -1.2320071156145945e-01
      5.5661593897999531e-02 -1.3658852371517908e-02
      -5.2011808542101107e-02 3.3025521124060049e-02
      1.4754465665312802e-01 5.6686183862419977e-02
      4.3209280860546352e-02 -4.8326748744518385e-03
      4.9669154455691707e-02 3.6712799817106886e-02
      -6.3590382465935749e-02 -5.1885707789633168e-02
      6.1169067824121556e-02 8.0726873835638528e-03
      -9.8086257533382304e-01 -1.0478472885000742e-01
      5.8672386314817797e-02 4.7237037641311957e-02
      -4.7017078998298732e-02 5.9729837888613614e-02
      1.3738022543229167e-01 5.3022220073384967e-02
      4.5470409364665766e-02 4.3003095033374072e-02
      5.1355002871328714e-02 9.7943022153285875e-02
      -9.0494630875372836e-02 -6.3125060896539339e-02
      6.9736374462972428e-02 -2.0479092952167481e-02
      -1.0558551867765844e+00 -1.8139440446267915e-01
      4.6011146650246720e-02 -4.9131385741024144e-02
      -9.7582978719741087e-02 5.1559629470318322e-02
      2.0183793893571020e-01 6.5928130412697863e-02
      5.7753429616369048e-02 3.4185023655807917e-02
      3.4868780313447520e-02 5.6070507094915012e-02
      3.9511996976387990e-03 -8.9820445308752148e-02
      4.7880678381441034e-02 4.6723133482971246e-02
      -1.0920536355151433e+00 -3.4732864122885831e-01
      1.2747678742718972e-02 -2.6501033672956059e-01
      -1.3221381374056329e-01 -1.9449353551413882e-02
      3.5692706254276763e-01 7.4486360378714492e-02
      9.6402397992019788e-04 -1.0126219729271728e-01
      -7.1254519002358092e-03 -4.7571848331177571e-02
      1.2404612873653006e-01 -1.1026492978231738e-01
      3.6887184023214024e-02 1.7021003060323212e-01
      -4.7155566829161749e-01 -1.9456336374288530e-01
      5.4929360954875828e-02 2.7711035119246580e-02
      -5.7935402018574479e-02 4.4854022238679840e-02
      1.3178139309259765e-01 5.8158618449049487e-02
      5.6772960991917788e-02 1.4612473480598764e-01
      4.5887456269685913e-02 1.5096367185166806e-01
      -3.3228200910862316e-02 -6.8910342601709293e-02
      4.8375483901007724e-02 9.3816491747998082e-02
      1.7122800808166852e-01 -6.0747781020613609e-02
      1.0425335595559315e-01 -4.1501216806679293e-02
      -4.2504763194236218e-02 1.0089127253587811e-01
      1.6099077907733891e-02 5.9377345060731147e-02
      7.7234006936492197e-02 2.0226659854373066e-01
      9.5947766451033437e-02 1.6055916646319851e-01
      -3.6589055627275706e-02 -6.8905441956711819e-02
      9.2613156531396873e-02 2.0899446085166917e-02
      5.4017738770871015e-01 2.1278633019275658e-01
      8.1759713912294696e-02 3.1356516062062445e-01
      7.4647677555547493e-02 1.6630222658535174e-01
      -4.7395685536535692e-01 -1.8827177453016694e-02
      1.2660905036793971e-01 5.5933815406996557e-01
      1.1461302461383059e-01 3.8090641686473908e-01
      -3.9113146312652558e-01 2.0817191760827278e-02
      7.1065373360704273e-02 -2.8692039490542548e-01
      1.4419236883751699e-01 2.7681145004708474e-01
      -8.7564047911149780e-03 4.8264679463706406e-01
      1.5142898869937954e-01 4.8871866587885018e-02
      -4.6216124908292644e-01 -8.2559796901193500e-02
      1.9655305834567528e-02 5.2358029560747388e-01
      3.0233898617573703e-02 5.6982849579636763e-01
      -3.6378924176888983e-01 8.8685576489185430e-02
      -9.2479416557527689e-03 -1.5183332665528185e-01
      -7.1027474976733540e-01 -1.9832036151115118e-01
      8.3696525988975867e-02 -2.0667650260944431e-01
      -1.2531800338266999e-01 -9.3524742610426675e-02
      3.0257432168741727e-01 1.0372330663675416e-01
      -4.8906320201201753e-02 -2.4396663440359656e-01
      -2.6353786032547642e-02 -1.8087658481803690e-01
      2.2082025801518029e-01 -1.1419555122227165e-01
      7.4449643342669486e-02 2.6693208568190568e-01
      -1.8487283250533650e+00 -3.0839851263248935e-01
      4.4211477491130337e-02 -5.0464421014590477e-01
      -2.2172485373316766e-01 -1.9170625362385321e-01
      5.2448766137608738e-01 1.4979799334928587e-01
      -1.0665908119678805e-01 -4.5300452420517884e-01
      -1.0333393916718331e-01 -3.5548767769932427e-01
      3.1340965228177708e-01 -1.4864381384536327e-01
      4.2355275278098146e-02 2.2330332202370706e-01
      -1.5584409080663730e+00 5.3370343528755058e-03
      2.4152571728251210e-02 -1.1132412590088665e-01
      -7.3374537615984267e-02 -1.1621109914029100e-01
      1.3937705389937927e-01 6.6645930490853184e-02
      -6.4037201639353031e-02 -5.1923123659769532e-02
      -5.9072008257000035e-02 9.6367497513402782e-03
      -2.9716584368183304e-02 -6.0535559332360385e-02
      4.6262652472805796e-02 -7.4043439711576731e-02
      -1.4768157695474158e+00 -9.1984391682455494e-02
      2.3509214006524216e-02 -4.2938005562433247e-02
      -5.8534269807826084e-02 -1.0193854288530901e-01
      2.0538324085635615e-01 4.1745216752854891e-02
      -5.2755481545393355e-02 -7.2023357011890624e-02
      -6.1778246024632832e-02 -2.8332312829800442e-02
      8.4543963154536453e-02 -3.9807356345283283e-02
      2.5729066272096271e-02 3.4918427987107301e-02
      -1.2137147770278076e+00 -1.8021579909572680e-01
      3.2396578703512320e-02 3.4903854368707821e-03
      -5.5657161804685551e-02 -4.3946806071884156e-02
      1.7873211951430629e-01 3.5461599858615127e-02
      -2.3420085719276919e-02 -1.2762735255573451e-01
      -2.0584377144664618e-02 -7.7780805865916916e-02
      7.4608557282239155e-02 -2.1810960198168691e-02
      1.7042936766841144e-02 1.1663921736278883e-01
      -8.5193292630581463e-01 -7.0498618180121694e-02
      2.5213737025433031e-02 2.1777252046999390e-01
      4.0935997025986424e-04 5.7465734292838307e-02
      -1.3557523158549420e-01 -6.0932183306834095e-03
      2.3734658498323850e-02 7.2381114123867718e-02
      3.9546375733346704e-02 5.9034733720436126e-02
      -1.8347102787632882e-01 1.2249309753108192e-02
      1.0925799530807013e-02 -7.5309835089335878e-03
      -1.0949765714987096e+00 -1.4227066971267627e-01
      2.7418501232146366e-02 1.1771143601416384e-01
      -1.2535116150888892e-02 2.3944154028640252e-02
      -1.2824823077016420e-02 -3.3791389496989308e-04
      8.8319906252667373e-03 9.7997850246915232e-03
      1.8666275683447617e-02 5.8453703617931726e-03
      -1.1061389141805678e-01 -1.0451859376945035e-02
      2.1871790567409736e-02 7.4855746462562586e-02
      -1.3611223810510156e+00 -1.8398502883008827e-01
      6.3359670703168856e-03 2.6732133807257401e-02
      1.0205133497018517e-02 1.5663609997212048e-02
      1.0954034545084948e-01 5.0930611416151971e-04
      4.8507594590100796e-03 -2.4821080148233532e-02
      1.3030603841300803e-02 2.9490107713050391e-02
      -5.7513486555637483e-02 -4.3885342631820182e-03
      2.2088206728641105e-02 8.8137913535200951e-02
      -1.4551020671960879e+00 -8.7727505299221145e-02
      2.6744259100880543e-02 3.5088670417151892e-02
      4.5194375039815653e-02 3.3229889304737921e-02
      8.9801595936412459e-02 -5.2951961829722843e-03
      8.6238537372041978e-03 7.2198527031319029e-02
      2.1488367319875631e-02 1.2072295144336130e-01
      -9.1179058415682315e-02 1.6527182563022054e-02
      1.9538158937584024e-02 2.0023079151510473e-02
      -1.5322213600635444e+00 -2.0586015273947847e-01
      -9.2035681744205323e-03 -9.4681850467333017e-02
      -5.2659017873694317e-03 -1.4484334312950554e-02
      2.6666943169992868e-01 1.5138018536605997e-02
      -1.5019917734050415e-02 -9.3857207594338021e-02
      -2.5872584331248991e-02 -3.9937210786459079e-02
      5.0579826699557871e-02 -2.1671625087756177e-02
      -1.0941827369050062e-03 9.9854987644577398e-02
      -1.3921850259789983e+00 -3.0060618339860157e-01
      -2.2423353886637933e-02 -1.4156397679072041e-01
      -4.1709396201496454e-02 -7.3549407644786624e-02
      2.8714382383353432e-01 8.0582909588636335e-03
      -4.5871282923880582e-02 -1.2562125293184970e-01
      -5.3885291601179372e-02 -8.3612001164779057e-02
      1.1831545035986020e-01 -2.3053267246394081e-02
      -2.7660229641868719e-02 1.8210670200971626e-01
      -9.2191357609964208e-01 -3.2015443152981565e-01
      4.1892103959118247e-03 -6.8094702385324765e-02
      -4.5869530384408531e-02 -6.2116547449891577e-02
      1.9103413676867256e-01 2.0957426316916682e-02
      -1.2498352168478109e-02 -7.9040964864742727e-02
      -2.6418614199069709e-02 -5.2745098960423543e-02
      8.1183011693577417e-02 -2.6534707256975560e-02
      6.4789109729589669e-03 1.6883494960783371e-01
      -3.1179585799304310e-01 -3.6089543794354551e-01
      7.6441375034786041e-02 -3.1381595368231596e-01
      -8.2730112141834081e-02 -5.7311351668085236e-02
      3.0335046914348807e-01 6.9252314082118141e-02
      2.9228216098560952e-03 -1.2893422166368751e-01
      -6.6490224677365432e-03 -1.6920792818359651e-01
      2.2072388972922291e-01 -7.8035292711228513e-02
      7.3977301373444229e-02 3.0297396679343941e-01
      7.3576757556400182e-02 -1.6403501098420267e-01
      4.7963891094080745e-02 -1.4846727102169854e-01
      1.2530344433152561e-03 -2.1458182664373375e-02
      4.8442655935725587e-03 1.7492827585431490e-02
      -5.6899172654568363e-03 6.3695334883273017e-02
      -2.8212395055056006e-03 -7.9023251449553064e-02
      -7.9382033961444068e-03 -1.1627616618135850e-02
      4.1228004259491143e-02 1.3032099855088106e-01
      -5.5366121028476753e-02 2.4046337871139123e-01
      -3.8017102133715902e-03 5.4312248042585409e-01
      1.6327445602264173e-01 4.8445962674633636e-02
      -3.9411487197276113e-01 -9.0776150400913691e-02
      2.4526796997743848e-03 5.0433293759762499e-01
      2.3208012780971534e-02 4.7128073884497312e-01
      -3.9745264062425995e-01 9.4507366817511998e-02
      3.3919034773071026e-03 -2.3381525643981793e-01
      -1.3850437271146803e+00 -1.2286887972858655e-01
      -1.3315298600069879e-02 -3.0376153310314208e-02
      -1.2228162441762969e-02 -1.0215234763117072e-01
      2.3024386539787145e-01 8.4881370937994211e-03
      -9.2954725665905416e-02 -1.2357851777812644e-01
      -7.6108539440973386e-02 -9.2806950914236228e-02
      8.6426665804901215e-02 1.3595822049678279e-03
      3.8358308488125503e-03 4.2115764993425876e-02
      -2.0535913027940618e+00 -2.6451741680883051e-01
      1.5903710684528206e-02 -3.0450651717665378e-01
      -1.5445814549614262e-01 -1.6978608723831801e-01
      3.9412508617987202e-01 7.5529337251230136e-02
      -1.1181928728687285e-01 -3.7244944679010000e-01
      -9.8058865531182940e-02 -4.1765573812641088e-01
      2.4805160185167413e-01 -7.7488946640120931e-02
      1.3615918313721569e-02 1.1548148672971803e-01
      -1.8555511382756211e+00 -1.6565422171307742e-01
      1.2598086158265740e-02 -1.3267725946051179e-01
      -9.5399273844406066e-02 -1.3715745228345158e-01
      3.0095739376806069e-01 5.7464503676323733e-02
      -7.8744580508327167e-02 -2.3879506613433413e-01
      -7.7247615187274909e-02 -3.4936476080565082e-01
      1.7096471427396900e-01 -4.9317228983970743e-02
      2.4491125374513423e-02 5.2144388344198940e-02
      -1.7966321291881457e+00 -1.9167063686303099e-01
      -7.5949428779742128e-03 -5.7289243830998135e-02
      -4.3323921801721774e-02 -1.1330620511485220e-01
      3.0364734272769339e-01 -2.5162271290687199e-03
      -7.4136460097113735e-02 -1.7116152211721003e-01
      -7.0888365943020046e-02 -2.4641302069932625e-01
      1.6417778916360246e-01 4.1039565761135056e-03
      -1.2981460178591891e-02 7.2405677502161370e-02
      -1.3114301466133060e+00 -1.0296443491584058e-01
      2.8765591142951592e-03 1.7012293797114669e-01
      1.2184816908138472e-02 -1.5854378308783015e-02
      4.6056984090344907e-02 -2.8492424105721233e-02
      -4.2282661133931580e-02 -5.6979953790818244e-02
      -1.5981196805396985e-02 -9.8776736018064776e-02
      -2.7258459724526514e-02 3.1364349033215763e-02
      -1.2639485952976957e-02 1.6648708840620061e-02
      -1.1142483167716706e+00 7.1215948334365245e-02
      -1.6566649934402860e-02 3.8145764257807657e-01
      1.0212062474334123e-01 3.2027543666342327e-02
      -3.2437810902799863e-01 -8.0926194592521400e-02
      -1.2802566386122574e-02 1.8496502372951212e-01
      -7.6315560962944657e-03 1.3504762675421531e-01
      -3.3483834258119122e-01 9.1003784421789871e-02
      -2.2762152203694534e-02 -1.3178572791345861e-01
      -1.5638381245979944e+00 -2.2334864330566570e-02
      -5.5361326760138066e-02 1.3667345410159298e-01
      1.0599447424158295e-01 -2.3553773565227254e-02
      -1.6694860561748823e-01 -9.3590976871651563e-02
      -5.4436531031682681e-02 9.1902188724482026e-02
      -3.2084610239289844e-02 1.0109599794833204e-01
      -2.3190398224558270e-01 9.5808412492148734e-02
      -5.5745444950862900e-02 -1.8984972665107912e-02
      -1.8012487027532393e+00 -1.3680670660667463e-01
      -6.6510955665337990e-02 -6.4714109836699632e-02
      1.2701478644810826e-01 -5.7620160514194579e-02
      -1.6828463014926555e-02 -1.0315453507880949e-01
      -8.3605951119180247e-02 1.9735227850469633e-03
      -7.5057303018626759e-02 8.5678590156921933e-02
      -1.2964234768498434e-01 1.0230446417496421e-01
      -6.4494361629480121e-02 5.5627133100783072e-02
      -1.7662530015488720e+00 -1.1971342602124938e-01
      -3.2845181870872424e-02 -4.9349887647151820e-02
      1.4912685422239230e-01 -2.3769147705098435e-02
      -3.1880594335768685e-03 -8.7840449463013184e-02
      -5.1579656942535274e-02 5.5902999443208534e-02
      -3.3662387541210370e-02 1.2179154826933855e-01
      -1.3911673523328846e-01 9.6085680003332438e-02
      -3.4057929256208749e-02 6.5662378262958176e-02
      -1.6395468270977209e+00 -1.2568225721135418e-01
      -3.8474765591539950e-02 -7.8157033329770940e-03
      1.2818009218430523e-01 -4.9027464529958417e-02
      -3.1704021581725555e-04 -6.7523983885718758e-02
      -6.6637953019332383e-02 6.1335176432237980e-02
      -5.6186716035410027e-02 9.0632943599967819e-02
      -1.1907386087665128e-01 8.1626324714804160e-02
      -4.6788075426378604e-02 6.1313568608510297e-02
      -1.5045252823032857e+00 -2.5411517738994865e-01
      -2.1328482751632162e-02 -1.0772334111494777e-01
      1.6065871094614909e-02 -8.2537492589962541e-02
      1.8646057593368101e-01 -2.0219340808136196e-02
      -6.5962862316398488e-02 -1.6594213366301155e-01
      -7.1579975378354532e-02 -9.9128662372014550e-02
      8.6527773947367839e-02 1.7189243780387557e-02
      -2.6512929863164784e-02 2.0793884342302699e-01
      -1.0230190463690707e+00 -1.5608052498526032e-01
      -8.8967985129605152e-03 4.2971465545972323e-02
      1.6255738637676639e-02 -4.0135545498905592e-02
      2.4911468517737775e-02 -2.7811345439052421e-02
      -3.6942565302278255e-02 -4.4793738733484849e-02
      -3.6129698719712444e-02 -2.8317628126205068e-02
      3.4079844374010506e-04 2.0962552536414318e-02
      -1.0990665760299055e-02 1.3731910956087764e-01
      -4.2274456278108413e-01 -3.4166174121020443e-01
      5.3577000545102810e-02 -1.9516861556850762e-01
      -4.3133257967706305e-02 -7.9159936091278624e-02
      1.2437825125864696e-01 3.8675466271181111e-02
      -3.4183089902828784e-02 -1.4006661529165920e-01
      -3.3433978931925602e-02 -2.0608184880285743e-01
      1.4241668712622763e-01 -3.4829001630360512e-02
      5.1272638239092859e-02 2.9219179014087299e-01
      -4.6073216592902161e-01 -2.6008241169232282e-01
      -8.5890325321903421e-03 -2.3090231803483394e-01
      -3.5875516188854611e-03 -1.3865253162572858e-01
      1.7176792174858062e-02 -7.9383638396737146e-03
      -1.0719433885003872e-01 -8.3810428880354462e-02
      -9.3910152994472834e-02 -2.2044675346669582e-01
      9.5226280735520516e-02 1.6980130285478592e-02
      -4.2035599976608853e-03 2.4080353653215528e-01
      -7.7963866742881693e-01 1.0423214002854143e-01
      -3.0107158932645060e-02 2.1611932249173821e-01
      1.3544250587121939e-01 -8.2791613905036143e-02
      -1.3863103602638058e-01 -9.0583779980191043e-02
      -9.1081660954897517e-02 2.7450742476634893e-01
      -6.9941279615007942e-02 2.3953572076517443e-01
      -2.0471139468973046e-01 9.4969469664242079e-02
      -3.8855321444416550e-02 -1.2236080457106929e-01
      -2.0856664893867913e+00 -7.2071115475490902e-02
      -7.7791533020448209e-02 3.8394299173405760e-03
      7.4538935830592568e-02 -1.3252651665103579e-01
      1.4490933812299095e-01 -7.5120124131344806e-02
      -1.2710874064071831e-01 -7.6963241147812569e-02
      -1.1635188800827813e-01 3.1549965768100721e-02
      -3.1810737558588209e-02 8.8432233218173076e-02
      -8.6121709927390114e-02 -1.4092006941003293e-01
      -2.1036239535031958e+00 -2.2132192234465800e-01
      -8.6304252694819235e-03 -2.5305059213439446e-01
      -5.9286267799947889e-02 -1.2397833327355187e-01
      2.5018055023236513e-01 5.5595086638789088e-03
      -9.0124931689863935e-02 -2.2941514331263366e-01
      -8.8996691216789242e-02 -2.9949281733833849e-01
      1.7883791334416640e-01 -1.8955054001398439e-02
      -2.1187653589908612e-02 4.3683520954739090e-02
      -1.9658440487069135e+00 -2.0038658225226419e-01
      -1.1358990423197473e-02 -1.1692986024577802e-01
      1.8105887626313971e-02 -9.4693398725977707e-02
      2.5248068371213667e-01 -2.2044582302143574e-02
      -5.4106642186107425e-02 -1.6817670169505677e-01
      -4.1548477722604442e-02 -2.7438616085282991e-01
      1.6281474421743664e-01 3.1244942589715441e-02
      -1.1547130321797867e-02 3.7587984770084203e-02
      -1.9563697775873334e+00 -1.9895353570315069e-01
      -4.0721657756214148e-02 4.0972494176647481e-03
      4.6129011364685689e-02 -5.6183404293941600e-02
      2.7149907415435193e-01 -6.3880732279361030e-02
      -6.4648148502887345e-02 -1.1563041077821813e-01
      -4.3204992687839915e-02 -1.3955046850734998e-01
      1.2329162513321754e-01 7.5899671151780507e-02
      -3.8203109462247142e-02 4.7387760260522244e-02
      -1.7154784662476175e+00 -1.7818173792700334e-01
      -4.5514437799833579e-02 7.7119800353091503e-02
      5.5321079927236907e-02 -2.6396624929603204e-02
      1.8250459569530150e-01 -7.3935381351334650e-02
      -5.4612987239468475e-02 -1.2026728309025898e-01
      -3.7433900513702184e-02 -8.7371847384562926e-02
      3.0183684964655212e-02 8.0726861170928324e-02
      -5.8163208567107189e-02 4.3702256133596906e-02
      -1.4567700976391087e+00 4.9700602076705814e-03
      -4.5392838084974352e-02 2.9276800101676020e-01
      1.3212375330367795e-01 1.2202780093128949e-02
      -1.6873690019136331e-01 -1.1394601750609086e-01
      -2.1923073916924808e-02 1.5659283250924727e-01
      -1.8833298799672080e-02 1.2570896539197224e-01
      -2.8786623685444701e-01 1.1380839238607861e-01
      -6.1141195761837408e-02 -1.4544470293882281e-01
      -1.6437444128858070e+00 2.1873389947826741e-02
      -6.9793389425048341e-02 1.7940447676293936e-01
      1.5393178844786251e-01 -2.0069442901348537e-02
      -1.8425582645077032e-01 -1.2658012994703893e-01
      -6.9969380453710026e-02 1.6092273430847320e-01
      -4.4215278016041949e-02 1.9253635272608677e-01
      -2.6947494793934085e-01 1.4190567972418877e-01
      -6.8412065978656608e-02 -1.0554452988635019e-01
      -1.8395470213584506e+00 3.5096339560045417e-02
      -8.9378784412987120e-02 3.4750899021683525e-02
      1.9818531955165819e-01 -4.1977529823348750e-02
      -2.1289496144145018e-01 -1.4833467108797160e-01
      -9.2802193300850030e-02 2.2270187402767183e-01
      -6.8612295152285813e-02 2.5619605335017553e-01
      -3.0886539071766494e-01 1.6022108073620692e-01
      -9.6064674868100539e-02 -9.7493885231120681e-02
      -1.7664939212817932e+00 -6.9500501767791781e-02
      -5.6477538497974725e-02 -2.3269141070733461e-02
      1.7573127824316861e-01 -2.4433887822389703e-02
      -1.4292798430633299e-01 -1.2728796198754716e-01
      -6.0859639853082494e-02 1.6067375648872353e-01
      -5.0844382406100327e-02 1.5992667981134240e-01
      -2.1431391628487456e-01 1.3904706130386718e-01
      -6.9715889415857421e-02 2.3782133293298480e-02
      -1.5684970442617598e+00 -9.0608973711896010e-02
      -2.8926836302115368e-02 -3.2644325102500107e-02
      1.6482547018111102e-01 -5.2504739118723531e-03
      -8.5651987402660834e-02 -1.1260044037857576e-01
      -3.8005849569723298e-02 9.4122562689354053e-02
      -2.9154201460162604e-02 1.1265815034099072e-01
      -1.9608085502125147e-01 1.1574894705545373e-01
      -4.7064611594675065e-02 4.3171251653289291e-02
      -1.4256621378011061e+00 -1.6321859585349610e-01
      -2.1565824062150400e-02 -5.1784102171317715e-02
      5.9151856352698866e-02 -2.8848091132910782e-02
      9.0742771809767878e-02 -4.9573173781970591e-02
      -4.6189730965545253e-02 -1.0915467270721291e-01
      -3.1428227989820541e-02 -2.2157368750050196e-02
      1.8589774513165843e-02 5.5170256201970226e-02
      -3.5171276979403927e-02 1.5679710520899248e-01
      -1.1458419598474943e+00 -1.5405666482335076e-01
      -1.3559935758477044e-02 -3.2319879663372277e-03
      5.0085030710217568e-02 1.5204955904328349e-02
      7.7753892484734702e-02 -5.3390560014364936e-02
      -2.6822305871659256e-02 -1.3642878918527376e-01
      -2.0891268757114931e-02 -2.4446357222480772e-02
      1.7573083262319815e-02 5.3208238648955165e-02
      -1.3810682785526570e-02 1.4373600475557685e-01
      -1.9952060710304864e-01 -5.5053352094077003e-02
      2.9657177924309285e-02 8.2197987909618700e-02
      2.3881343249867023e-07 -1.5432290254267079e-02
      -2.2108188262944323e-01 3.5345101148407174e-04
      -2.7189390602624916e-02 1.3903887121979552e-01
      -1.1534751126834664e-02 -9.2633511673597194e-03
      -7.3029696909860317e-02 -7.3180850954021274e-03
      4.1960458134302339e-02 1.1392565816955050e-01
      -2.0482264624178759e-01 2.0747891760880308e-02
      2.7183939474665639e-03 2.0041844525527458e-01
      9.8636724231048287e-02 -8.0119005821971484e-02
      -3.8548928383983788e-01 -5.3909115660697421e-02
      -7.8318788425890934e-02 2.9491302705743622e-01
      -7.4252766049720864e-02 7.4306529899436036e-02
      -2.0903252341709597e-01 6.1087386479246733e-02
      6.3188313636025166e-03 -1.4642924037261123e-02
      -1.6599402437858779e+00 2.6791337413469115e-02
      -1.0506950187138592e-01 -1.4195812022393095e-01
      1.2814443324098510e-01 -1.9894238067077838e-01
      1.7877104883609524e-02 -1.2542919896835950e-01
      -1.8928804334689017e-01 1.1280788029516540e-02
      -1.6894793324906404e-01 2.8836917695465536e-02
      -4.4976844216087657e-02 1.0852961903932991e-01
      -8.0749023690059055e-02 1.7693438567765859e-03
      -2.7134228528490807e+00 -4.4924868181740928e-02
      -1.3446415448256616e-01 -1.2942688345305012e-01
      1.1670014867275894e-01 -2.1083089772017063e-01
      5.9822759266712572e-02 -1.3149381027493090e-01
      -1.9337332749068001e-01 -1.2825471195311561e-01
      -1.7598295748569287e-01 5.6809714622029814e-02
      -2.0951866659670585e-02 1.2132729068921733e-01
      -1.2910789621965577e-01 -1.0285291889094106e-01
      -2.6598616071360417e+00 -1.8042624076620006e-01
      -9.4251790484992520e-02 -2.9100717389673220e-01
      4.7173345097358425e-02 -1.7925421064593366e-01
      1.8936340808873853e-01 -8.3756144730054508e-02
      -1.3984589831942884e-01 -2.6990380496288524e-01
      -1.3883674310825664e-01 -1.6233912438352144e-01
      1.6899387667789917e-01 7.3289421597406187e-02
      -8.6070036905618749e-02 2.9229879508074322e-02
      -2.3281810068606563e+00 -1.3313062184852589e-01
      -5.6870923761295621e-02 -1.3757919901746685e-01
      8.3834966656908733e-02 -9.9010255893764262e-02
      1.2183814346809364e-01 -8.3038275634805633e-02
      -6.1958736332041207e-02 -1.8631287306829297e-01
      -5.7876708716975686e-02 -1.3540112377107075e-01
      9.1744964045823121e-02 9.6202871405302454e-02
      -5.7784554718342304e-02 4.0014670999729083e-03
      -2.4995024534053196e+00 -1.4745669928770763e-01
      -6.4394476370533638e-02 -8.9277007526242944e-02
      1.1915501236006029e-01 -1.1201968359701257e-01
      1.9528031971772172e-01 -9.8122495021486997e-02
      -8.7717235230520538e-02 -1.9823182857535510e-01
      -7.7452551557583349e-02 -3.8993856724141747e-02
      6.6197688308609476e-02 1.1418477933370605e-01
      -7.7426051087083142e-02 3.5766984634476598e-02
      -2.4640371298765036e+00 -1.3489339794090718e-01
      -9.3406003105624039e-02 -5.5411234816572716e-02
      9.1791259885555448e-02 -1.1875267109235392e-01
      1.8037629802851821e-01 -1.1108479399870506e-01
      -1.0880358137995982e-01 -1.8831514749985778e-01
      -9.6172453717548151e-02 -4.1576255972845068e-02
      6.6255469125991881e-02 1.0065325541312382e-01
      -9.6209783833285101e-02 5.6136178673995930e-02
      -2.0812300682829288e+00 4.6756064903732582e-02
      -1.0110403070763653e-01 2.2399100560178922e-01
      1.6620582005358706e-01 -2.8232013774617298e-02
      -1.3720839920184669e-01 -1.2838879232610295e-01
      -7.5481627478662952e-02 9.2259784936449485e-02
      -5.8974379780985527e-02 2.2931249434201764e-01
      -2.5665152895294502e-01 1.3882473002965567e-01
      -9.1612268119225349e-02 -1.3060538614209699e-01
      -2.1073123803506055e+00 2.5819855894353361e-02
      -1.0080092829510356e-01 6.2179758028427977e-02
      1.7540181751498926e-01 -6.7460276020310794e-02
      -7.4216966401653900e-02 -1.3984878840434786e-01
      -9.0940424572236139e-02 9.0254685335098381e-02
      -7.4936876537308031e-02 2.1751752759904178e-01
      -2.2764544023480487e-01 1.5154841475183611e-01
      -1.1430410496649299e-01 -1.2722573589929878e-01
      -2.0132054776065398e+00 8.8245785467132382e-02
      -1.0770237413497621e-01 9.2735577673626945e-02
      2.6437189366564534e-01 -3.1999850920205894e-02
      -2.1936773457663927e-01 -2.1100543199943175e-01
      -8.1001933468570403e-02 2.6748214625247335e-01
      -5.7831866725979279e-02 3.5759486567178700e-01
      -3.7594269484093651e-01 2.0298001000880644e-01
      -1.2312434578163711e-01 -1.6188560937630336e-01
      -1.6949462604014804e+00 1.4986425796503380e-01
      -9.6145077441330037e-02 2.7561998442042313e-01
      2.9621618663627625e-01 4.5925224623891217e-02
      -4.4900846712101405e-01 -2.1833161172542420e-01
      -3.1624493541822729e-02 4.2262881657565410e-01
      -1.8755565813674512e-02 4.0645645824781595e-01
      -4.7992248202461657e-01 2.1066879474102174e-01
      -1.0925373290656429e-01 -1.6923918918334030e-01
      -1.6066726774133913e+00 -1.0038503771704184e-02
      -4.3329278155341974e-02 9.5095697332532841e-02
      2.0698110613875415e-01 5.7441667326915191e-02
      -2.0238225282242225e-01 -1.6115082554807353e-01
      -7.1608840927106978e-03 1.2434929701892752e-01
      8.8600931921639665e-03 1.3831865756932665e-01
      -2.3205525281589770e-01 1.5734809769345665e-01
      -6.8301192185634491e-02 7.0367643084271658e-03
      -1.5746172351467678e+00 -1.1861495940086658e-01
      -2.1871559079574707e-02 7.0948634493610621e-02
      1.0945949452054957e-01 4.5921853501593335e-02
      6.4522207460677881e-03 -9.9317513625668458e-02
      8.4281463287206836e-03 -9.4329286781481864e-02
      1.8226740415174376e-02 1.1069320754862404e-02
      -7.2650466734342653e-02 1.0227757778766246e-01
      -3.1201213115595518e-02 1.2206706290423924e-01
      -1.1179583901966608e+00 -6.5964159578890513e-02
      -6.7007958402106674e-03 4.5405338167106048e-02
      5.9613037002821598e-02 2.7570671348445160e-02
      -9.4563908138122505e-03 -6.4209345018932967e-02
      -9.0092568617933366e-03 -9.0030836648232374e-02
      -2.2876258685190806e-03 -4.5668939471941797e-02
      -3.2347484717235676e-02 7.3403049373633913e-02
      -1.3998494703444391e-02 1.2094633763607560e-01
      -4.4696095553468757e-01 -1.0087635835048439e-02
      3.3932212029310307e-02 -1.3595991936132160e-02
      1.7296890256278213e-02 -6.3740362231244629e-02
      -1.7421620776798741e-01 1.5138033665166018e-02
      -6.3467653700809701e-02 1.3089995865792284e-01
      -3.9673168652168668e-02 -7.3110471983023713e-03
      -4.3847730649852965e-02 -2.0339972242516519e-02
      5.5109221638142615e-02 1.3313053722947613e-01
      -4.5312225184516242e-01 1.9859340561916353e-02
      2.8007637552593691e-02 6.6302976841803488e-02
      6.3843285898185595e-02 -1.3636336933388143e-01
      -2.1704908822215771e-01 -2.6954530563112977e-02
      -9.8430042223680181e-02 1.8213509013782103e-01
      -8.7994496690966970e-02 -1.4792376823715675e-02
      -1.0502974967026045e-01 3.1043793976106591e-02
      3.2546063051110380e-02 5.9425315973347916e-02
      -1.6043945142511831e+00 3.0365236242788064e-02
      -8.3334943745243181e-02 -1.2360775676254394e-01
      1.1261499790041031e-01 -1.9879875726226620e-01
      3.8976798526410568e-02 -1.0548115772528642e-01
      -1.9309910138728850e-01 -6.8730959803843777e-02
      -1.6226691732077328e-01 8.9007294179007407e-02
      2.2176113443104051e-02 9.3335963949075049e-02
      -7.7687780043099203e-02 6.9222499034400503e-02
      -2.7426995696443774e+00 1.9360548101258968e-02
      -1.6521355810579877e-01 -9.9317126750109841e-02
      1.9124830807352422e-01 -1.8374710434190963e-01
      2.8232430317446166e-02 -1.9285997626439866e-01
      -1.9724358878214740e-01 -1.1676589279180660e-01
      -1.7671372169732530e-01 2.5108403210302005e-01
      -1.2008778209120824e-01 1.7946253995289660e-01
      -1.6009367069170813e-01 -1.2711880434907730e-01
      -2.4014628024022278e+00 8.4941148955623533e-02
      -1.2398772287332567e-01 2.9989739273171535e-02
      1.4409623782253012e-01 -8.3060136506320395e-02
      -1.1967316611661495e-01 -1.4138640377345252e-01
      -1.1344488845954112e-01 -5.2428409730481330e-02
      -1.0407519073253180e-01 1.9045397977043838e-01
      -1.4264747338597208e-01 1.4194096644968915e-01
      -1.2517623352972590e-01 -1.9114301497733591e-01
      -2.4933713201466321e+00 -2.7667277097757084e-02
      -1.1314204208727194e-01 -1.4766570618637528e-01
      1.0585384394112052e-01 -1.0918495807638566e-01
      9.4379660596968340e-02 -1.3756313412262849e-01
      -9.1216165109493472e-02 -2.7742932285991012e-01
      -8.1198089755138272e-02 -6.2372756656478810e-02
      6.1758416031435490e-02 1.3647187554500720e-01
      -1.3064366852770895e-01 -4.1039490024264644e-02
      -2.7319750519065087e+00 -9.9080229557833910e-02
      -1.2311412020555543e-01 -2.4501530529813070e-01
      1.2445221250967542e-01 -1.0795167306984561e-01
      2.6545235885042007e-01 -1.3204122835648063e-01
      -1.0035121936506132e-01 -3.7373740794244081e-01
      -9.6060972040915585e-02 -9.8755452999119461e-02
      1.1333081242490464e-01 1.3569728855812793e-01
      -1.1869576153602274e-01 6.4888288910936844e-03
      -2.7879767675515548e+00 -1.1357568748924030e-01
      -1.2277952511861846e-01 -1.8040421156961636e-01
      1.0163810082046618e-01 -1.6336173285565836e-01
      2.9576760725081630e-01 -9.8698847092414110e-02
      -1.2646099479057313e-01 -2.7283985602044764e-01
      -1.1473512414091033e-01 -2.2586732561470230e-02
      1.1498411982726096e-01 9.1557630451032324e-02
      -1.2205688546855707e-01 4.4562117899971138e-02
      -2.3703472064904272e+00 8.5252337934832081e-03
      -1.0737522401855505e-01 2.3392923343920870e-02
      1.3369502781043271e-01 -1.0350217531636967e-01
      4.3403413802310872e-02 -1.1778797649887286e-01
      -8.6305245900891503e-02 -2.6118573267052667e-02
      -9.8382299041360657e-02 1.4085877994144827e-01
      -6.0510142572353022e-02 1.2206931391091151e-01
      -1.1850087573252500e-01 -4.4303598299179410e-02
      -2.2542224454922124e+00 1.9405104626745773e-02
      -1.2011612527266256e-01 -3.7137419114790103e-03
      1.4865215776631213e-01 -8.5600289700690210e-02
      3.3148932043860796e-02 -1.4549332089643774e-01
      -8.4028952007837721e-02 2.4140776290350087e-02
      -8.8430436021555023e-02 1.6917125782245629e-01
      -1.0408196971278043e-01 1.2607890929693494e-01
      -1.1941006750179230e-01 -4.6732972529504882e-02
      -2.1420037297341485e+00 4.6442649647504379e-02
      -1.3369101008053230e-01 7.5758676204922298e-02
      2.5733296186736093e-01 -3.1398424483138149e-02
      -1.2711423531023638e-01 -2.1499436000644825e-01
      -4.4104049059026935e-02 2.0556207884823177e-01
      -5.3283324628699766e-02 3.5939247328337659e-01
      -2.7210488637815822e-01 2.0215656815934863e-01
      -1.5483402992038095e-01 -1.1630092267636119e-01
      -1.9994084073903160e+00 1.1476229019788575e-01
      -1.4381628910870706e-01 1.2577797602740762e-01
      3.0539688775619583e-01 3.8730907359170043e-02
      -2.7091600723701637e-01 -2.4378962444115920e-01
      -1.0784388045977073e-02 2.8091332994256757e-01
      -1.0914699265612560e-02 4.2741062575423938e-01
      -3.6081362906833364e-01 2.3202978167511829e-01
      -1.4763873687816495e-01 -1.1915607366199010e-01
      -1.8678730754742767e+00 1.0231297889981635e-01
      -1.1413091026542148e-01 1.1151253872025070e-01
      2.4901028721213575e-01 6.7278051280102988e-02
      -1.9417099720896272e-01 -2.2229109455463592e-01
      -1.7119234609931845e-02 1.1734955346658919e-01
      2.7057755244335952e-03 2.5176749138466842e-01
      -2.9657460988166884e-01 2.1995953500856291e-01
      -1.4187062557561014e-01 -5.0681102249325892e-02
      -1.3929223841513867e+00 1.0252135551903928e-01
      -4.1278089895502898e-02 3.0431820686700223e-01
      1.8168933597082268e-01 1.1526191485518485e-01
      -2.3436419758171170e-01 -1.2516862946003776e-01
      4.9656530480985846e-02 1.4658798711166734e-01
      6.6306354612770721e-02 2.2266896390194110e-01
      -2.7966749023532145e-01 1.3910387092096235e-01
      -6.0292283162481156e-02 -6.2717900279541028e-03
      -7.1967478394484541e-01 1.3549442202334233e-01
      6.3380447918489268e-04 1.9750539480740442e-01
      6.5462657276977435e-02 2.9439804211183602e-02
      -3.3649668744021360e-01 -4.6327752807001250e-02
      1.3917317885372886e-02 1.7429011110690884e-01
      1.1390725160203011e-02 8.0535301577736029e-02
      -2.8273979410506955e-01 5.1951686971652707e-02
      -6.1360767521239697e-03 1.4845323712691349e-02
      -9.4388399676735180e-01 -3.2577270459629978e-02
      1.1028510137177872e-02 -1.8123359489230090e-01
      -8.9248017566450032e-03 -1.4274449856244484e-01
      -1.0212796438630280e-01 7.8230437797437279e-03
      -1.0362303704574703e-01 -2.7147381997074772e-02
      -1.0336465765392802e-01 -1.3523353361098725e-01
      -3.9508169162699086e-02 -4.8613593265977393e-03
      1.7508689181096604e-02 1.8652068907817868e-01
      -1.0484262130099489e+00 -7.8239616251422353e-02
      1.3247037985085797e-02 -2.1221448900488638e-01
      -1.1115402093274331e-02 -1.9913639123108876e-01
      1.3287774009918958e-02 -7.8540568841234740e-04
      -1.3466358634635914e-01 -9.3739523771317862e-02
      -1.3407044155941711e-01 -2.0218023429185555e-01
      1.0088179362506841e-02 -1.9727072014144678e-03
      1.6499760812442362e-02 1.8444306942678587e-01
      -1.3569912718342427e+00 -7.1838413662811976e-02
      -3.2260907027936332e-02 -2.7426698106148240e-01
      -2.6862880701969686e-02 -2.0176291415894887e-01
      2.2205569679510131e-01 -7.2593312834313614e-04
      -1.9621124571927348e-01 -3.0253644068739211e-01
      -1.6525176478207934e-01 -7.0202599964787837e-02
      2.3521522368795625e-01 -2.0330509242088207e-02
      -3.2878158117114961e-02 1.6317206977562576e-01
      -1.3312426008492173e+00 1.0701205193248410e-01
      -3.1427164430083754e-02 9.2874916455826118e-03
      3.9353589717220444e-02 -1.1804871233019008e-01
      -7.1676381252855956e-02 -3.7389883996073910e-02
      -1.4009534482671254e-01 -9.5830613224753100e-02
      -1.2675498238437549e-01 1.0643140505804560e-01
      -2.1539107249393712e-02 3.2797990083898262e-02
      -3.9358438336991070e-02 -7.1205936178963189e-02
      -1.9706508356408869e+00 3.8323927759214560e-02
      -7.1378715017202984e-02 -4.4417661545139778e-02
      4.5684051383400141e-02 -5.8088503240113318e-02
      -5.8040112762204527e-02 -7.3995395840699515e-02
      -8.9346245149525841e-02 -1.7821388892252144e-01
      -7.9072281219911458e-02 1.0061079288893550e-01
      -7.8004865353673125e-02 6.7579976401200295e-02
      -8.1713461116456290e-02 -1.7267925605941031e-01
      -2.1774284992595958e+00 1.2955495893332081e-01
      -1.5196258210105559e-01 6.5589316094263994e-02
      1.8750216110646817e-01 -1.1759265291792097e-02
      -9.3422907908339653e-02 -2.0365217455869752e-01
      -8.0460892064421266e-02 -1.6441143055604037e-02
      -5.9415661810815264e-02 2.7946085226211070e-01
      -2.3915039866775439e-01 2.1092474191163829e-01
      -1.7978690009766368e-01 -3.0949581696911299e-01
      -2.4974565608382284e+00 -1.1005673804955861e-01
      -1.3777970867896000e-01 -2.1992567133512009e-01
      1.1124036928617401e-01 -7.6246185159556876e-02
      2.9381425686476953e-01 -1.3622273073713878e-01
      -9.0174850506887380e-02 -4.2958097581735205e-01
      -6.9628412389264177e-02 -8.5155526232135223e-02
      8.4567489759288600e-02 1.4218090179032072e-01
      -1.5760983059413919e-01 -4.9913719729935899e-02
      -2.7421816821036478e+00 -8.0953548598202307e-02
      -1.1832361714102314e-01 -1.6031241283021747e-01
      1.3568784112572946e-01 -9.3100196887347789e-02
      3.0420853156643929e-01 -1.1747526504810683e-01
      -8.3798120231479409e-02 -3.3845434636214317e-01
      -8.5151094636229926e-02 -3.7553269759438228e-02
      5.9290286467976197e-02 1.3268693243517987e-01
      -1.2681565446012347e-01 -2.4375144926733566e-02
      -2.5626313882498990e+00 4.9829475501822852e-02
      -1.3855008047691725e-01 -2.7715361654540364e-02
      1.5834175441433138e-01 -1.1933597022974279e-01
      1.6493548044971615e-01 -1.3795447348979545e-01
      -8.0316934118222952e-02 -1.4783444216385877e-01
      -9.6287142224237385e-02 8.6640733122166746e-02
      -2.7726947813694405e-02 1.2953149020964408e-01
      -1.3714966538779075e-01 -1.2729902361128514e-01
      -2.1399990936843989e+00 5.3976408493513761e-02
      -1.2713526125079397e-01 -1.1916816052162516e-02
      1.2395804466641404e-01 -9.9265917349285013e-02
      7.5766790596298358e-02 -1.2011540923681377e-01
      -7.3310603341863928e-02 -7.9984274151624138e-02
      -7.6601335488338640e-02 5.0603333607786148e-02
      1.1844769637238575e-03 1.0361909961033662e-01
      -1.3013238678283029e-01 -5.3263104264812601e-02
      -2.0229619708660773e+00 7.1094729406496610e-02
      -1.4021899249994699e-01 5.0216216400101280e-02
      1.5593165348727392e-01 -4.2804421510430415e-02
      4.7322348835689907e-04 -1.5579913164727074e-01
      -5.5081192926317843e-02 3.0777352700419695e-03
      -7.0450921283170639e-02 1.5955640237910135e-01
      -8.2642609538605347e-02 1.4898646295985996e-01
      -1.4114809091341260e-01 -8.4717850639676143e-02
      -1.8371527798617511e+00 -1.0844909340678519e-01
      -1.2226897715930438e-01 -9.6941828447423148e-02
      1.4089990095066501e-01 -1.1434114374985125e-02
      1.2395100858958084e-01 -1.4056421052195284e-01
      -1.2140858456831704e-02 -1.3743482430342285e-01
      -2.3922933613463263e-02 7.0277270682190238e-02
      5.2294202589515594e-02 1.4462487864876641e-01
      -1.2820166266560207e-01 1.2327610335808195e-01
      -1.6717022198660778e+00 9.9321471084079238e-02
      -1.0262003236943601e-01 1.2475612286033491e-01
      1.9897296350649790e-01 8.2851991593059102e-02
      -6.1947400554935417e-02 -1.6456074246761623e-01
      2.7660871292434684e-02 5.9665426009297404e-02
      1.7047806690155900e-02 2.2644523387470702e-01
      -1.4374479354534744e-01 1.6744494837239055e-01
      -1.2897337330783426e-01 4.9356526723580768e-03
      -1.3073170156017975e+00 2.0555912112294639e-01
      -6.3405436068871723e-02 3.1998109450991369e-01
      1.7494298801519872e-01 8.8532601724231955e-02
      -2.2521402185284828e-01 -1.3174015858058377e-01
      3.6026194669210594e-02 2.0199463751102337e-01
      3.2041095020867529e-02 2.8725336310065075e-01
      -2.8371365880039867e-01 1.3042182465163457e-01
      -8.2168194497364955e-02 -3.9600159118952358e-02
      -7.2673658975186040e-01 1.8103200737744599e-01
      1.2873418032835014e-03 2.2463596837793515e-01
      6.7284179087625434e-02 -4.9369290762922909e-02
      -3.4186979098960030e-01 -3.2445160696300046e-02
      -4.5048747684573232e-02 2.4238214889453510e-01
      -3.3126491798333935e-02 1.2165297591385435e-01
      -2.5042687417977488e-01 3.9355998421495543e-02
      -7.5375174528922208e-03 4.3988840922787369e-02
      -1.2025030451316401e+00 -5.7508293178383102e-02
      -1.4144653578012893e-02 -2.1603006994084792e-01
      -2.1309059395697844e-02 -1.8719697035433125e-01
      2.0947939035980218e-02 -2.1977578859315532e-03
      -1.4146628217117119e-01 -1.0779725940404462e-01
      -1.3588473139452345e-01 -1.8028129671104262e-01
      5.7299430292621349e-02 -1.2634330733423760e-02
      -1.1718183994089981e-02 2.0717236511501638e-01
      -1.2493683681855250e+00 -8.5267830541568460e-02
      -7.9929073637924567e-03 -2.0449124989690867e-01
      -3.9724309412852842e-02 -2.0610200722412672e-01
      5.3071630921958712e-02 1.6989861378098666e-03
      -1.7215599756267175e-01 -1.4316994100273872e-01
      -1.4809973701297885e-01 -2.2682158316220130e-01
      6.7135779596589423e-02 -1.0265541609415431e-02
      -6.5985031545284260e-03 2.0133660389586389e-01
      -9.8987459383277621e-01 5.7486588873048396e-02
      -1.8985071594050007e-03 -1.4640051083652314e-01
      -8.3824569177399957e-02 -1.6461529873882180e-01
      9.2463408120714741e-02 3.4214048779117559e-02
      -1.5421552141757675e-01 -1.9381436489705775e-01
      -1.2565118369652997e-01 -4.0491648744686914e-02
      1.4692884750522037e-01 -4.3415977237866693e-02
      3.5305089439421804e-03 5.1393450773306933e-02
      -7.3134513294496928e-01 2.0575344164097073e-01
      1.2362745852156815e-02 1.3800227204819787e-01
      -1.6206633486082995e-02 -7.2864282188578600e-02
      -1.8897604146351987e-01 -1.2273949026049850e-03
      -8.7419098899557929e-02 2.1925689220145990e-02
      -7.4066911612942737e-02 1.2011374302545696e-01
      -4.4937723982331312e-02 -7.4383962956693526e-03
      -8.4478126803431610e-03 -1.0978624296043957e-01
      -8.4593405509731268e-01 1.4623689064675721e-01
      1.7367169479998543e-02 1.3532931750780541e-01
      -1.3699376568768698e-02 2.1000226180886389e-03
      -1.7243443697117905e-01 -1.1332347205592654e-02
      -3.0883088858378746e-02 1.2461845985138380e-02
      -2.5164506148165993e-02 4.3789248903532273e-02
      -4.9897651668106393e-03 9.8781271736227017e-03
      -2.1801399892077038e-03 -9.1317337405909207e-02
      -1.5035458074073218e+00 -5.6300106583641783e-02
      -3.9024321261367512e-02 -3.7767435745633966e-02
      2.2711134012458920e-02 1.3998235763882613e-02
      5.1423372481456862e-02 -7.1374792804169238e-02
      -1.4415048734711219e-02 -1.5131989554709385e-01
      -1.9401342185125420e-02 -3.3914136423321146e-02
      9.5947822693447801e-02 7.8165313155170224e-02
      -6.3557792957561351e-02 2.6446750559778305e-02
      -1.7931371441590815e+00 -1.7209836542526852e-02
      -9.1209773998867608e-02 2.3264039394233806e-02
      1.4326619705518301e-01 1.5719931542026125e-02
      5.3325144356554180e-02 -1.5541357185265200e-01
      -2.7678391494583218e-02 -7.1011342134136915e-02
      -2.9804001895577172e-02 1.0121032248699466e-01
      -2.0799223645376969e-02 1.5736949315330701e-01
      -1.0928151738716825e-01 -6.3366150145399480e-02
      -1.4101321009375931e+00 1.2208546498748639e-01
      -4.7712729891218081e-02 3.5154474348795606e-01
      1.7207035530934284e-01 5.9139719626431504e-02
      -1.4685635295238320e-01 -1.2346370308027210e-01
      3.6342602063316527e-02 1.1703835449377591e-01
      3.6309469988921886e-02 1.7997710559790370e-01
      -1.2466391168351759e-01 1.4094759662516537e-01
      -6.3691515946066063e-02 -1.5988719992607575e-01
      -1.0742679744888284e+00 2.0713453870515217e-01
      -4.8964168885290399e-02 4.2007029972234888e-01
      1.6851532575785200e-01 5.1109268197786425e-02
      -2.2292359433051481e-01 -1.0738934337819225e-01
      4.1771448004886712e-02 2.1298992871359165e-01
      3.2188310038437702e-02 2.2467840069453565e-01
      -1.5738967872413728e-01 1.1967575892463431e-01
      -6.0398508089542842e-02 -2.0218663156205899e-01
      -8.5751129712440011e-01 1.4798719937671809e-01
      -3.2777266577183981e-02 2.9649995280128855e-01
      1.2368133125095598e-01 4.8776618840511120e-02
      -1.4734658255261984e-01 -8.3468151404646140e-02
      3.7311352249419817e-02 1.6246052859035590e-01
      2.9159587290859108e-02 1.3777859944070114e-01
      -4.0908417860796742e-02 9.8400535803902803e-02
      -4.2177240882318369e-02 -6.3696606206983794e-02
      -8.0549188281005646e-01 1.5640441046946282e-01
      -4.8240000524127830e-02 3.1000890621653127e-01
      1.4115632419604540e-01 7.6626559876488295e-02
      -2.0814802324382098e-01 -1.1574753108957235e-01
      5.9646945253791737e-02 2.2441339072471622e-01
      5.0147892603206401e-02 2.0743118492385262e-01
      -6.7026828818594675e-02 1.0476624540882112e-01
      -6.8773928145064611e-02 -4.7559726445448092e-02
      -6.4884955386138476e-01 7.3703188430484248e-02
      -5.5835736668989694e-02 2.6537123601155399e-01
      1.5053657479848692e-01 1.1361188599128527e-01
      -1.6155552426935843e-01 -1.1285245827786401e-01
      7.7473344600827068e-02 1.9856536365420385e-01
      5.9385218371226067e-02 2.1696803768033102e-01
      -4.9263392235552879e-02 1.2116541696757213e-01
      -6.9915115490670768e-02 3.6392320225339836e-02
      -7.3224122861905006e-01 6.8454015894417949e-02
      -4.7858517765027156e-02 1.8631026487538585e-01
      1.1610520424481924e-01 8.1930653691331040e-02
      -9.6799627418972176e-02 -1.0398215030870291e-01
      4.7446941076035198e-02 1.2392622098405064e-01
      4.7080478162459131e-02 1.2274346803420393e-01
      -1.2381555695762910e-02 9.1464152052604442e-02
      -8.0037296846446698e-02 6.5888672718898186e-02
      -7.0506142490585233e-01 2.5265746106872256e-01
      -6.7253574871588437e-02 2.9563895715845984e-01
      1.1413126673144650e-01 1.3971961046408020e-02
      -2.9243518941537955e-01 -9.3181270214044570e-02
      -2.0914431903310299e-02 2.8365216307359481e-01
      -1.6801159237134693e-02 2.0157855766785054e-01
      -1.4160480116954532e-01 1.0108693003964385e-01
      -6.3586856578797007e-02 -4.6507525900069291e-02
      -1.2212464112984249e+00 1.1580966760975712e-01
      -8.0585721651036266e-02 -4.7242526835281892e-02
      5.0087671661557163e-02 -1.2214665826374985e-01
      -5.5244990344698812e-02 -7.1752227255897444e-02
      -1.1637803616565694e-01 4.8205785788390521e-02
      -1.1122206787930081e-01 -1.5739991125979756e-02
      5.3444813671934557e-02 7.2393993523523284e-02
      -8.8456386420465966e-02 5.9829980775744217e-02
      -1.4434740169633844e+00 -7.9676168733216576e-02
      -5.5898209000250020e-02 -2.7879379603806403e-01
      -2.4176546367235614e-02 -1.9307780038881958e-01
      1.9478363794114606e-01 -2.2344509522871894e-02
      -1.4487317570397112e-01 -1.8869068953745199e-01
      -1.3792757185324445e-01 -2.6611286846326465e-01
      1.8673662913515851e-01 2.1842021268115974e-02
      -5.7801993487552356e-02 2.0214020907087199e-01
      -1.4335370940564558e+00 -1.3696692796169463e-01
      -4.6179779712758100e-02 -3.1074315055047974e-01
      -7.0623846289138190e-02 -1.9331427840834645e-01
      2.3955714481238793e-01 3.9254049851615283e-03
      -1.5531525265664420e-01 -2.4326668600533691e-01
      -1.2992389528792028e-01 -3.2420562331861219e-01
      2.1664957322452522e-01 -7.0956161217045014e-03
      -4.9282613796364332e-02 2.3470650833913831e-01
      -8.4706528681749915e-01 2.5508115138533560e-01
      -8.3720071313563519e-03 1.2459519990431031e-01
      -1.5526025546601145e-02 -7.6515989610182050e-02
      -2.6629311229925429e-01 2.0248316699858507e-02
      -7.1900107285759698e-02 1.3072841475657110e-01
      -7.7487943934023182e-02 2.3787311677992964e-01
      -1.8027830188571148e-01 -5.5723006454260126e-03
      -1.6910344939480779e-03 -1.0821879552388447e-01
      -7.0455443621864888e-01 3.1915033057782471e-01
      -1.5753244556809716e-02 2.7682546943222719e-01
      2.9816520450081777e-02 -2.3102457759621560e-02
      -3.7224836682362883e-01 -7.1674062123525326e-03
      -3.3135121499783121e-02 2.0781821993124161e-01
      -4.6910332184205851e-02 2.8013707788771647e-01
      -2.4312819934271457e-01 1.6935011277465634e-02
      -1.5423759568480553e-02 -1.5577892083162967e-01
      -6.6272312947424195e-01 2.0841855883838370e-01
      -9.8126779388417462e-03 2.3635353319846925e-01
      4.1269251725381331e-02 -4.6649062821853609e-03
      -2.3892526009712317e-01 -3.0834698899491975e-02
      -2.6469936152198236e-02 1.4119367052621060e-01
      -2.9973222376979042e-02 1.6398196441734850e-01
      -8.9654206062232525e-02 3.4701696021767967e-02
      -3.0047630677461242e-02 -6.4631572515666744e-02
      -6.8208371770183196e-01 8.7375472792975015e-02
      -1.8760963836235822e-02 1.8643136463298871e-01
      3.7790621197084304e-02 1.9640140666320499e-02
      -1.5155066080575411e-01 -3.7383704886742246e-02
      3.8849843371964407e-03 7.4554137935016959e-02
      -1.0303361895575328e-02 9.2932754688303157e-02
      1.7173533336900190e-02 4.8314837628321457e-02
      -3.7588242611832891e-02 1.2844012887243345e-02
      -7.1291985688578741e-01 5.4403135492725990e-02
      -3.7915857699070812e-02 2.0711390532853449e-01
      6.4151258469079389e-02 1.3981121482074303e-02
      -9.2983162747285270e-02 -6.8824002129510300e-02
      2.1205770111908703e-02 5.5500345721948834e-02
      2.7736643547626532e-03 7.2000042998274214e-02
      7.7417679598312415e-03 6.2637193582236364e-02
      -4.3536762795136977e-02 5.5952499092221934e-02
      -2.8325408314534434e-01 2.2891879724442502e-01
      -1.6891145564011598e-02 4.7823466158818118e-01
      1.6188804932033168e-01 1.1640365752120196e-01
      -3.3741867129317810e-01 -1.0430831000560858e-01
      7.0598406055347118e-02 2.9763517435090586e-01
      7.2212521380246530e-02 2.4315114454597900e-01
      -2.0937174796663000e-01 1.1917026393801827e-01
      -3.2565298237930355e-02 -1.2313717393274971e-01
      1.3178846755420190e-01 3.1559197971531022e-01
      -5.4307672609150920e-03 6.3049710410755855e-01
      2.1372257035672440e-01 1.7581182245388530e-01
      -5.1580747988133946e-01 -1.2780301048563888e-01
      1.0607350898344810e-01 4.3066757729924582e-01
      1.0288737286208667e-01 3.2270533958560588e-01
      -2.8791421174543919e-01 1.3637543719357531e-01
      -3.1816011338259703e-02 -2.0492614535108147e-01
      5.1485250255946288e-02 3.2589036071337246e-01
      -3.1741020053273263e-02 5.2051307382431677e-01
      2.1070079286908533e-01 1.4523818137370614e-01
      -4.6405232414081937e-01 -1.4173081197095647e-01
      9.2064202636576511e-02 3.8367515644565431e-01
      8.2374581489907783e-02 2.6295983798372219e-01
      -2.1839205813524537e-01 1.4702071910431957e-01
      -4.1292658588475147e-02 -1.6940604526405861e-01
      1.8113107451812929e-01 3.3569444423614853e-01
      -2.5958349064436045e-02 5.2585858860452261e-01
      2.0622578404721831e-01 1.8843540577349435e-01
      -5.1881411427200208e-01 -1.5257988083763710e-01
      1.3032353799063534e-01 4.4346553221372192e-01
      1.0595844012032574e-01 3.5654323049257469e-01
      -2.7867851924820841e-01 1.4757722759498326e-01
      -5.2711141926715749e-02 -1.6883937051504933e-01
      2.1874903596127920e-01 5.0717558672839080e-01
      -6.0330693761790725e-02 7.1759908785753190e-01
      2.9553366889504423e-01 1.9829833777767389e-01
      -7.2828215309522848e-01 -2.1023006968842406e-01
      1.1100561201701990e-01 6.5739706005882137e-01
      9.9716385537697308e-02 5.4781716877884590e-01
      -4.9455250170373616e-01 2.2012993498687045e-01
      -7.6956697649616615e-02 -3.4425941603524846e-01
      -1.3141791741766487e-01 5.1580166393267302e-01
      -9.2097078733923213e-02 6.3649320862491932e-01
      2.9881011516263078e-01 1.2181336014530486e-01
      -6.6056697668170994e-01 -2.0779925921862669e-01
      6.4595347824493873e-02 6.3490372744100154e-01
      5.0315558182147758e-02 5.3474335654920668e-01
      -4.6790206421977421e-01 2.3018108467720041e-01
