<?xml version="1.0"?>
<opencv_storage>
<my_nn type_id="opencv-ml-ann-mlp">
  <layer_sizes type_id="opencv-matrix">
    <rows>1</rows>
    <cols>3</cols>
    <dt>i</dt>
    <data>
      225 32 2</data></layer_sizes>
  <activation_function>SIGMOID_SYM</activation_function>
  <f_param1>6.6666666666666663e-01</f_param1>
  <f_param2>1.7159000000000000e+00</f_param2>
  <min_val>-9.4999999999999996e-01</min_val>
  <max_val>9.4999999999999996e-01</max_val>
  <min_val1>-9.7999999999999998e-01</min_val1>
  <max_val1>9.7999999999999998e-01</max_val1>
  <training_params>
    <train_method>BACKPROP</train_method>
    <dw_scale>1.0000000000000001e-01</dw_scale>
    <moment_scale>1.0000000000000001e-01</moment_scale>
    <term_criteria><epsilon>1.1920928955078125e-07</epsilon>
      <iterations>10000</iterations></term_criteria></training_params>
  <input_scale>
    1.9697960011626919e-02 -2.7127653333033646e+00
    1.9781973365317652e-02 -2.7335951386041875e+00
    1.9821143681567691e-02 -2.7422552283448898e+00
    1.9625595422374582e-02 -2.7336157811137514e+00
    1.9365574602736236e-02 -2.7482840612549113e+00
    1.9114903770621142e-02 -2.7929111259318735e+00
    1.8059465463767920e-02 -2.7392943034994617e+00
    1.7549596022026881e-02 -2.6925561045709752e+00
    1.7735517255897285e-02 -2.6802517439401541e+00
    1.8490149910831172e-02 -2.6975948497567943e+00
    1.9011356452252191e-02 -2.6848889273929606e+00
    1.9155076242796307e-02 -2.6685262757690476e+00
    1.9082611812259471e-02 -2.6507980878823454e+00
    1.9105110187171776e-02 -2.6540249983630475e+00
    1.9225057332945928e-02 -2.6704627244894499e+00
    1.9753186841287889e-02 -2.7045685170577398e+00
    1.9827769650468993e-02 -2.7279003298371305e+00
    1.9701608939385221e-02 -2.7484373245195770e+00
    1.8897436893599559e-02 -2.7744452908244619e+00
    1.6934685187222499e-02 -2.7311323457580388e+00
    1.5416147705582577e-02 -2.6766532456174752e+00
    1.4703763770360645e-02 -2.6195380848972825e+00
    1.4607399173371659e-02 -2.6084152987735387e+00
    1.4730228344112618e-02 -2.6042103485049997e+00
    1.5322502868815412e-02 -2.6113294011503831e+00
    1.6705384381485115e-02 -2.6664636942532201e+00
    1.8450599152953634e-02 -2.6933556537978633e+00
    1.9011804362787679e-02 -2.6401328662775025e+00
    1.8982005836374900e-02 -2.6119643903316470e+00
    1.9050452946029858e-02 -2.6299960949566392e+00
    1.9651591554136472e-02 -2.6663446668240058e+00
    1.9614041582202573e-02 -2.6978488216269145e+00
    1.8656981427025248e-02 -2.7495230181763910e+00
    1.5768669775374798e-02 -2.6331665503202459e+00
    1.4590808419278307e-02 -2.6037452845568301e+00
    1.4394549675026453e-02 -2.6166075505547286e+00
    1.4200275180132020e-02 -2.5788303994148691e+00
    1.3983775256538690e-02 -2.5338452001281548e+00
    1.4152174256070696e-02 -2.5471053115066984e+00
    1.4450654332739654e-02 -2.5715708036936427e+00
    1.4852337234343982e-02 -2.5786185496222744e+00
    1.6182161664582598e-02 -2.6466786155704871e+00
    1.8249581885500545e-02 -2.6986666285428007e+00
    1.9072048793450831e-02 -2.6443395652119577e+00
    1.9245491951578531e-02 -2.6466441479666010e+00
    2.0156055558416895e-02 -2.7200811402206564e+00
    1.9409444539352186e-02 -2.7565334431478483e+00
    1.6593673893262651e-02 -2.6854566326451850e+00
    1.4944411928143520e-02 -2.6108682553994824e+00
    1.4574960219592285e-02 -2.5913814112130202e+00
    1.4729976421517691e-02 -2.6247721070006755e+00
    1.4548025103016548e-02 -2.5966058081741537e+00
    1.4222184211978083e-02 -2.5326230185395993e+00
    1.4117963406864362e-02 -2.4949745544130932e+00
    1.4364551937588311e-02 -2.5177697630181384e+00
    1.4643327331360281e-02 -2.5482505158126756e+00
    1.5062876418745581e-02 -2.5798540977791102e+00
    1.6398541592472837e-02 -2.6355073127655841e+00
    1.8605831837849807e-02 -2.6836537213523299e+00
    1.8982751076396864e-02 -2.6311304656848380e+00
    2.0050056146340610e-02 -2.7245253422771545e+00
    1.8565393172445870e-02 -2.7799306225545459e+00
    1.5912373936022732e-02 -2.6512215624873110e+00
    1.5017013134142514e-02 -2.5922719534166330e+00
    1.4889257652937282e-02 -2.5600177777929538e+00
    1.4931773665769405e-02 -2.5630707194605220e+00
    1.4692936466771110e-02 -2.5259033480396575e+00
    1.4315533061625620e-02 -2.4556469452359821e+00
    1.4450525304147803e-02 -2.4676577891721330e+00
    1.4531488951639658e-02 -2.4812362794616720e+00
    1.4881670047353275e-02 -2.5385912681841467e+00
    1.5076115290602734e-02 -2.5582563806100649e+00
    1.5654397288059230e-02 -2.5820762573664164e+00
    1.7782871924092464e-02 -2.6941807682954302e+00
    1.8680333826389672e-02 -2.6309461651869452e+00
    2.0346524823993090e-02 -2.7967597084928970e+00
    1.7897589449133937e-02 -2.7229468747867474e+00
    1.5896765430996922e-02 -2.5883147297654361e+00
    1.5220658425705566e-02 -2.5192132757320462e+00
    1.5301345345054928e-02 -2.5403814438723002e+00
    1.5380382914361926e-02 -2.5480549477347538e+00
    1.5156463475645008e-02 -2.5073788996884345e+00
    1.4960672003141710e-02 -2.4681289059140470e+00
    1.4965535426106159e-02 -2.4753473218250632e+00
    1.5030276241255395e-02 -2.4768456176587068e+00
    1.5187951120994810e-02 -2.4943462959116349e+00
    1.5433615100264232e-02 -2.5229035067091510e+00
    1.5902865784040307e-02 -2.5313302022034541e+00
    1.7432732510712666e-02 -2.6510364329163343e+00
    1.8766384965604035e-02 -2.6569607548216791e+00
    2.0189368031068581e-02 -2.7913734327551034e+00
    1.7996797356445028e-02 -2.7040570938640704e+00
    1.6269355165412527e-02 -2.5536310636332922e+00
    1.6098836179906741e-02 -2.5575912763431417e+00
    1.6331580634495545e-02 -2.6227997278341300e+00
    1.5981640629259691e-02 -2.5443281934141937e+00
    1.5578439497385280e-02 -2.4639125073992174e+00
    1.5485359122758637e-02 -2.4388946404755827e+00
    1.5729388702041588e-02 -2.4847414131554846e+00
    1.5862430863959519e-02 -2.5140096677466226e+00
    1.5954109097891293e-02 -2.5115162211378319e+00
    1.6061518704072110e-02 -2.4973952912629573e+00
    1.6248514528891530e-02 -2.4296196347206456e+00
    1.7460612454445294e-02 -2.5470575542323908e+00
    1.8769032184642896e-02 -2.6464734721456793e+00
    2.0251487439172374e-02 -2.7864754068166770e+00
    1.8312054801992047e-02 -2.6630013482156478e+00
    1.6849760526640913e-02 -2.5193260031673126e+00
    1.6711305960958014e-02 -2.5272828008487971e+00
    1.6975697265085608e-02 -2.5899315658273641e+00
    1.6504043426831774e-02 -2.4988701922593961e+00
    1.5945856113653990e-02 -2.3808689908589908e+00
    1.5857023339606278e-02 -2.3622578790834314e+00
    1.5967024955091880e-02 -2.3789678149313649e+00
    1.6194554341762132e-02 -2.4236011984912018e+00
    1.6482813441092505e-02 -2.4652677737341251e+00
    1.6586245267521900e-02 -2.4443361390048315e+00
    1.6312052667689748e-02 -2.2728415937773030e+00
    1.7612254713796266e-02 -2.4140405551435515e+00
    1.9070847370283792e-02 -2.6420833099333167e+00
    2.1127960463409007e-02 -2.8421602134022010e+00
    1.9586478405775952e-02 -2.7098517974765683e+00
    1.8340518849648151e-02 -2.5832230575924111e+00
    1.7663237728227237e-02 -2.5011332529954107e+00
    1.7713036583053062e-02 -2.5209985098550574e+00
    1.7400896981121884e-02 -2.4675397498857490e+00
    1.6888095755393431e-02 -2.3527632635567044e+00
    1.6674070277963970e-02 -2.3100150532855466e+00
    1.6920850743419050e-02 -2.3497301392994281e+00
    1.7174098036001860e-02 -2.4016697181154432e+00
    1.7545026464018915e-02 -2.4580395426872799e+00
    1.7366172293204970e-02 -2.3870173310037748e+00
    1.7102775978809479e-02 -2.2453943471498472e+00
    1.8272284479274481e-02 -2.4144491307300040e+00
    1.9287331977134965e-02 -2.6374810925583856e+00
    2.1068508560431742e-02 -2.7981444832021065e+00
    2.0698106962623797e-02 -2.7783465322658993e+00
    1.9539117170738689e-02 -2.6255169040808553e+00
    1.8547536659723557e-02 -2.4581997443386592e+00
    1.8617270646297333e-02 -2.4803750070847799e+00
    1.8439827329675730e-02 -2.4458665437432230e+00
    1.8115622992390688e-02 -2.3717590323697206e+00
    1.7832120485218438e-02 -2.3150834975048964e+00
    1.8092399517515186e-02 -2.3417146673388136e+00
    1.8161881993882936e-02 -2.3491235090024141e+00
    1.8508806800015938e-02 -2.3923026593420600e+00
    1.8332795925598860e-02 -2.3235258597745441e+00
    1.8153658977040899e-02 -2.2414747611822072e+00
    1.9550869287394714e-02 -2.5256395311775690e+00
    1.9718684034258284e-02 -2.6572395148803887e+00
    2.0994443650838031e-02 -2.7463189091893581e+00
    2.1117550715387356e-02 -2.7608951012420522e+00
    2.0415739076053246e-02 -2.6048528362621766e+00
    1.9491872613647963e-02 -2.4208698425803816e+00
    1.9256667236406726e-02 -2.3798782406253638e+00
    1.9203686829291154e-02 -2.3678554449597469e+00
    1.8887582842804337e-02 -2.2976342664806735e+00
    1.8708890508060766e-02 -2.2637558484003444e+00
    1.9049908469621429e-02 -2.2900016566492365e+00
    1.9245795452775400e-02 -2.2884274505874034e+00
    1.9513900054647721e-02 -2.3036781798555932e+00
    1.9635177237682891e-02 -2.2886887919161718e+00
    1.9904899474649254e-02 -2.3494134007578031e+00
    2.0661929558454625e-02 -2.6188336292057457e+00
    2.0268211144448506e-02 -2.6598577218808757e+00
    2.1161558980088886e-02 -2.6919304006416049e+00
    2.1226521171105194e-02 -2.6792611813090002e+00
    2.1581898182730104e-02 -2.6428871082045160e+00
    2.0365522303435971e-02 -2.3567242394927215e+00
    2.0277977630761515e-02 -2.2897072592624022e+00
    2.0098650243953544e-02 -2.2551113204572131e+00
    1.9753132550817877e-02 -2.1900970506157340e+00
    1.9297815237126020e-02 -2.1292059675566897e+00
    1.9182207736276768e-02 -2.0980029546453345e+00
    1.9463454918303712e-02 -2.1110808613303971e+00
    1.9764837714836319e-02 -2.1183490481453346e+00
    2.0669390887767768e-02 -2.2482140446052425e+00
    2.1244599723333174e-02 -2.4554011146192405e+00
    2.1230015098384014e-02 -2.6257689205885359e+00
    2.0815764449583531e-02 -2.6296289495995686e+00
    2.1504232844654907e-02 -2.6013716225865942e+00
    2.1190552487924098e-02 -2.4852009440146046e+00
    2.1259322986550422e-02 -2.4063744316691116e+00
    2.1017687326690546e-02 -2.2856287782939231e+00
    2.0682455807034986e-02 -2.1390499879237526e+00
    2.0186982375018155e-02 -2.0168083923433029e+00
    1.9538864093363171e-02 -1.9237882442222853e+00
    1.9164780628874650e-02 -1.8641826774480357e+00
    1.9009007629485413e-02 -1.8250062888703937e+00
    1.9036467097505706e-02 -1.8172130485035980e+00
    1.9289517370930986e-02 -1.8526350188989578e+00
    2.0164193926759923e-02 -2.0298907903206787e+00
    2.0561820732697311e-02 -2.2684719351961431e+00
    2.0956386190579310e-02 -2.4514735977683952e+00
    2.1360235237613892e-02 -2.5589561814661441e+00
    2.2537256664862268e-02 -2.5789095091942342e+00
    2.1853282139591004e-02 -2.4061626044314144e+00
    2.1297360394297363e-02 -2.2655633538593243e+00
    2.0970982736346681e-02 -2.1633576552590825e+00
    2.0800202262338519e-02 -2.0394155760727974e+00
    2.0069357676912095e-02 -1.8453133872505449e+00
    1.9564933577931685e-02 -1.7166564113905016e+00
    1.9026027048654432e-02 -1.6385659784295954e+00
    1.8716051028565574e-02 -1.6006603981791954e+00
    1.8754557562301332e-02 -1.6004820197156258e+00
    1.8889832336063245e-02 -1.6659023519439438e+00
    1.9651808444596717e-02 -1.8751170244816688e+00
    2.0711201932721957e-02 -2.1736626760327149e+00
    2.1691170630515615e-02 -2.4360338403740869e+00
    2.2143041960354218e-02 -2.5654127496727406e+00
    2.2581079597627222e-02 -2.6131594027977547e+00
    2.2233625805509666e-02 -2.4981134288028821e+00
    2.2055912361561313e-02 -2.4178676607678815e+00
    2.1577215947204579e-02 -2.3076143820983788e+00
    2.1351277754567830e-02 -2.1966149125648844e+00
    2.0460410243039170e-02 -2.0101482408030962e+00
    1.9848063007441161e-02 -1.8762120581406374e+00
    1.9582481479919745e-02 -1.8147543900837966e+00
    1.9280144266126013e-02 -1.7951250067187392e+00
    1.9389809714138114e-02 -1.8378651765002953e+00
    1.9607887455135947e-02 -1.9233877431656599e+00
    2.0127620004900929e-02 -2.0853927314013951e+00
    2.1158489435710585e-02 -2.3289419430262415e+00
    2.1979743400965639e-02 -2.5232043943136184e+00
    2.2286885588501275e-02 -2.6205821034164440e+00</input_scale>
  <output_scale>
    5.2631578947368418e-01 4.9999999999999994e-01 5.2631578947368418e-01
    4.9999999999999994e-01</output_scale>
  <inv_output_scale>
    1.8999999999999999e+00 -9.4999999999999996e-01
    1.8999999999999999e+00 -9.4999999999999996e-01</inv_output_scale>
  <weights>
    <_>
      7.2230287045617798e+00 2.0139788791100946e-01
      1.0157135232926214e-01 -6.4261536290833119e-03
      9.6991873869784792e-02 5.5849853506622094e-01
      3.2332331499614099e-02 -4.3310206770702786e-01
      4.0056578468966980e-01 -6.3992250785172899e-01
      -1.0586007771190027e-01 -1.5314067789252414e-01
      1.0412644977584880e-01 -7.3221551144406183e-01
      2.3523391056807219e-01 4.1662950640346602e-01
      -3.0832588677969541e-01 -3.9085763168532894e-01
      -1.4807514196298394e-01 1.2977286250028341e-01
      9.4717917805785382e-02 -8.3028103793368091e-01
      -5.1215847813497965e-02 -3.2351638848324826e-01
      -1.6608947036375632e-01 8.7965030085540227e-02
      2.0040064235309391e-01 -1.2066044560785294e-01
      1.5936389031735221e-01 8.8978401578108296e-02
      -3.0331172078608356e-02 2.0682513665084022e-02
      8.2105921116760960e+00 4.6690595814156965e-02
      2.3127676552458041e-03 1.3595785694291448e-01
      3.2709528320711660e-02 3.8255814963920270e-01
      -3.8629879541790466e-03 -2.9423292400870887e-01
      1.3998485966729809e-02 -4.8775290849470704e-01
      1.5423508618648057e-01 -1.5706269180002227e-01
      7.2287442859340398e-02 -3.0908847348031482e-01
      1.5206137587737914e-01 3.4654508977348047e-01
      -1.2075434180628436e-01 -4.4458112825120022e-01
      -1.5095916374001725e-01 1.0725512300112443e-01
      4.0693801980716190e-02 -5.6589542461656628e-01
      1.5986226470114200e-02 -2.6304713485880055e-01
      -1.4080170271119855e-01 8.6789065288798470e-02
      9.8379298334963561e-02 -8.7996579757905050e-02
      -2.2736898801857808e-02 1.4217812990800535e-01
      -7.9542679558765303e-02 2.8790027682556674e-02
      9.6974389644002486e+00 -1.7402765745135385e-01
      1.8362882437054712e-02 4.4280543760406371e-01
      -2.7762419676446153e-02 -1.6265925703594844e-01
      -5.7089436827169188e-02 -2.9282720050998151e-01
      -1.0740211187712070e+00 -1.4398119308445526e-01
      6.0619794544932559e-01 -1.6293271282639935e-01
      1.3414006778801757e-01 7.0837986635017669e-01
      -2.9842865981668992e-02 3.1442462222355683e-01
      -1.8259241183098826e-01 -5.2289668008898715e-01
      -4.3859200769776584e-02 9.4289565484508356e-02
      -2.4073952844594418e-02 6.0953769054792932e-02
      7.3482325604719984e-02 -1.4695482981497410e-01
      -2.3501356758580061e-01 2.5545397789891545e-02
      -6.9470744881031762e-02 2.1448965604459011e-02
      -2.0703940384047331e-01 1.9190114056678576e-01
      -1.5378034514994504e-01 2.1395353410739403e-02
      9.8743501887002587e+00 -8.3059279261895075e-02
      2.6715570163146456e-02 4.6507101489381958e-01
      -6.1823443789807253e-02 3.4026611349864686e-03
      -1.8371486742062612e-01 -4.9883100078290926e-01
      -9.9514461221647266e-01 -8.1901439419394553e-02
      6.2564662115093528e-01 -1.7094479252502512e-01
      1.9484864163874424e-01 5.6146569517358513e-01
      -7.9486606282987537e-02 2.5284971751137286e-01
      -4.3697393604669468e-02 -4.9550623187702791e-01
      9.7243582975250709e-02 1.7877856955161087e-02
      -1.6832403714507091e-01 3.3722337439807282e-01
      8.3789328360269574e-02 -1.4307503484505091e-01
      -3.2570991193762111e-01 1.1720852226400241e-01
      1.2892406088003325e-02 2.2879669887211757e-02
      -1.7403040605041084e-01 1.5428640881310551e-01
      -1.1309404318194233e-01 1.4138938052231273e-01
      1.0586155149080419e+01 2.7645231994799402e-02
      -1.0592821536874686e-01 3.6114972434942783e-01
      6.7151479307538536e-02 1.9214394911391580e-01
      -1.8660821338475278e-01 -3.4379382591016922e-01
      -1.2977647766546798e+00 2.1697339707994820e-01
      7.3121906152405391e-01 -1.7200738337004337e-01
      1.3266043730302918e-01 5.0502083172256551e-01
      -7.3381871292967429e-02 9.3309401573473283e-02
      2.8803986919084135e-02 -3.4942722117047070e-01
      1.1891472630389618e-01 1.5492962997608826e-02
      -1.5007167073900338e-01 3.8734544019958039e-01
      1.6860580519446103e-01 4.5258615316452588e-02
      -5.4747336192524021e-01 2.3514647873028130e-01
      1.3685156058757197e-01 -2.8902612176821611e-02
      -5.7268032761705938e-02 1.3526218202653489e-01
      -1.7231682800377784e-01 -5.7167638795349524e-03
      1.1585771492223580e+01 1.4469609558058324e-01
      2.6109565057450988e-03 4.6993183082440521e-01
      1.2753261189567994e-01 1.7946243622205130e-01
      -2.9650832458593573e-01 -6.1833654778156638e-02
      -1.3485533084124670e+00 4.4595603356450719e-01
      4.6182051027143500e-01 -1.7427132164019168e-01
      4.4134813201588338e-02 4.5887272720060179e-01
      -2.9836459343361831e-02 -1.1487350326573006e-01
      1.4726952040076358e-01 -2.4042349937195803e-01
      1.3824062357891190e-01 8.2645491803717053e-02
      7.5123777444938131e-02 1.9396128759902567e-01
      2.3824121682939559e-01 9.1031407840671125e-02
      -6.8632011804823734e-01 2.5960879978651219e-01
      -1.1852221695967363e-01 -3.0732076642306930e-02
      1.1136677881465178e-01 1.6967150551027854e-01
      -1.5402034647979179e-01 2.3329412305015985e-02
      1.1478513569956108e+01 3.0605181565885448e-01
      4.0547705697401633e-02 6.3120406985168220e-01
      1.4182048265803116e-01 -2.0812820988586184e-01
      -3.3356207062744025e-01 2.4740705855833547e-01
      -5.5660379731025611e-01 4.4085027500315799e-01
      5.1410105664742342e-02 -7.5269706767410308e-02
      2.4840263825914352e-01 1.5328146335258463e-01
      -1.6235489474864803e-01 -6.3530554590663308e-03
      1.5657898530317410e-01 -3.6312230738952017e-01
      6.4331359699085711e-02 -3.9754166534635302e-02
      3.1277190589394022e-01 3.0917668367890655e-01
      1.6345007333579825e-01 1.7411328515056596e-01
      -4.6063186107432025e-01 2.5299722582719103e-01
      -4.7706638507075538e-01 -2.9259945514927714e-02
      1.9044495418237878e-01 3.9288887820806147e-02
      -2.3484702276909489e-01 7.0328411104165212e-02
      1.1954342483407958e+01 3.4045191934432339e-01
      -5.7467582052123226e-02 5.1565773269351667e-01
      6.1972200297105956e-02 -1.5878818497171068e-01
      -3.0134252626769692e-01 3.3300381424162684e-01
      -2.7601837876960822e-01 3.7011512712814776e-01
      -1.5111155304788493e-01 5.3431664971417261e-03
      1.9640552754958174e-01 -1.2521753777523920e-02
      -1.8965465886986857e-01 -1.7011414319211676e-01
      3.7567091264423508e-01 -1.5889699291322429e-01
      9.9768267426711535e-02 -1.5886324323458173e-01
      3.2686348786025632e-01 3.0714339955441866e-01
      2.1521027552375321e-01 2.0167937767078140e-01
      -4.3385104358908511e-01 3.0154951819185294e-01
      -2.1053538022912066e-01 -4.7410002143293190e-02
      3.0389282089743153e-01 -4.5651255271408189e-02
      -3.1065911654785772e-01 1.5460133187797828e-01
      1.3011790373570735e+01 2.9817127853009001e-01
      8.6354502897758936e-03 6.0147378698789977e-01
      -5.1075227704806346e-02 -3.4326046877843341e-01
      -4.6309515143486030e-01 3.0624221970071230e-01
      -2.5088694846197696e-01 3.9537053340887035e-01
      -3.4531425596361048e-01 -6.4446005356739132e-04
      3.0339731982290924e-01 2.5480604458007039e-01
      -1.4641343942906287e-01 -9.8097352526298545e-02
      4.1720148085510378e-01 -2.4579917379331281e-01
      1.8890129045621304e-01 -1.3660563794998809e-01
      3.6988810896622848e-01 4.2598398306384766e-01
      2.7518119359062471e-01 2.8547861200786467e-01
      -5.1864454861938170e-01 2.6685687847100964e-01
      -9.1227443161463251e-02 1.0535516090048018e-02
      3.0322852722398519e-01 -1.0871671479352540e-01
      -2.7870936749787656e-01 -9.6357326875559632e-02
      1.3305336464913669e+01 1.7985054804965048e-01
      7.7920821415546238e-02 5.4901366319307243e-01
      -7.2749763203070680e-03 5.5467337407913507e-02
      -3.0451271416936743e-01 1.6523294301439248e-01
      -8.1873540992542726e-01 4.9438968022969609e-01
      -2.0032904858178747e-02 -3.6430443244230691e-02
      2.5625655517296880e-01 2.6147630742272854e-01
      3.8650081201891229e-02 -1.6352690869612239e-02
      4.2243150315320860e-01 -6.9363515010975374e-01
      1.0920854930388467e-01 -1.3673166410769849e-01
      4.9026771747108416e-01 3.4516187819247840e-01
      1.8318802879151402e-01 3.4923383325937324e-01
      -6.0936226899427959e-01 1.2277678957845115e-01
      3.0420718995088518e-04 1.1114696617608100e-01
      5.3943463279308518e-02 7.0370148001185781e-02
      -2.0421829672127753e-01 -3.5784723611195413e-01
      1.1656904875682596e+01 1.2898349478838042e-01
      6.6718741456584255e-02 5.6197190587498236e-01
      3.2516795043499420e-02 1.5102251853570900e-01
      -3.0242253639529465e-01 -7.2964730305911663e-02
      -4.0568343655506023e-01 3.1532595156336429e-01
      8.6479631418371589e-02 -3.6795445264998720e-02
      1.1296549894577615e-02 2.0711642276499576e-01
      2.0011500264773180e-01 3.4898242990951844e-02
      4.0211664968685601e-01 -1.1007574388652477e+00
      1.4816841725534549e-01 -1.8338902713990335e-01
      4.0553572979236552e-01 8.1884248489851985e-02
      1.1337454338425114e-01 4.4948663866548494e-01
      -6.8739130394321646e-01 9.8495517618506188e-03
      -1.4577623658985983e-02 1.0526749598077040e-01
      4.1713271736505880e-02 1.0335725889278538e-01
      -1.3871313084733980e-01 -3.4720138424981961e-01
      1.1547993431903587e+01 8.8120719480452026e-02
      1.2210142679135909e-01 5.0114533169087128e-01
      6.6777261534652688e-02 3.5827101299692493e-02
      -2.1638199672558109e-01 1.0738690859297602e-01
      -2.5996240725758457e-01 2.3861753025943985e-01
      2.9061898567506572e-01 -5.1848531656501592e-02
      -5.3120560837220145e-02 3.9050760899085435e-01
      1.1363302774917172e-01 1.1952336632017174e-01
      3.7413984201546008e-01 -1.0684485535146258e+00
      4.0332614114887547e-02 -1.7235542139962645e-01
      4.2622688897889760e-01 1.0122691226585837e-01
      9.3069388103441494e-02 5.4314903226788769e-01
      -4.5847654759196532e-01 -1.1220906858840674e-01
      -1.5156822266111783e-01 2.8819336663667788e-02
      -7.1694310110130596e-02 5.0782716250035706e-02
      -4.7315341180872113e-02 -4.4880384796859218e-01
      1.1110108695959598e+01 2.2285976278283651e-01
      2.8826220109195985e-02 3.0882338318488878e-01
      -2.4188027296852483e-03 -7.7666269009959002e-02
      -1.1116912494731329e-01 8.1528348460390365e-02
      -2.6076105526378751e-01 1.3673991365098476e-01
      6.5920963388980833e-02 -1.2048847896901406e-01
      -1.5072251645965240e-01 1.3239257000303373e-01
      2.7957284940955951e-01 5.7459441754917850e-02
      3.0689565921521478e-01 -9.5985234443621348e-01
      1.6085226587483337e-01 -1.2731124774624619e-01
      2.1894143505739697e-01 -2.8086144301085336e-01
      1.2134138131690621e-01 4.2103999807363779e-01
      -4.6106914958265482e-01 -1.5578199754529096e-01
      2.4272328511300893e-02 -3.6959770502502001e-02
      -4.0351271393282560e-02 1.6080957901393417e-01
      1.4845256093879737e-02 -3.7680026082769991e-01
      1.0375670036147854e+01 2.8607192146129123e-01
      -5.4899261288395396e-02 1.3817625700556382e-01
      -1.2772253191524713e-01 -2.3806111647010536e-01
      -1.0004135579928200e-01 1.2861012632691368e-02
      1.2954241276655035e-01 1.3117540849080294e-02
      -1.6503189043367647e-01 -6.3904196315851189e-02
      -3.5390140351178052e-02 9.6980093473667053e-02
      1.8231545805708055e-01 4.0944741536848371e-02
      2.2693988676302479e-01 -8.1649789610273960e-01
      1.9664323893248914e-01 -1.9148691553249539e-01
      4.3073444148468532e-02 -3.0956514547026986e-01
      1.2888100392780680e-01 3.3723611929698699e-01
      -3.7847539697122395e-01 -1.0473691659809412e-01
      -2.4074190140971008e-02 -2.2411916918162189e-02
      -8.4504699860898022e-02 2.0964682548792865e-01
      2.8033818271024864e-02 -3.4940958944207595e-01
      9.5731666304198129e+00 1.8584061662561005e-01
      -3.4999738498170707e-01 2.4832206286157524e-01
      -2.2896298560681941e-01 -2.5746489752962420e-01
      -5.7241611310052211e-02 -2.3619595030191454e-02
      4.6311315005984993e-01 5.9502751964442338e-02
      -2.2657317150408945e-01 7.3445468357518973e-02
      4.3995568754178108e-02 3.5579551411272825e-01
      -4.6276693459712465e-03 1.4467337608986811e-01
      -1.5874003659440292e-02 -8.3531223535971677e-01
      3.0245848771815659e-01 -2.4477873001803419e-01
      -6.5167547534217662e-02 -1.5943754705026614e-01
      1.2125338864163998e-01 3.5613371401436072e-01
      -2.9653105562532994e-01 8.9494660958526567e-02
      -8.2953297664041442e-02 4.6541029226350353e-02
      1.2076072871405429e-01 4.0206624948598030e-01
      -4.8192710250946409e-02 -3.6085965610291604e-01
      9.2895472915891784e+00 1.2937953618493103e-01
      1.4318182948383265e-01 2.8632846421037800e-01
      -1.2327747083476051e-01 2.9193647537211054e-01
      4.4016407246230418e-02 -2.5167461653341563e-02
      1.7177944669881495e-01 -3.2120814643670093e-01
      1.5676835416454418e-01 2.9042418380114322e-02
      2.7224110271948865e-01 6.0616957584240427e-01
      1.8585666347552068e-01 4.3411930554503309e-01
      -4.6790355630807107e-01 -3.5684838674046498e-01
      -4.6365309062589226e-02 -4.4383191436880950e-02
      -2.1890726345263686e-01 -2.0909489950128807e-01
      -7.2681339418246477e-02 -1.4198021059811478e-01
      -1.8047696923893469e-01 -1.8472177343898580e-01
      3.3916796131089122e-01 -3.4897200198581529e-02
      1.3176451709635043e-01 3.2717310234519337e-01
      -9.1116096787921819e-03 -3.6074529546795564e-01
      1.0763022633962759e+01 1.2413305427995548e-02
      1.0405572430582122e-01 3.0196200928426187e-01
      -5.2480622069600337e-02 3.8048503907530323e-01
      -5.6068105151393918e-02 1.0605943202417728e-02
      -1.9030239878676322e-01 -1.3795230869209316e-01
      4.4010059750908193e-01 -1.7981540217635206e-02
      -6.7630302379038013e-02 5.1045115190725332e-01
      4.6956342715451717e-02 1.2657601584779810e-01
      -3.2592385400979174e-01 -2.3182433400794014e-01
      -1.1019063612929539e-01 -3.3319948231955989e-03
      -8.0838092836358816e-02 -5.6439494571610842e-02
      1.9230791965787471e-02 -6.2313180993622583e-02
      -1.8402499513458165e-01 -1.6406415447380948e-01
      3.2779114337099879e-01 -6.9796412641756803e-02
      1.6970105546868685e-02 1.6869937980291855e-01
      -4.4954026655616493e-02 -2.1467709627471793e-01
      1.1094552104181220e+01 -1.6033305330770659e-01
      8.6121166296626209e-02 4.1560958162757888e-01
      4.1904727787893455e-02 2.9911743321588879e-01
      -2.5578315691139614e-01 -2.0009453688248216e-01
      -3.5085786554600229e-01 -8.0674911228264368e-02
      7.4834254176920378e-01 -4.5725201879342599e-02
      -3.6073266234718165e-01 3.6409988927162873e-01
      -1.3105587911007155e-01 -2.2365852648441376e-01
      -1.0313920815772513e-01 -1.6926428981902988e-01
      -1.8864404251632225e-01 2.7262069095505444e-02
      -1.9963670305993851e-02 -5.1741387470047567e-03
      1.1534924165670213e-01 2.7620801251392647e-02
      -1.2645361866629376e-01 -9.7440006969344475e-02
      4.0573150343836845e-01 -1.4540157968186151e-01
      -5.5195433139129384e-02 -5.0874921910785860e-02
      -9.9477746143486395e-02 4.2049291991706256e-01
      1.1571720005972525e+01 1.2760511295169522e-01
      -4.2515536393553745e-02 4.0832316846726896e-01
      2.4199134052674032e-01 4.6603293999182138e-01
      -4.6426942386815495e-01 -4.5861939767254895e-01
      -8.9116480034397413e-02 -2.4923128485151008e-01
      6.7667842055442171e-02 -1.2945816635860039e-01
      -6.1370275232216687e-01 -5.7756789314527379e-01
      1.7975914678112458e-03 -5.9022426920657145e-01
      3.7279726402686675e-01 2.7775665428334040e-01
      -1.7778944225953436e-01 1.6832743879549718e-03
      4.7308110617553150e-03 -2.5753409241478437e-01
      2.6604734083845705e-01 -1.3679465791324601e-02
      -2.7731978788853506e-01 2.2684977969131057e-01
      3.1163549740963420e-01 -1.7514074953652692e-01
      4.0176284682250388e-02 -5.0288185488392390e-01
      -6.0696782868304995e-02 8.0148704866720688e-01
      1.1732781260398262e+01 2.9457282522607586e-01
      -3.3356410001449394e-01 2.2367240784398623e-01
      3.9999374430617929e-01 -2.0602663955606368e-01
      -3.0976625242454231e-01 1.7225820179966131e-01
      -2.5091196425761367e-02 -2.6298894793245997e-01
      -2.3694120272127620e-01 -4.5447159040392433e-02
      -6.9798353965578597e-01 -6.6544310506355830e-01
      -1.5506151317891087e-01 -4.8963341833458845e-01
      4.4288307600222093e-01 5.6486480521803339e-01
      -3.5053352512462677e-01 -6.7781243744108891e-02
      2.1387486616135845e-01 -3.5279544909975186e-01
      3.0212571989021325e-01 1.5583000614253245e-01
      -2.9053595546981870e-01 5.1214809290975660e-01
      -5.9881405709167712e-01 -3.3842663057199840e-01
      2.6538764084072425e-01 -7.4094681199883572e-01
      -2.1058361011517726e-01 4.7263212777878177e-01
      1.0502948389091616e+01 5.8475383126775071e-01
      -4.1779108211857596e-01 7.5101734427889782e-02
      4.4181895921062336e-01 -6.1620100705661063e-01
      -3.9373461231987011e-01 5.5794651809912055e-01
      9.4204196361242187e-01 -4.9956491159792288e-01
      -1.0209363223644272e+00 6.9186332274308676e-02
      -5.9321784612625972e-01 -1.2032606858510544e+00
      -2.2405074396835367e-01 -5.4345506045346714e-01
      7.9877053542973708e-01 4.8514167071170505e-01
      -3.5928934836458615e-01 -7.3273462467458486e-02
      3.6643560659293495e-01 -1.9582825737349557e-01
      2.4455938643502528e-01 2.4091822248518033e-01
      -1.2312523138317191e-01 6.3156864358850784e-01
      -7.2922100860812011e-01 -3.1528831737734292e-01
      5.9036484582073379e-01 -9.2125892602086712e-01
      -4.5474556568954971e-01 4.6715897825682778e-01
      9.5759792485283768e+00 5.0556660428372413e-01
      -4.0677598808517840e-01 2.5940375412682931e-01
      4.5810351933777216e-01 -9.5870870171947220e-01
      -3.7163071768293748e-01 8.7661561692597201e-01
      1.8907173453902346e+00 -6.0523662208385798e-01
      -1.3060188324682827e+00 2.5617993162120134e-01
      -4.6406651185699971e-01 -1.1140244729969722e+00
      -5.3130546700511738e-01 -4.9618798207040682e-01
      8.1408131272112472e-01 5.5208185584217928e-01
      -3.1413795190302285e-01 -2.4507100110937730e-01
      3.1551452058835894e-01 -2.2434035648431752e-01
      1.8571517351748859e-01 2.9071686319236845e-01
      -2.3941733380432947e-01 7.1522906541329723e-01
      -7.3189282168429037e-01 -3.7456439407911551e-01
      7.3806378874677003e-01 -8.4635149017324307e-01
      -5.3748598184388419e-01 5.0388850383294259e-01
      1.0112483634552763e+01 5.1489662717874962e-01
      -3.8691772326559087e-01 2.7860356741019171e-01
      3.9223471905575358e-01 -8.9189433468006352e-01
      -4.4069898333613527e-01 8.2246335856363972e-01
      2.1092983520098487e+00 -7.0643916800447881e-01
      -1.1005056919842826e+00 2.3351327929003224e-01
      -4.1137814068784095e-01 -9.7599443658577623e-01
      -5.6248839326850220e-01 -4.6337904849986772e-01
      8.1700062535534446e-01 6.1601106995950272e-01
      -2.8342221187883126e-01 -2.9517476988735336e-01
      1.9278620530939281e-01 -2.4476514434848509e-01
      2.0354141111723090e-01 3.0438064528997877e-01
      -2.8046157894970392e-01 6.4908976270952812e-01
      -4.0501050282572515e-01 -3.4236362023348188e-01
      7.6985709074161590e-01 -8.6756622413250406e-01
      -5.1978333860741077e-01 5.0716820444363997e-01
      1.0853565851497633e+01 6.3927831165637405e-01
      -3.8429415834133557e-01 1.8670580590137842e-01
      3.4862862201210831e-01 -8.9920678839952350e-01
      -5.5125073950650405e-01 7.9475066884116230e-01
      2.2376531438874712e+00 -6.5065357093602927e-01
      -1.1351341139127145e+00 2.1653912426942157e-01
      -4.3497253442898948e-01 -1.1458896276443038e+00
      -5.5214899659290695e-01 -6.0403099312798048e-01
      8.4211004694195479e-01 7.7660142708513014e-01
      -2.4874410564391700e-01 -2.6056909263852190e-01
      2.7765829699368377e-01 -2.4378856802641419e-01
      2.8297746551378783e-01 4.3214925041836288e-01
      -3.6675247669709682e-01 5.6529215311000913e-01
      -4.0471711291140872e-01 -4.3252911051227350e-01
      8.3485510787281980e-01 -1.0175782587964108e+00
      -4.6786880618089061e-01 5.7532362602379972e-01
      1.2078609687066530e+01 6.2156273542162088e-01
      -4.6149100088133899e-01 2.0443787655991150e-01
      3.3368261837711277e-01 -9.0941873400269768e-01
      -3.8497301908662779e-01 1.0844590794463413e+00
      1.4250749598773553e+00 -3.2947794205566666e-01
      -9.2572377821620344e-01 1.7656572656404934e-01
      -3.0538087299064814e-01 -8.0923367825394144e-01
      -5.5053333144730976e-01 -3.1992861055593563e-01
      6.7741073239657990e-01 3.5076860434713369e-01
      -1.6885722915955326e-01 -2.4748763643805086e-01
      3.3072938887448045e-01 -1.0435912927750876e-02
      2.5218855557432907e-01 4.5537033778061992e-01
      -4.0125505560368596e-01 3.8361000302118797e-01
      -4.5258559891124384e-01 -3.2689713930768532e-01
      6.9151012329641359e-01 -7.4846369862906481e-01
      -4.3333092827600961e-01 2.3150906016313180e-01
      1.2946839017390312e+01 6.0904049063053456e-01
      -2.9096324489837827e-01 2.8741698379744646e-01
      3.4284915646375291e-01 -5.8331975793143120e-01
      -3.8785853984024321e-01 8.7846826809445722e-01
      1.1706558767484865e+00 -2.4741779007646877e-01
      -6.4892325218559066e-01 6.5776433062766010e-02
      -2.2165935428435074e-01 -4.0487263522946959e-01
      -3.7099543878603314e-01 -1.7884390638785608e-01
      3.7716421023510216e-01 -9.9758260880644878e-02
      -1.0552172395259417e-01 -1.2333085202041606e-01
      4.2679876991637661e-01 1.8137617501237185e-01
      2.3535407298371483e-01 5.0707729895028353e-01
      -2.8246981581318081e-01 1.6997419256542437e-01
      -3.9856798910647467e-01 -3.3185754582106952e-01
      4.9482228440599108e-01 -3.4597825075042887e-01
      -3.3002579576404395e-01 1.7352795649265115e-01
      1.2705008571891813e+01 3.5592772010458923e-01
      -8.5858361308974659e-03 5.8735468282794101e-01
      2.4374995323661186e-01 1.3250523225518518e-01
      -2.5252375445759140e-01 1.7861182503711520e-01
      -1.4078133601032009e-01 1.0571008021187434e-01
      -1.4606946836804988e-01 -1.2079214822247950e-01
      2.4205046511066802e-01 3.4643924180710201e-01
      1.6272479972949058e-01 -5.4881827573273936e-02
      3.3003182132594833e-01 -5.9995224804048308e-01
      -1.4918703642234857e-01 4.2385320234674437e-02
      4.7655566379751163e-01 6.3935012746727804e-02
      2.8488897631206123e-01 4.7877713540114764e-01
      -1.1654782924240044e-01 1.7687127319355841e-02
      -4.0948379001847848e-02 -1.3842911148359835e-01
      1.7080468638481136e-01 1.6125646749989198e-01
      -1.2662606884091862e-01 -1.5506324554442000e-01
      1.1487987933484694e+01 2.4146936939620975e-01
      4.6545791260405547e-02 4.2889339039888674e-01
      1.4027512213420029e-01 8.0409512982525938e-02
      -6.7810282374725792e-02 -4.0435788764703336e-02
      -9.7760879022574565e-01 2.0168855589641183e-01
      3.0113302111697704e-01 -1.4909028121301171e-01
      4.5031043319589203e-01 7.4759860319947646e-01
      2.6239894128017344e-01 1.6299866658838341e-01
      4.4846944872350358e-02 -8.2748573314709617e-01
      -1.0397810844722728e-01 2.2146204059271903e-02
      3.4978025007559527e-01 -1.5105605427673871e-01
      1.7781536404831025e-01 3.7216975654819895e-01
      -4.1259289222963458e-01 -2.3774547890490893e-02
      5.2954503686733580e-02 -1.0466413432966572e-01
      4.4320441701671431e-02 4.2860383327372931e-01
      3.3710848210409490e-02 -3.4017510117478761e-01
      1.0284423694682172e+01 3.2076269977100130e-01
      -5.1544667735482198e-02 2.3179926289325876e-02
      4.0039887215404274e-02 -7.7326055601305690e-02
      -8.6666079883416305e-02 -3.1371143521658379e-01
      -7.8605736813809368e-01 -4.6062235573755085e-02
      1.9736477210489498e-01 -1.2236210783787141e-01
      1.4648614966378082e-01 4.6474869393923401e-01
      2.3564163376328282e-01 5.1015804772720975e-02
      -4.7618622944494690e-02 -6.9166569229772068e-01
      -1.0480810836966611e-01 -4.0259851955182342e-02
      2.0698337340924891e-01 -2.1823072004858468e-01
      1.6553544296100944e-01 3.0948347807017035e-01
      -4.1940093779274940e-01 7.4329319545410307e-03
      1.0531684974481083e-01 -8.4014073300320943e-02
      4.1338797425750244e-02 3.9203353798156476e-01
      8.5238517846541989e-02 -3.2597235294303611e-01
      9.4183168674463040e+00 3.7088831718861809e-01
      -2.3598186278912051e-01 -1.0692619081261205e-01
      -7.5898127941116458e-03 5.8424986268280701e-02
      -9.3210124957563950e-02 -4.2802650569856926e-01
      -4.1468261807110857e-01 -1.6654778042128596e-01
      8.3997066891659075e-02 -9.8201811888143795e-02
      1.1353679384727753e-02 2.2924480364907396e-01
      2.6979063332889147e-01 2.6754581977287573e-03
      -3.6645192182422508e-02 -7.0165420114253363e-01
      -1.1817336894683558e-02 -7.3577984884102055e-02
      9.7692329696380864e-02 -3.7447725205098770e-01
      1.2622011568547031e-01 2.2129381938684786e-01
      -3.3264777381076172e-01 1.2192478581597636e-01
      1.8698869697956932e-01 -8.5946933826317712e-02
      2.0543590950730606e-01 2.2382515710738723e-01
      1.1866120895827493e-02 -3.3166796524622572e-01
      1.1370598063344348e+01 1.9313883234502907e-02
      -1.8093040754679351e-01 4.0750403422545495e-01
      -2.3296441014474498e-01 -4.6214406465675451e-01
      5.0499622823660821e-02 3.3267919701017357e-01
      3.1687548219557460e-01 -3.9530449595474820e-01
      3.1190727213338704e-01 1.0905027008187382e-01
      -2.6691495101747190e-02 5.1142440629910357e-01
      1.1477118191125280e-01 3.2000255248023612e-01
      -3.5248771812317864e-01 -2.6110346421706376e-01
      1.0482306570847882e-01 -1.8249794337931963e-01
      -3.6051483467058398e-01 1.4297248430002116e-01
      -1.0922265742421275e-01 -5.5081547837828530e-02
      -1.1377645322268853e-01 -5.4166323699425145e-02
      3.0480426029729857e-01 1.2175667059692841e-01
      1.8264777800560925e-01 1.9404551338104817e-01
      -6.4878085727125070e-02 -1.3416592560260149e-01
      1.3476027611035830e+01 -1.2964193902351820e-01
      -1.9539545909159459e-01 5.6019609179674579e-01
      -2.1269232720118753e-01 -4.0898607689487720e-01
      -6.5755318047748743e-02 2.8120963251746850e-01
      -6.3591267229525128e-01 8.5279692152126579e-02
      7.3891260832765926e-01 9.8838677317232282e-03
      -3.5398936672312066e-02 8.7888812447054299e-01
      -6.2993628641267466e-02 1.8880541803616321e-01
      -2.5436183152301650e-01 -3.1561169874715839e-01
      1.4637013352802123e-02 -1.3481660602186479e-01
      -3.0706160517691877e-01 4.4148495472794558e-01
      -7.1016799548181020e-02 1.6025708174988357e-01
      -1.0211310464801208e-01 -6.4284653344364007e-02
      3.0242768261326325e-01 1.2983414492287104e-01
      1.5752452426595653e-01 3.1488072691881352e-01
      -3.6836225305137388e-02 -1.3004996847418704e-01
      1.3889634586114285e+01 3.8547274185020582e-02
      -2.3313267264802989e-01 3.4258855160744522e-01
      6.1319477161173142e-02 -2.2636726043717922e-01
      -2.8079933729517370e-01 -1.7520359967187155e-01
      -3.9884271867554683e-01 -1.2185290464179099e-01
      1.5479525872775710e-01 -8.9735517660707573e-02
      -2.5143753918015199e-01 2.8405477751847857e-01
      -1.2153570703540297e-01 -2.7229818530960631e-01
      2.0981600228766600e-01 -1.3905646466677454e-02
      -2.8566715799949949e-01 -1.3293506153431509e-01
      -5.8692601787802633e-02 6.5889951935850705e-02
      1.4286100953886369e-01 1.5219363487771281e-01
      -3.0141601357265907e-01 2.4161479058619972e-01
      5.9508526203683715e-02 -5.6460264840023616e-02
      2.2251595481803829e-01 7.4964346999329953e-02
      -1.6980593985443125e-02 3.3176018939216684e-01
      1.1902705712706615e+01 2.0617975911312539e-01
      -2.2723219022841759e-01 2.5578214716881176e-01
      3.0606692922059681e-01 -9.7732325757780336e-01
      -3.0880960458199891e-01 5.4408581282026258e-01
      7.6894672971983713e-01 -4.7475441842532945e-01
      -2.1878585513231245e-02 7.6430663859068590e-02
      -7.7410973442366526e-01 -3.2956256876609441e-01
      -4.1149533310187708e-01 -5.1851922287862817e-01
      2.5849631405507845e-01 6.7773536243586774e-01
      -4.9222991263118937e-01 -2.2143424736716086e-01
      4.8496125647731436e-01 -3.6389643905799990e-01
      1.6755176703405228e-01 2.5527526134452561e-01
      -1.7538920560945651e-01 1.8939373411183286e-01
      -7.8949495292619520e-01 -5.3437232412580427e-01
      1.1331646819339479e-01 -5.8387256330404047e-01
      -7.3497852090607427e-02 6.8789848700474765e-01
      1.0652701009575214e+01 3.5814908924481748e-01
      -4.3591831493125210e-01 1.0775964324243166e-01
      2.3747954109724878e-01 -6.7359094788695750e-01
      -4.3682160371300666e-01 3.5089972371123535e-01
      1.4279806587293093e+00 -8.8905084240361720e-01
      -5.4798397544637867e-01 8.2235539480118414e-02
      -1.0577488574391427e+00 -9.2663728993402217e-01
      -3.0587551601242907e-01 -5.4731220693570126e-01
      5.1605498584675757e-01 4.7168856691770572e-01
      -4.9339902503955746e-01 -1.1360125955217593e-01
      5.9075323904314014e-01 -3.1356599948158853e-01
      4.5443380183925700e-02 3.4183882634637247e-01
      -1.6154460445503796e-01 4.7034745460671107e-01
      -6.6827145022206058e-01 -4.1942735863894914e-01
      4.5374064932926578e-01 -1.0522988720778197e+00
      -2.7774520671702846e-01 8.3403438073059133e-01
      1.1241174026204577e+01 4.5296657023769721e-01
      -4.6026194952921046e-01 2.7593325308868773e-02
      4.0377102372369522e-01 -5.5415225855741790e-01
      -4.9394304230930602e-01 5.0535154368621626e-01
      1.5244757976165391e+00 -8.3021250366311017e-01
      -9.2718405661388537e-01 1.1719489053977829e-01
      -9.0137507152387808e-01 -1.3162978606219791e+00
      -4.0182663761672999e-01 -6.0383102350029716e-01
      7.9530059902386818e-01 5.7914753942595787e-01
      -3.5726585015217943e-01 -1.5239262274897677e-01
      5.9339793230602644e-01 -3.4417014446595140e-01
      4.0523828894913828e-02 3.2309460181992306e-01
      -1.2944558058106870e-01 6.1601106605295763e-01
      -6.0969044893913082e-01 -3.5814229106300938e-01
      8.3645674769059708e-01 -1.2089029129859161e+00
      -4.2701832577730803e-01 6.9060507176836483e-01
      1.1746071924788261e+01 4.5624704799055177e-01
      -3.6195816888376636e-01 1.6973203782314367e-01
      5.0043022497429412e-01 -8.7238660984934668e-01
      -3.4323801312707269e-01 7.7756022446269346e-01
      1.2645581790627487e+00 -6.9652048752816709e-01
      -7.1198266897474349e-01 1.2827281666290502e-01
      -6.4601814959718362e-01 -1.1828396286725908e+00
      -6.2133097959265771e-01 -4.9022607123001838e-01
      6.8613593168435083e-01 8.3224413485749027e-01
      -3.6851588113831046e-01 -2.3272657098823149e-01
      5.1326444203729260e-01 -3.3464106108829744e-01
      -2.8739967194038188e-03 3.2120834180136787e-01
      -1.1719854440950588e-01 4.4107605809597139e-01
      -7.6917745070841770e-01 -4.5609015058818475e-01
      8.2240683461882580e-01 -1.0029546318234803e+00
      -4.0185951446299384e-01 6.0525758655667339e-01
      1.1867920515993115e+01 4.9604648444770466e-01
      -3.0316889304291195e-01 1.5118394902873944e-01
      5.3565228151741584e-01 -1.0318238316209654e+00
      -3.1799069992496032e-01 7.8758673677655455e-01
      8.7947740468365576e-01 -6.4563348086459693e-01
      -5.0061523758519377e-01 2.1480891762874096e-01
      -4.2742864812187381e-01 -9.2388517185255203e-01
      -5.6364003951498187e-01 -4.0780368138210005e-01
      4.6952620166312453e-01 8.4344621721416813e-01
      -3.9420419702330745e-01 -2.7896305062491450e-01
      3.2901714909289270e-01 -2.7352725343401263e-01
      4.2262929098414052e-02 3.5790271551969849e-01
      -1.2408859995896412e-01 3.7391365165723833e-01
      -5.2730528712867131e-01 -4.6227495801366059e-01
      7.0340922083694613e-01 -7.6756726127613173e-01
      -4.1920904297520500e-01 5.2542649825352905e-01
      1.1999986880310271e+01 5.1426229139543034e-01
      -3.2192094095257173e-01 7.5379849660097809e-02
      4.6145554381392140e-01 -1.1730521160033041e+00
      -3.8565939930471727e-01 7.2908346245137956e-01
      1.1327841416803714e+00 -7.1409617763913280e-01
      -4.2778303628121306e-01 2.1109837840971737e-01
      -3.5335703348455133e-01 -8.9381944222057774e-01
      -3.8723324639999435e-01 -4.6625738657545091e-01
      5.3303898172422892e-01 6.8292832384132607e-01
      -4.5297017264214423e-01 -2.2673185063275822e-01
      2.7622257173260717e-01 -3.0649551563173688e-01
      2.2223640733702310e-01 4.3328618183191342e-01
      -1.1125741804268942e-01 3.8594013674392208e-01
      -3.1263002389257499e-01 -4.8098771982464977e-01
      7.5866881959096655e-01 -9.6781755566961025e-01
      -4.0498444247433651e-01 3.7678145137469948e-01
      1.1879130326297755e+01 4.7962737111001141e-01
      -4.6918165952381113e-01 3.2417818000315096e-01
      3.4168211032618312e-01 -1.1161777101764454e+00
      -4.3686836212537500e-01 6.6483128613643327e-01
      1.7248078142309289e+00 -8.8473397765824890e-01
      -5.4879571377275416e-01 1.9768035716895579e-01
      -5.4372589983613551e-01 -9.0385187057923833e-01
      -4.4324403461469170e-01 -6.0673245206419835e-01
      5.7734599738708503e-01 4.2283087575908757e-01
      -4.8355677337113784e-01 -2.4124943291947226e-01
      2.4800046957677219e-01 -1.1653066521260173e-01
      1.6701844997142304e-01 4.1377338540290542e-01
      -8.2727674407215235e-02 5.2314704750416652e-01
      -4.6268294619051215e-01 -5.0238045054024927e-01
      7.3720419307970009e-01 -1.1882590347952307e+00
      -3.6692984648627669e-01 5.3786389549292768e-01
      1.1433860751820943e+01 5.8013662137448785e-01
      -4.8741760088404407e-01 1.9590163604063909e-01
      3.6136868259940241e-01 -7.6500675994689138e-01
      -3.9163572203745445e-01 7.6345544417387445e-01
      1.7096422597392229e+00 -6.9484306941099039e-01
      -6.5536668933673969e-01 2.2864674247035641e-01
      -6.4886285129379651e-01 -9.1105464616097254e-01
      -5.4498702884997463e-01 -5.3640174364626492e-01
      4.8224605974165424e-01 1.8752303826108499e-01
      -4.7583760854359886e-01 -2.7897868313308383e-01
      3.9855358335655094e-01 -7.9919656825301194e-03
      1.2469630623033315e-01 3.2134551803822070e-01
      -4.0807177923585861e-02 5.0042775973366793e-01
      -5.7425532321121975e-01 -4.9654939917395829e-01
      7.7013325637173835e-01 -1.1159637622635490e+00
      -2.4976664364572446e-01 4.7264328115516852e-01
      1.2603468201691861e+01 6.0718342966011385e-01
      -3.5257042470696515e-01 1.1670908176955108e-01
      3.0842991619867793e-01 -1.8705802853141140e-01
      -2.2283052823106145e-01 5.3519277938394072e-01
      1.0953007027424213e+00 -5.2975492334117280e-01
      -5.9292495465198203e-01 1.5450617120863286e-01
      -3.6791069584722691e-01 -6.3445616431026708e-01
      -3.2875930626013145e-01 -1.5352538844133826e-01
      3.7799863903664238e-01 -2.5161689993378139e-01
      -3.1292007950209100e-01 -2.0010611642726855e-01
      3.2242136970857560e-01 2.5782496546348077e-01
      1.9722503474584890e-01 3.0033421407450561e-01
      2.3257757943490980e-02 3.9542549512158398e-01
      -2.6875681479605357e-01 -3.5427866888876952e-01
      6.0068015694476140e-01 -5.8382501013411281e-01
      -1.3248578483352300e-01 2.4681280752887738e-01
      1.3337352857135388e+01 4.2279671249072892e-01
      -1.7098733544671479e-02 2.5074934167650842e-01
      3.2370266149772969e-01 6.1169141618433752e-02
      -1.8958913868920391e-01 3.8869483228070788e-02
      -4.9339438957428705e-01 -4.6272694708753545e-02
      -1.1099021580270761e-01 -1.3389118742432798e-01
      -2.2523184446899727e-02 -4.2675696809250339e-02
      2.2906277289685872e-01 -8.3468688656474097e-02
      2.3362213727148048e-01 -5.8336303722456817e-01
      -1.7237802417693557e-01 -7.2286514016392913e-03
      2.0770026314528958e-01 3.7605902391276452e-01
      2.5302142536276295e-01 3.0227587351939006e-01
      -1.1326350219759830e-01 1.6911090065722606e-01
      -6.1728631249859583e-02 -2.5286836148921682e-01
      2.1638230194932687e-01 -1.0221066128719702e-02
      2.0536386813388711e-02 7.0267533577319499e-04
      1.2313646674355889e+01 2.5353245044268541e-01
      9.5960860228885225e-02 2.3520951260665363e-01
      8.8099552461458799e-02 -1.6907287629151846e-01
      -1.4800299974508241e-02 -4.3746181695702857e-01
      -1.4399714999075044e+00 -1.1488286986399183e-01
      4.4897887212023463e-01 -1.8439700406245829e-01
      -1.0789524965052522e-02 2.1000312396469059e-01
      3.5128452217703465e-01 -8.3562450816935235e-03
      -6.2030019598331406e-03 -8.9389138940951762e-01
      -5.6339835789708595e-02 -7.8289760100447831e-02
      1.4044506444960780e-01 3.9567933314923059e-01
      1.5875011793718607e-01 2.3008895359903475e-01
      -2.0351692673970576e-01 3.6887874649774194e-02
      3.2964612406383348e-02 -2.1441222250604450e-01
      4.2295386514342927e-02 1.1392894742796246e-01
      1.4923411948152557e-01 -2.3163862267413501e-01
      1.2188794961315518e+01 1.9404487424609190e-01
      1.8551846571591951e-01 1.5610022235941698e-02
      1.4905410002275829e-01 -9.6404084481437627e-02
      4.3258576902960789e-02 -3.9780908079907640e-01
      -1.2637887244650192e+00 -4.3173787630691636e-02
      4.6639023838740024e-01 -1.8612414052742865e-01
      1.0144818125845747e-02 2.0540295837191241e-01
      4.1610208586599101e-01 6.6577261980344709e-03
      -1.0114928113432199e-01 -1.0024502618537383e+00
      -9.3128001964811510e-02 -7.6032233744131983e-02
      1.4858186136507587e-01 5.5943749118788455e-01
      1.3095354655854444e-01 2.0992203920435637e-01
      -1.6869973364633009e-01 -1.7917158452042539e-01
      1.0425019460210798e-01 -2.1634403527233875e-01
      -2.3194966427216343e-01 2.2917261362686786e-01
      1.7034782141557708e-01 -3.4048230857878803e-01
      1.2920097767809706e+01 -3.6106261660912053e-01
      -5.0299318151641770e-01 6.0603669679443062e-01
      -4.5000077747048101e-01 -5.4799186089096652e-01
      -1.3029920006599874e-02 6.7798815949053792e-01
      -8.4317399610109534e-01 3.5065871243184760e-01
      5.6082121910136828e-01 2.2743610410826098e-01
      3.2818237529219663e-01 1.5790437382395173e+00
      -1.5464699044139066e-01 5.5160381985356421e-01
      -1.2927381760945003e-01 -6.7587969950178828e-01
      1.0914323789022330e-01 -2.5064093510723429e-01
      -2.8899973026931908e-01 6.1292380396318380e-01
      -1.1759991602026547e-01 2.0990009568815873e-01
      5.4518663506447247e-02 1.2995907993041847e-01
      1.4664314164015374e-01 3.6577300791967643e-01
      -1.5894256817275501e-01 6.2444988508735044e-01
      -3.1161917128963357e-01 -5.0866068960073429e-01
      1.4624007976516856e+01 -1.1895400212262713e-01
      -3.1663594952264340e-01 3.2950245330543848e-01
      -1.6947825199618424e-01 -9.9418806410742494e-02
      -1.5246280253736441e-01 1.3158644628389590e-01
      -9.4042638515221300e-01 1.8720619591608953e-01
      2.6151990366748940e-01 -8.3549653303878618e-02
      -1.1746008036176687e-01 6.2500464715565740e-01
      5.4774883040339298e-02 6.7888468825325787e-02
      1.4917469297742933e-01 -4.3506151850733743e-01
      -2.4841752354432195e-01 -1.0634871593709941e-01
      -1.3474396282167306e-01 1.3540693300732320e-01
      -1.9125113641289548e-02 2.1623523177474965e-01
      -2.8766772124134349e-01 1.7080720880666364e-01
      1.7400737426738516e-01 1.5662109055470949e-01
      -7.9639236258238748e-03 3.4663558346401813e-01
      -1.1037877629784389e-01 -3.3297841909702273e-02
      1.2554037552190806e+01 1.3851043005604582e-01
      -3.6638817449981115e-01 2.2058591155604534e-01
      1.3760547559089878e-01 -9.9822544969363913e-01
      -2.6025210666757337e-01 3.2538513517972528e-01
      7.4139680412726461e-01 -4.0943010214791531e-01
      -4.6044175053956860e-02 7.0206411559146809e-02
      -7.8779317283212080e-01 -3.0765898885677023e-01
      -2.5389822403179446e-01 -4.8029004939528569e-01
      2.8924154067720131e-01 5.1979514313404429e-01
      -5.5560173646206013e-01 -2.5543247259375973e-01
      1.8703582377232555e-01 -3.8848390197307298e-01
      8.6839509272997564e-02 2.9648515331995628e-01
      -2.1645217565855954e-01 3.7129009949602565e-01
      -5.8991409777420012e-01 -3.4200702772981467e-01
      4.3766602999502652e-01 -6.0919199065887297e-01
      -2.3513481485011548e-01 6.7359318904403220e-01
      1.1219690398348751e+01 2.4031261383261804e-01
      -4.1719327541994339e-01 1.9227541382451541e-01
      2.0011319365792027e-01 -4.9173790512060950e-01
      -6.2419311472251993e-01 2.4194955808282662e-01
      1.4080462151351005e+00 -7.7455789141333498e-01
      -2.9395424464282233e-01 1.6409126699191351e-01
      -9.7119356593021122e-01 -4.7066358158780514e-01
      -3.1462016333071235e-01 -6.4012407595534460e-01
      6.4824425843069744e-01 5.2452969403788485e-01
      -5.4681798537741855e-01 -2.5681866726248470e-01
      6.5165576883168030e-01 -2.8885583625382211e-01
      9.0721813098421047e-02 4.2957532818946675e-01
      -3.0026776328863919e-01 4.4092415643505750e-01
      -5.6680929955756598e-01 -3.3719317022372280e-01
      6.3494311886283727e-01 -1.0488450758736239e+00
      -2.8851557355514429e-01 7.4880148355445442e-01
      1.1061282893956513e+01 2.8477023592158890e-01
      -4.6809927393334788e-01 1.6331901474050142e-01
      2.0326363436170303e-01 -7.2051488695912225e-01
      -5.5940908075719753e-01 8.2857546194167497e-01
      8.3495635464085938e-01 -5.7498937444738618e-01
      -3.4612286067834580e-01 1.8698413445385012e-01
      -8.2272835073982709e-01 -3.7989923502235684e-01
      -4.6113790307893299e-01 -5.8160188965613713e-01
      5.9805021877371256e-01 3.0751608899997868e-01
      -5.8125456834872369e-01 -1.8904868508381481e-01
      7.0376701921510565e-01 -2.4582276196118349e-01
      6.9915242260370852e-02 3.8061545667501578e-01
      1.9106481239466683e-01 3.3663929684826710e-01
      -8.6470191917442130e-01 -3.7623536400646618e-01
      5.2883790413820686e-01 -1.0657357881632814e+00
      -3.7317406023879490e-01 6.1316333368508935e-01
      1.1809646846850329e+01 4.2008735220104310e-01
      -4.2616055359902888e-01 -2.2384488773521005e-01
      3.7058648989812376e-01 -6.6563714690852127e-01
      -4.2516311903587156e-01 7.9604562533605794e-01
      7.3685539952580836e-01 -3.6985716783059402e-01
      -5.9160875812861979e-01 1.4349090188883756e-01
      -7.6688378666234891e-01 -8.2306260301646350e-01
      -5.7201161990970939e-01 -5.4041925812187297e-01
      4.4290690629355101e-01 3.1228517339891376e-01
      -4.9278626720715657e-01 -1.9548475662957962e-01
      7.4842878916213185e-01 -2.6809274985747594e-01
      5.5300214651384981e-02 3.3155531184696407e-01
      4.8614643787827205e-02 3.0013875036808413e-01
      -7.7729524276968298e-01 -4.2904141127090056e-01
      6.3298631346590994e-01 -9.4194799624126901e-01
      -4.0517536100415635e-01 5.6173825747784656e-01
      1.2493714215746456e+01 3.5568319730123715e-01
      -3.7447255895077358e-01 1.5373848146998162e-01
      2.7754559244924110e-01 -7.0216245228395791e-01
      -2.0221062267788312e-01 7.2633452196420933e-01
      2.3945756632225937e-01 -2.1730010967746338e-01
      -3.8507965176616343e-01 1.4647546065601777e-01
      -5.1979015187471600e-01 -7.4917620526320072e-01
      -5.3467851677803113e-01 -2.3380261554471157e-01
      2.6759184580164769e-01 2.2207265180007899e-01
      -3.9077710712132679e-01 -3.4535052073197392e-01
      4.9040631158506398e-01 -1.2117876302850442e-01
      -6.6600026338688390e-02 3.4656015842048454e-01
      1.0111655706494430e-02 2.1140385765103928e-01
      -5.8134923860897647e-01 -3.5971511574160331e-01
      4.1153816657774700e-01 -5.5753332200790595e-01
      -4.2368152674021753e-01 4.7247075273029115e-01
      1.2438170146862237e+01 3.6884565268621694e-01
      -3.9384935806397803e-01 1.6985095740999936e-01
      3.4834185269608647e-01 -8.3604360442291292e-01
      -1.8011566594516651e-01 6.8787135765902307e-01
      4.3350109462371134e-01 -2.9401559260731852e-01
      -4.1814301926296771e-01 2.4373804114993128e-01
      -3.0192232451158457e-01 -5.1982628481384052e-01
      -4.3028502220312070e-01 -2.2520081741761111e-01
      3.1188670204752578e-01 3.4753314557438469e-01
      -3.9202869193134671e-01 -2.9574384467344478e-01
      4.3390695344650454e-01 -9.0236475022318838e-03
      -6.3792675854570546e-02 4.1130247221937760e-01
      -1.2123930485818040e-02 2.5941094906744822e-01
      -3.5698012749355712e-01 -3.4966453235558514e-01
      4.9516635586598373e-01 -5.7744619222102578e-01
      -5.3861740393808866e-01 3.1379331444412639e-01
      1.2426888552061774e+01 4.3514907995353685e-01
      -4.8899079599498702e-01 2.0258668530103312e-02
      3.5177035490500774e-01 -8.8983522426670314e-01
      -2.6105668458076836e-01 5.8377766506624229e-01
      3.7368282410440201e-01 -4.9192233454262435e-01
      -2.1982919383615451e-01 2.0122875209420435e-01
      -3.2025960708728241e-01 -3.1372848317728896e-01
      -2.0726299519639677e-01 -1.5661814972540733e-01
      3.0139405130020730e-01 2.1555074499237248e-01
      -4.3610663398056215e-01 -2.9292183166463387e-01
      2.6539408093720029e-01 -1.7734944298704268e-03
      1.2127455220523949e-01 3.6208304028434551e-01
      8.1556463637486309e-02 4.0430296026687063e-01
      -2.5273913195104686e-01 -3.3715809562261884e-01
      6.6847866475094553e-01 -8.4991612087828672e-01
      -4.3611014833817313e-01 8.5319535191901302e-02
      1.2505877139919752e+01 2.8262305537534171e-01
      -5.6002786162078089e-01 1.1916766707497743e-01
      3.7569858440160747e-01 -1.0888391915747264e+00
      -2.8525802223480740e-01 6.1631399228095496e-01
      7.4583757880004531e-01 -6.5744876493676319e-01
      -1.6617058927809580e-01 1.9240626961882287e-01
      -3.3007512019691088e-01 -1.8562852380932754e-01
      -1.5701172715114589e-01 -1.7022710713465125e-01
      3.3622818317585973e-01 1.7422507252327954e-01
      -4.5248468678315429e-01 -3.0648772744187358e-01
      2.6139374598772619e-01 1.1078239889003727e-01
      1.7545968618554525e-01 3.0497581524158884e-01
      -2.5786609642104844e-02 4.9579169124684630e-01
      -4.7557804079929983e-01 -3.7138506745277877e-01
      6.3902671112791010e-01 -8.9267581484556113e-01
      -3.0231487976113991e-01 1.3307464390701113e-01
      1.1431081855867431e+01 3.3561926642668349e-01
      -6.3436800380206049e-01 2.3542662309929349e-01
      3.2468921443824883e-01 -8.0362269585302681e-01
      -5.7806849120864956e-01 6.4381769165119107e-01
      6.8628244765357560e-01 -6.9938225180276514e-01
      -3.3033094961392040e-01 2.6730267246295719e-01
      -5.0043827940525187e-01 -6.2823318386739568e-01
      -2.2321244309594959e-01 -4.7157952296093292e-01
      6.3269735958267237e-01 1.5288567888618920e-01
      -4.1582460997369491e-01 -1.8840575756675887e-01
      3.4930061384551431e-01 1.4943474596153103e-01
      5.1802879941839929e-02 3.0148943045896492e-01
      -2.3396645375996669e-01 5.5806242025203789e-01
      -7.0702582029951688e-01 -3.8321996973749367e-01
      6.5885115962992835e-01 -1.0673042579343828e+00
      -3.2735930344506559e-01 4.1816902919173554e-01
      1.1439851814044593e+01 3.0584483058128364e-01
      -6.5210217385649061e-01 1.2146521794024036e-01
      2.6774474795684688e-01 -2.7585048819084940e-01
      -3.2747826864830376e-01 5.4935723407800707e-01
      2.5876646121336631e-02 -4.1944686440583584e-01
      -2.1560906567117832e-01 3.0112209156974068e-01
      -4.2087422402931751e-01 -4.7154915673678161e-01
      -2.7404731072181171e-01 -3.5928177806555456e-01
      5.4558619954964249e-01 -1.4983045147063476e-01
      -1.9870303205090969e-01 -2.3878104058933572e-01
      3.0395395088197363e-01 4.0050668239997705e-01
      1.9967347454418197e-02 2.5067475416794316e-01
      -1.2305583827585738e-01 5.5036850097673184e-01
      -7.1883750136111790e-01 -2.9720801565662197e-01
      5.7194439270812270e-01 -7.8428097570082489e-01
      -3.3460870561376654e-01 3.2685810997011716e-01
      1.2465185682861456e+01 3.3655820511860107e-01
      -5.1272203677748818e-01 -1.1425862839950249e-01
      4.7687701171609304e-01 -1.2340062375456232e-01
      -8.2227410196168749e-02 3.5668714481178720e-01
      -9.9633224587100389e-02 -2.0681917045562101e-01
      -8.1590152604629776e-02 1.4935441814979059e-01
      -9.8182256683675570e-02 7.4935683954913845e-02
      -1.3038207559726070e-01 1.1868248457005662e-01
      3.4041494861708560e-01 -3.0602559213418168e-01
      -2.3001628541808475e-01 -1.8764394653731969e-01
      2.8432331730991650e-01 5.7582809740748497e-01
      1.6948263961705970e-01 1.8750022550898288e-01
      8.9344726899481627e-02 3.1120660918834947e-01
      -3.0689926199954054e-01 -2.5752715622399758e-01
      2.9425904134748576e-01 -3.5502508401041821e-01
      -1.5686895658391836e-01 -1.0610783220057868e-01
      1.2495551988955970e+01 1.3336178652134217e-01
      -1.1454522402657834e-01 -9.9174642452073733e-02
      4.7316420626967798e-01 3.6205664718842806e-01
      -1.7078892038273397e-01 1.1728936355333836e-02
      -4.0849287673870932e-01 2.9195560173953237e-03
      3.2445088577014580e-01 -3.6619235969055523e-02
      1.6426179932287996e-01 1.0753810871064090e-02
      2.2582371147356281e-01 1.3942892818840369e-01
      2.1470327615416693e-01 -7.6624037358794084e-01
      -1.1202191904860874e-01 -1.1820324242548871e-01
      4.5115527554165219e-01 5.1136458581431588e-01
      1.0812333521319149e-01 2.7352571348659838e-01
      3.7333753987111438e-02 -4.7911925313349903e-02
      3.3203778351483043e-01 -2.3619312601851847e-01
      -8.1754133013427738e-02 -1.6136082455135486e-01
      3.2376029689290750e-02 -2.0293589821294050e-01
      1.1946857247765179e+01 -1.3719657787640768e-02
      3.2236072382062005e-02 -1.2757208690256547e-01
      3.7376655515608043e-01 3.7362998022110328e-01
      -5.9284859331190445e-02 -6.5295090335119793e-02
      -7.5385774510950265e-01 8.7897253714726828e-02
      6.5672495765740235e-01 2.5274343503832444e-03
      2.3982787323022819e-01 1.6721723717872949e-01
      2.8052187791885647e-01 2.0860865041648388e-01
      4.4259485751939900e-02 -9.3371721138762820e-01
      -5.7095144372537508e-02 -1.4842725425915557e-01
      4.4530419768025964e-01 7.8473055023400307e-01
      6.7991712637161167e-02 2.7396656025244215e-01
      1.0627097153404394e-01 -2.4080111592221048e-01
      5.7159177372144254e-01 -2.2938849653461080e-01
      -2.0846763298856713e-01 5.6351139403440609e-02
      1.3882593514086566e-01 -3.4195584659701628e-01
      1.3825514319168400e+01 -3.5012980438094632e-01
      -4.0812696241386043e-01 6.2243931498903105e-01
      -1.4396757774047073e-01 -2.0472449056834702e-01
      -1.1623615746750469e-01 6.8041744592559184e-01
      -9.7997072688265841e-01 6.0707786581977752e-01
      4.6967913060090033e-01 2.2827878441981192e-01
      4.9458491121070586e-01 2.0134542237832687e+00
      -9.1369125422465988e-02 3.7949378934502742e-01
      1.7438106713481855e-01 -6.8951452468190366e-01
      1.2521725801936115e-01 -2.2890221445558284e-01
      -4.5591211480468997e-02 4.1264255970868557e-01
      -7.7832307315436611e-02 4.3637587855092541e-01
      -6.0198479652917067e-02 3.2207371069315732e-02
      4.3051129911447122e-01 2.7766374699361945e-01
      -3.7008567421211358e-01 7.1559002635143210e-01
      -2.6707534945274503e-01 -5.9708651580528616e-01
      1.3911070871435776e+01 -8.9764047972826305e-02
      -4.6033791911426925e-01 3.1513534598617882e-01
      2.2925419452002299e-01 -2.8924032153847551e-01
      -2.0996206063141085e-01 3.0597615812455070e-01
      6.5129538095880984e-02 -3.9658540493772466e-02
      -2.8951356144473167e-01 9.9932073724144616e-02
      -5.3515588520159967e-02 1.8430867097553319e-01
      6.4614982947406835e-02 -2.2500632908007714e-01
      5.7746138181707729e-01 -2.5329034462655431e-01
      -3.5001126316024800e-01 -1.8421598998964583e-01
      1.1421821577094041e-01 -2.3760816569720439e-01
      5.7873122045581753e-04 4.0731399582406902e-01
      -3.1862024179709708e-01 2.7831511388916957e-01
      1.9575159220193489e-01 -2.6761226872799252e-02
      -1.9740599397278961e-02 1.4459371500762297e-01
      -2.8221552489262497e-01 1.5147672056690933e-01
      1.2803547079806645e+01 5.8509640786842038e-02
      -4.4632959007962220e-01 3.1185408669912917e-01
      3.6420362489748237e-01 -4.7057595385533485e-01
      -2.5669482970808555e-01 2.7932327133356222e-01
      1.0318409059049745e+00 -5.3574188885574858e-01
      -7.4660487564018940e-02 2.6605677968591962e-01
      -4.9814365816720813e-01 -3.1662968296938887e-01
      -2.8988979278052934e-01 -6.3161429557507087e-01
      5.5710368893109585e-01 5.2978431400585524e-01
      -6.7545406146586329e-01 -2.6588399436310139e-01
      5.2574477232659600e-01 -1.7310790827801356e-01
      1.1655641736360337e-01 5.8875037748129233e-01
      -1.1467599653675201e-01 2.6280566168268016e-01
      -4.6947843249201465e-01 -3.8296375152049827e-01
      4.0591522599478480e-01 -6.2445455020849461e-01
      -3.6183214834041366e-01 5.8985735401718487e-01
      1.2540373966045054e+01 1.2743307743587640e-01
      -3.9308942615394366e-01 1.4445579865523195e-01
      2.1828386109761977e-01 -3.3095921718754356e-01
      -5.1834456428841136e-01 4.1596473470558981e-01
      9.5078441959484938e-01 -5.4850242865449172e-01
      -3.7940112040342477e-01 1.3162026232018209e-01
      -4.5687032092696928e-01 -5.3733547237942647e-01
      -3.3069021777429192e-01 -6.3363776004061201e-01
      7.4355834747835381e-01 3.5351849144666414e-01
      -5.2045145354243194e-01 -3.2185807211096507e-01
      5.1349817019649779e-01 -8.7503759409154572e-02
      1.9475172750733649e-01 4.2205264376450458e-01
      -1.8479661242423975e-01 2.9186341591469628e-01
      -5.8393372052871262e-01 -3.3199005551049710e-01
      3.8860119533416798e-01 -9.3076993263072449e-01
      -3.0960843917144310e-01 5.8891351166097816e-01
      1.2478239850804353e+01 2.4386197235682669e-01
      -3.4343061916387913e-01 -2.9900175751502828e-01
      4.0392064176369130e-01 -3.6685863068412972e-01
      -4.0822599933669679e-01 5.4573108524157132e-01
      2.5525750605983760e-01 -3.1371241410338252e-01
      -3.5592606946173788e-01 6.1177511389969845e-02
      -5.2651901786704713e-01 -4.3942416577523524e-01
      -2.1021349952179763e-01 -5.3865407452083081e-01
      7.5561637307552731e-01 3.1210147045466691e-01
      -5.8943616857351500e-01 -1.2329029515956720e-01
      5.6658055488252368e-01 -3.1614237443064203e-01
      1.8947424703994314e-01 2.2684093985072773e-01
      -2.2211782880826611e-01 2.1857487240905141e-01
      -7.9676784378309162e-01 -3.3959787603116859e-01
      3.6881027167163677e-01 -6.9281107803398856e-01
      -2.7648581992865462e-01 4.3083623460431286e-01
      1.2797526555170043e+01 2.8081242462107203e-01
      -3.8594326487967967e-01 -2.0702136966928233e-01
      2.5481698432292782e-01 -2.0646793926521959e-01
      -1.2982370454826847e-01 5.6260439345347268e-01
      -8.7751979608953631e-02 -1.5878000270485432e-01
      -2.8933965897315173e-01 8.3047496154452186e-02
      -5.8286305575577191e-01 -4.9521930631163924e-01
      -3.4143403636547276e-01 -3.7512900612752809e-01
      3.3279807078857154e-01 -8.9259801643313083e-02
      -4.5709517893940294e-01 -2.0683329045485366e-01
      5.7362360191078721e-01 -1.9502369820275159e-01
      2.2607206812788803e-02 2.4657057446488431e-01
      2.8690620580981246e-02 1.2194243318742008e-01
      -5.0046172515935472e-01 -3.8200074501743775e-01
      3.8174410460306879e-01 -4.9797579237153017e-01
      -3.2028802689025943e-01 3.5203854671129137e-01
      1.3244647157495381e+01 2.5154608362483777e-01
      -3.9718827799853346e-01 -9.8789968488462707e-02
      1.4650089650938966e-01 -1.0171792844310711e-01
      -7.5580467389380193e-02 5.4268667307231300e-01
      4.3062192776989569e-02 -1.2537483713712649e-01
      -1.5054390307874668e-01 1.0734436764558022e-01
      -4.1421628542928973e-01 -3.9430041915788389e-01
      -4.8712278500229816e-01 -2.5188418114641398e-01
      6.0986758294469652e-02 -1.1807164999494957e-01
      -2.8789997581986826e-01 -2.4067469767416033e-01
      3.9992545905325905e-01 -1.0464988107887370e-01
      -1.2047650129299246e-01 3.7377170282818234e-01
      -3.9124986479863691e-02 7.6291739941549933e-02
      -1.5398407784100673e-01 -3.2939182348905405e-01
      2.6454024796977066e-01 -3.5938724969556168e-01
      -3.7296638277002964e-01 3.5827120931873857e-01
      1.3150739801445768e+01 2.8828771782195428e-01
      -4.6091496247324204e-01 -1.0779752768064589e-02
      2.1665611689582054e-01 -1.0419241144105447e-01
      -7.7337290674881404e-02 2.9333580514870344e-01
      4.3144098671777049e-02 -1.0416405244035251e-01
      -7.1319456203724291e-02 1.1271949301271492e-01
      -3.5936942738575067e-01 -5.7997001312007544e-02
      -3.6208028976812151e-01 -2.7043137614805529e-01
      5.8143041462099372e-02 1.4503692400512141e-01
      -2.1959925262483995e-01 -2.6161640291438104e-01
      3.6174083560428222e-01 -5.0566075288685695e-02
      -1.0880364218508354e-01 4.2763280742982152e-01
      -1.2829805014942211e-01 1.9280024686993585e-01
      1.0099975204778042e-01 -2.9472483825460133e-01
      4.0095809271462679e-01 -3.0723062659427747e-01
      -4.6012323960825136e-01 2.5461444539878952e-01
      1.2938293008417133e+01 3.8469983090651189e-01
      -4.9221579614248007e-01 -5.4183834318067975e-02
      1.5068521114497058e-01 -1.1674083455715248e-01
      -1.8400075729594667e-01 4.3210658094559026e-02
      4.0372159143758191e-02 -2.9793681956905266e-01
      -1.7634502135603136e-01 1.3138773534892029e-01
      -4.0278702371445640e-01 -7.3212848264079852e-02
      -2.5233945810106595e-01 -3.8832910863484604e-01
      2.0302630782606515e-01 2.7794208177957153e-01
      -1.3750684143535016e-01 -2.7979443346511246e-01
      2.6264397664443012e-01 -9.5693060407108801e-02
      -2.7506132837584144e-02 3.9227527068769780e-01
      -8.7253850832031077e-02 3.7430859106373154e-01
      -1.2910595621262280e-01 -2.4889027434490271e-01
      5.4064532423685574e-01 -6.4836408625021402e-01
      -4.1644377004771999e-01 3.1074081326314568e-01
      1.2554079868530859e+01 3.0965846172237688e-01
      -5.3165538208858620e-01 -3.5791753950521671e-02
      4.9440104967888608e-02 -6.4550377707631246e-01
      -3.3764355878429197e-01 2.0405749572284165e-01
      2.2636264696676092e-01 -4.1017990122306947e-01
      -1.8073618038030237e-01 1.8333709465454159e-01
      -2.7950281865232696e-01 -1.2568159035706913e-01
      -1.6983571587781376e-01 -2.3847197186689814e-01
      1.2049199889627754e-01 1.3061720126946888e-02
      -1.1587372338562309e-01 -2.9892141890567536e-01
      1.6733725327128626e-01 4.0092245331833816e-02
      -2.6840687687802321e-03 2.9739390484479694e-01
      -1.6199232899076887e-01 3.6009234163084652e-01
      -5.7463481834586705e-01 -2.9623998682712743e-01
      4.4874715770740331e-01 -6.9032931727010061e-01
      -3.4397019843568477e-01 2.1031615592649139e-01
      1.1617822270698801e+01 3.7094046137192677e-01
      -4.4850929912051807e-01 2.8167939837226408e-01
      9.8951430288223341e-02 -7.5257515309787260e-01
      -5.3830516908435222e-01 4.7604513043338387e-01
      2.8804199405037062e-01 -3.9732184995555886e-01
      -1.8930712256562096e-01 1.8612248468812542e-01
      -1.9556012440746784e-01 -1.5172077404089880e-02
      -2.3713638440707729e-01 -1.1622529129038675e-01
      2.4212510437486187e-01 2.1492062051897669e-03
      -1.5860379051568627e-01 -2.2532242165205457e-01
      3.5899753374547877e-01 -1.5073535811185578e-02
      -2.1332156246108801e-02 2.4216825776993528e-01
      -3.0231468231003419e-02 3.6595898209744199e-01
      -8.8764102845717008e-01 -3.7211836435307866e-01
      4.2980261346725218e-01 -5.2525310074116793e-01
      -3.3786740222802164e-01 7.8883199378892765e-02
      1.0874256399930184e+01 2.3335906432962375e-01
      -4.3795652029364124e-01 1.5787056570808117e-01
      3.0506409952839958e-02 2.5923488748665294e-03
      -5.7382326723888122e-01 3.1767961872366307e-01
      6.2097295903121713e-02 -3.5033580989127733e-01
      -2.5185030875593106e-01 2.6695205365198232e-01
      -3.0376712704124648e-01 -1.3063091003832556e-02
      -2.0689320789419646e-01 -3.0322800730182031e-01
      6.6752901596656034e-01 -1.6278033761704258e-01
      2.1788387351112080e-02 -2.2110650578605981e-01
      3.2621095052842097e-01 1.9103544961542915e-01
      -3.1078081552157664e-02 9.0524950436698975e-02
      -1.1790647061539319e-01 4.6844172757442576e-01
      -6.4370075084332479e-01 -3.1389631927556028e-01
      4.1403715802470575e-01 -8.5876412001646851e-01
      -3.4989513159019292e-01 2.2445353953359617e-01
      1.1787049462073941e+01 3.9235736048142220e-02
      -4.9809158560767119e-01 9.9151057583398455e-02
      1.8306772862259638e-01 -4.3747665573508454e-01
      -1.9742395069740729e-01 4.3482205726780454e-01
      -6.6996113499262155e-01 4.0744700469164355e-02
      -1.6925448940548887e-01 2.8661279734095002e-01
      2.0574991769274312e-02 3.6262635228674545e-01
      -3.0752725776859280e-01 1.2052032406087725e-01
      4.6540994890995002e-01 -4.5359701687116188e-01
      -1.5141769683150470e-03 -2.4183375234873106e-01
      2.3378947223358915e-01 7.6450432283890313e-01
      8.0577951667364436e-02 2.4380593974099812e-01
      -5.9114329977886211e-03 4.1323293994051652e-01
      -8.3526326171595622e-01 -1.0676256499677020e-01
      1.2169248425731767e-01 -5.9040093822287332e-01
      -3.8389754822719291e-01 -2.9414930764128253e-02
      1.2539507180800205e+01 9.6090578254771006e-02
      -1.9787414935464617e-01 4.1301871060771142e-02
      3.3276639162088290e-01 1.6716605444808252e-02
      -1.8581336394383483e-01 -7.0541389566133386e-02
      -5.2708099944306952e-01 2.1424642070451701e-02
      3.0136108636173026e-01 -6.9681482517432183e-02
      2.3148251364785721e-01 5.8916290774318414e-01
      4.0136288587808260e-02 4.6994838623843094e-01
      1.2869925785671388e-01 -6.2372821235673692e-01
      1.8985204266530314e-02 -1.2954579880366657e-01
      1.2613478058283115e-01 6.4410510988644176e-01
      8.1897041517002042e-02 2.0596210995044542e-01
      -4.3577537571820549e-02 8.8071656090601580e-02
      5.7964922688428400e-02 -1.3395894384714890e-01
      -1.8400491693234006e-01 2.4457849381552513e-03
      -1.1449804391517322e-01 -4.8537881349798107e-01
      1.1476850583649604e+01 -6.7673286390908763e-02
      -2.3114254133231173e-02 3.4515414915181855e-02
      2.4595790300067641e-01 6.8688599637406644e-01
      -2.5657207329889314e-01 -2.8149106683969877e-01
      -6.8433695343896672e-01 1.1868468348262809e-01
      7.5665669185565598e-01 -1.2361936168369864e-01
      3.7967410517098832e-01 4.7181527806022849e-01
      2.8885545072048369e-01 4.3013249977541346e-01
      1.0080444865460504e-01 -1.1236326569989434e+00
      -1.8243234610420826e-02 -6.6229551701151884e-02
      1.1140820531504064e-01 5.2973350058459501e-01
      5.8677078827942583e-02 2.3557372758643258e-01
      6.1510784085188654e-02 -1.6127770876833722e-01
      7.6509558849057302e-01 -6.3730048760497912e-02
      -3.0458078564611513e-01 2.3163598003873473e-01
      1.3180427045937174e-01 -3.0283098189850483e-01
      1.4939250497008143e+01 -3.8995975461323301e-01
      -2.0588140930178678e-01 4.7041923501468907e-01
      1.2868046395926765e-02 -5.1982457071180788e-01
      5.7801823845993583e-02 4.8496948530605771e-01
      -1.9536364435126408e+00 5.6142775205184037e-01
      7.0092683404525147e-01 2.7797610501181680e-01
      7.0713024173784877e-01 1.9821783671328943e+00
      -1.5304291198236367e-01 3.1543424056596014e-01
      3.1981924901365177e-01 -4.8890857846028885e-01
      3.7608443787018375e-01 -3.3036850378847998e-01
      2.9967337593089888e-01 8.9935618401988027e-01
      -1.0393820272407781e-01 3.9970127930516602e-01
      -3.1075662573216589e-01 -8.3434770534320302e-02
      1.0317472911863719e-01 1.3208423447502729e-01
      -5.1171599001175427e-01 6.8015561509891009e-01
      -2.2870644875827231e-01 -8.6748437629039998e-01
      1.3566980426325740e+01 8.1337687635312850e-02
      -3.1901714731055053e-01 1.4213042597179293e-01
      4.7952015065963821e-01 -1.3673400031820263e-01
      -1.2256245759095592e-01 -1.9191349846095766e-02
      4.6883851749836325e-01 -7.0087785237884848e-01
      -3.7214025994653599e-01 1.3224651029046233e-01
      -1.8700337077906090e-01 -6.1958496422567577e-01
      2.5321228532291806e-01 -4.0670056854542891e-01
      7.0624633227095113e-01 7.8552921033168271e-03
      -2.0224300747470086e-02 -2.0916311761987316e-01
      3.7219165861528819e-01 -1.6853909629761865e-01
      1.7210032068558655e-02 3.3341996772653981e-01
      -2.6840773270246876e-01 2.5696218077184130e-01
      1.3929365667272006e-01 -2.5219235110941068e-01
      1.0766906191610859e-01 -2.4345058083569704e-01
      -2.7831921616449190e-01 2.0387929666155943e-01
      1.2949988776339129e+01 2.0712127238879832e-01
      -3.4445005663127265e-01 1.5207835264457978e-01
      4.9445305345315632e-01 5.3380782072618052e-02
      -2.7457236908392274e-01 1.2080384460864081e-01
      1.8033468329554887e+00 -8.7180003136622397e-01
      -7.3706861648439015e-01 1.3110923951859649e-01
      -3.9001178226224953e-01 -8.4140511686268460e-01
      -4.5639431101809409e-02 -6.0186374676263832e-01
      6.6417829260955252e-01 7.0637340239108137e-01
      -2.7255213973264131e-01 -2.5736644190672897e-01
      3.9882275707202819e-01 -1.9745160158696093e-01
      2.4317479181163010e-01 3.4227547109109679e-01
      -3.6142003452134158e-01 1.7057587665497329e-01
      -3.3358257609803588e-01 -4.1633628691414942e-01
      4.4797505594143822e-01 -5.2851888303249872e-01
      -3.6352141232928981e-01 3.7298088936850932e-01
      1.3300636039426536e+01 -4.8268945983034169e-02
      -2.3764429692168432e-01 1.9298735700930100e-01
      3.0378132826276283e-01 -6.7705504337772948e-02
      -2.3426822498644104e-01 2.2195559579444735e-01
      2.7159059184889189e-01 -2.8162892764938280e-01
      -4.1707723767108490e-01 8.1867520020027687e-02
      -2.4755078396471361e-01 -2.8951158831012552e-01
      -1.5653262594289202e-01 -4.0958644339466288e-01
      5.1700540847297360e-01 3.9252210360788364e-01
      -2.6934217810107164e-01 -2.7018357944650984e-01
      3.3948192956889300e-01 1.2801069096042539e-01
      2.3850867039122556e-01 3.0894205359844823e-01
      -1.6878063015365874e-01 1.9644166611946898e-01
      -6.2554923346067237e-01 -1.6494819988226320e-01
      1.3877730200245927e-01 -4.0905164591217114e-01
      -2.7695442407252180e-01 2.2068058483168640e-01
      1.3854996012666104e+01 -6.2758570978532968e-03
      -2.8485095771115804e-01 -3.9203822567701697e-02
      3.8037711121642370e-01 -7.2345044195140495e-03
      -2.9516864272855414e-01 2.5340332990043640e-01
      1.2729042903109045e-01 -2.2451712168216240e-01
      -2.2283615994923861e-01 -1.2074487942399702e-02
      -4.2121729042157102e-01 -4.4037707710234131e-01
      -1.1030852251580443e-01 -3.9244202833987069e-01
      5.3412751214693521e-01 3.1598602162184392e-01
      -3.3776807477184773e-01 -1.2344208482930237e-01
      3.9637963295214595e-01 -2.2300810336591467e-02
      2.4532759108494398e-01 1.7093709841867857e-01
      -3.1277833619778879e-02 1.4053053342584293e-01
      -7.9059656502966213e-01 -1.7418543471406536e-01
      2.5601151697301178e-01 -4.5536961866332121e-01
      -2.2595681439596194e-01 3.1316908528907894e-01
      1.4058848281802453e+01 6.4305224701267816e-02
      -3.3838155383493002e-01 -3.1960487361030049e-02
      1.9405357101520629e-01 1.5877780057105093e-02
      -1.4293660259771105e-02 3.4450099602439338e-01
      4.0138830525563735e-01 -2.9944549493566147e-01
      -2.9466206694470581e-01 -4.5913246469190670e-02
      -4.0226363539587207e-01 -5.9980688710635732e-01
      -1.5721051034600536e-01 -3.0048514309814578e-01
      3.6228084027190510e-01 -1.0789197018099214e-01
      -2.5824578569342393e-01 -1.0136272748128199e-01
      1.8868741038191958e-01 -1.7562952166236490e-01
      8.8617256592797372e-02 -5.6490861599746520e-02
      9.5640155904318541e-02 1.6757692619653192e-01
      -3.7662739188636862e-01 -2.3727775341570154e-01
      3.5149333861229981e-01 -3.9559651004863244e-01
      -2.3016809781540998e-01 3.9169899436665218e-01
      1.3746887187606774e+01 7.8672687949059822e-02
      -3.7082476534093145e-01 1.7313405261561549e-01
      1.2379858803938946e-01 -1.8237627672942522e-01
      4.1184366160784330e-02 3.3075380693279743e-01
      6.0042014882618004e-02 -1.6191798460269005e-01
      -3.0075738086901845e-02 5.1288322712863335e-02
      -3.0348847092585857e-01 -3.8352032979835826e-01
      -3.6292779348747389e-01 -2.0317115511220285e-01
      1.4337753383082982e-01 -2.2340955124193798e-01
      -2.3521174870269021e-01 -1.6478726033144722e-01
      -4.2098047499219112e-03 -2.4921054776778306e-02
      -2.4469751688626817e-02 7.0569867076895845e-02
      -2.1891237675997336e-03 2.0041629580339154e-01
      -4.6166821284982860e-02 -2.3778137086321086e-01
      3.6113245639337210e-01 -2.5603212107004447e-01
      -2.7691573472588904e-01 3.6112826384431362e-01
      1.3517455958398907e+01 1.4535654676384702e-01
      -4.3942998105714998e-01 1.0209069518384331e-01
      1.8032146475641075e-01 -7.5425196914935197e-02
      1.5131079659491961e-01 2.3296827335252046e-01
      -3.1028117148039025e-01 -9.9138930612790832e-02
      9.1123607108177754e-02 1.2157647226822338e-01
      -3.3757674855795045e-01 1.3076111426660744e-01
      -3.9685330144668213e-01 -1.7427946048284276e-01
      1.5928332588170679e-01 -5.8226951873496656e-02
      -1.8582903705208478e-01 -2.0229559873953104e-01
      1.6364343433547740e-01 5.9966201986520654e-02
      -4.5005322961833405e-02 2.8529343597185419e-01
      -1.4720241589388999e-01 1.8108695996438981e-01
      1.2525066840395985e-01 -1.9750986590507347e-01
      3.7125619051538267e-01 -1.5339385282629725e-01
      -3.9517754571867320e-01 2.5268217701443613e-01
      1.2901671978467224e+01 9.2678515589244961e-02
      -4.8100570441154877e-01 1.7010132209986770e-01
      7.7981818507314338e-02 -4.1265111586390441e-01
      1.0696048953987929e-01 3.1268246545414013e-01
      -3.4785717655469495e-01 7.1446789502917565e-02
      8.5611500917036773e-02 2.2024815767998496e-01
      -4.9437418890007384e-01 5.1184144379035657e-01
      -5.1880726546243816e-01 -1.4036812821619607e-01
      1.0427348997335234e-01 7.6177503245145939e-02
      -5.2751932132857123e-02 -2.1174876667755482e-01
      1.9120487377135703e-01 1.6944796645613289e-01
      -3.5413058755514662e-02 4.9880989894702993e-01
      -5.5516183160311885e-03 2.7770149580266046e-01
      -3.2202977761214058e-01 -2.1051507898195035e-01
      3.7701602669259815e-01 -2.6661622911822075e-01
      -4.5562351202769397e-01 1.5877894433650128e-01
      1.1729838143271804e+01 3.1288358478644540e-01
      -5.0333700188648356e-01 1.6673075097121809e-01
      -1.2622638425207847e-02 -2.6914288761872257e-01
      -1.4292791025360810e-01 1.2460803598304453e-01
      -1.1917010339156581e-01 -1.6526067852558216e-01
      -8.8808787266834124e-02 1.1847648417325844e-01
      -4.0089898782258393e-01 -1.3123287721620774e-01
      -2.8961572783726575e-01 -1.2556589010018429e-01
      1.4946886271178314e-01 1.2556415727046893e-01
      5.5117095991418834e-02 -2.1472956314000180e-01
      -8.6536238560109807e-02 -3.9744182121990893e-02
      -9.0722847583846827e-02 3.2246537222473715e-01
      -1.0036208261801464e-01 2.5372928484520196e-01
      -3.8675237932586182e-01 -2.8491243373439751e-01
      4.6391688541066706e-01 -4.4229738893855713e-01
      -4.2207232845222276e-01 3.3895499380915273e-01
      1.1209327152478977e+01 3.2660815850094743e-01
      -4.5717394999158006e-01 3.1069030282743876e-01
      1.1998564684681327e-01 -5.3319230986617538e-01
      -3.0218887617190210e-01 1.7617165512691849e-01
      -9.2566655659824387e-02 -2.2947371016122184e-01
      -2.5151460724391062e-01 4.5985516961230148e-02
      -4.5796537043209173e-01 -2.9386994972613678e-01
      -1.1021761719682037e-01 -1.1705172501534479e-01
      2.0727628352283278e-01 1.7754302958050619e-01
      -2.1678144599560672e-02 -1.5860873560355152e-01
      7.9087389896286539e-02 -1.2284047416098175e-01
      -3.9115752632924022e-03 2.5429232842177169e-01
      -2.8312721193146231e-02 2.0351648725229007e-01
      -8.5357618898635612e-01 -4.5682755196214136e-01
      3.7815160387615770e-01 -2.1038000217714992e-01
      -4.3533150353355576e-01 3.0722550271025151e-01
      1.1146719898184477e+01 2.8457173302307037e-01
      -4.1619544978122452e-01 2.4325518476001018e-01
      2.1526254180533036e-01 -4.4671574670940195e-01
      -3.3364285979044034e-01 1.9226364476572916e-01
      -1.6512995100632230e-01 -3.2622557001957242e-01
      -3.4292758197628370e-01 6.3089481793292448e-02
      -4.6020518517699088e-01 -2.3869516420143011e-01
      -6.3341217013241399e-02 -2.6874435546450004e-01
      4.3466177153904167e-01 1.9933430439087046e-01
      -7.0947414694759375e-02 -9.0523892302355247e-02
      2.1438481771335127e-01 -1.0303230057389480e-01
      1.3413724460433764e-02 9.5226113694351966e-02
      -1.7755789972000904e-01 3.1069519811435348e-01
      -9.0859566276175951e-01 -5.2424131060960921e-01
      4.7181192615178669e-01 -5.2367368939407477e-01
      -3.5110157290731175e-01 2.8459460378013296e-01
      1.1579537327724593e+01 1.3256430085961299e-01
      -3.3666791087914222e-01 1.8552162293969110e-01
      1.6792250935566058e-01 -3.4363003627601074e-01
      -1.1045096893034816e-01 1.7312050241066296e-01
      -5.1287540398391007e-01 -1.3553144106189841e-01
      -3.5245208488811081e-01 2.6111019812400288e-01
      -2.9301963162886768e-01 2.5533313183420000e-02
      -1.2984507957785338e-01 -9.3411959288580426e-02
      4.2789522469320362e-01 -5.6132768050117667e-02
      8.1499468875203845e-02 -2.2181615333492707e-01
      1.5873615485516127e-01 4.3957334953750904e-01
      7.6600821989536438e-02 2.2661919131075170e-01
      -1.7344815115848106e-01 2.9163164471999198e-01
      -6.9663799310040908e-01 -3.7233821268748807e-01
      1.0997187417029118e-01 -5.2437573255515491e-01
      -3.6656660133484431e-01 1.6562548941511690e-01
      1.2693488149763294e+01 2.3263707982417774e-02
      -2.1981468476509816e-01 1.8457881029795095e-01
      1.6045681457375668e-01 -5.6083450383306632e-01
      -7.3686355673632686e-02 -8.5272565038141207e-02
      -1.4808266873889484e-02 -1.2162476357079920e-01
      1.0567237763006504e-01 -2.1244519211862538e-02
      -9.4701091775508298e-02 3.4990132588616435e-01
      -2.7693465824483777e-02 2.2217430467567381e-01
      1.0342008517350028e-01 -2.0048648126340088e-01
      1.6434858303759223e-01 -6.1490866540088077e-02
      -7.2166759256810945e-02 5.1848999183543987e-01
      1.2644111516569606e-01 1.9489706275640298e-01
      -7.3316438266248396e-02 9.6775983724163378e-02
      -4.2125704547133419e-01 -3.0516359532447973e-01
      -1.4612801521206437e-01 -2.1025592887263411e-01
      -1.5644913218291026e-01 -1.2351586993583047e-01
      1.2842012374091329e+01 -1.9598690378337200e-01
      -8.1845981339301155e-02 2.6358718893244665e-01
      1.7238744447553528e-01 1.6540314371417317e-02
      -2.1990782639331789e-02 -1.2654411360464035e-01
      -7.5292122671586892e-01 1.7668308922569800e-01
      7.7795059867572613e-01 -1.1109737306888611e-02
      5.3412574644350397e-01 8.1383032008441702e-01
      5.5252668958639352e-03 7.0196724341664063e-01
      -1.4206717425167206e-01 -8.2346456683757585e-01
      8.9528919876288804e-02 -3.5390819045314249e-02
      -1.5286004674129708e-01 6.6055032338662745e-01
      1.1863347727812847e-01 3.2916526288590525e-01
      2.9705918428192889e-02 -2.3478775769733712e-01
      1.6081697356163635e-01 -1.5620003453476722e-01
      -4.7993501066237537e-01 6.4079408810650995e-01
      2.4116927948118368e-02 -6.8575967697370976e-01
      1.5887358924364715e+01 -2.9172957578330883e-01
      -2.8465268713604153e-01 4.0945287961439364e-01
      4.9910869610004668e-02 -3.4895139943921893e-01
      8.8353722621407574e-02 1.1849029086939820e-01
      -8.9062324802125703e-01 3.6757827680383914e-01
      3.9360837375222113e-01 2.4436635217019179e-01
      3.9156887541541346e-01 1.1606199207454517e+00
      -4.5682539151066508e-02 1.8467923677909315e-01
      4.6258606043838929e-01 -4.3466571305485141e-01
      5.1708967865864108e-01 -3.9109950970189211e-01
      4.0234152954232766e-01 9.3117850755570875e-01
      1.9074651287372971e-02 3.5695668140982906e-01
      -4.6488268246336384e-01 5.7888160754063646e-02
      1.5087937977790949e-01 9.6963423357735612e-02
      -2.4854544129071657e-01 6.1022421039085284e-01
      -2.7586111253167223e-01 -5.9554941332720956e-01
      1.3187360983319552e+01 1.8682471682076601e-01
      -3.1959041222916390e-01 1.6868289136811085e-01
      4.4440772027990039e-01 -5.7150143881076546e-02
      -8.1457942651786658e-02 -3.1329284989752304e-01
      9.5673756742236216e-01 -7.4630973724897387e-01
      -6.8182151505182320e-01 1.6658777874954189e-01
      -4.5300080934870285e-01 -9.6312133774232900e-01
      3.0129619021388870e-01 -3.9954531702396601e-01
      6.8163389275088571e-01 1.4206242563617727e-01
      1.0545222298905761e-01 -2.8187125093062237e-01
      4.4987846139628362e-01 -1.9479388717063897e-01
      1.4864507525209245e-01 7.4019495339656516e-02
      -3.9116107210347484e-01 3.1114804042478877e-01
      -2.4254524216955210e-02 -3.0751493910772193e-01
      1.3782677995125103e-01 -2.2821224013229097e-01
      -2.4056157786582655e-01 3.3663252550620459e-01
      1.1968818188409706e+01 2.9872014580611650e-01
      -2.8817487174920947e-01 7.0619566555280511e-02
      4.7554761986717897e-01 7.0491945129357747e-02
      -9.5459659740212505e-02 -3.8204804267061389e-02
      1.5574795784939932e+00 -8.2219564100306153e-01
      -4.8288192805171498e-01 3.1046990725756347e-02
      -2.8458131427424349e-01 -1.1052799719643940e+00
      1.0061042722938611e-01 -5.1592880480951775e-01
      2.9509788760489625e-01 7.5353855027496341e-01
      -1.3949353895941624e-01 -1.8980081234795729e-01
      4.2677476675433790e-01 -4.0623297789749008e-01
      1.8013401897463138e-01 7.9891148594141689e-02
      -2.2740740395130410e-01 4.7417159714098010e-02
      -1.5894361615899114e-01 -3.8655864332199608e-01
      3.1788175800563528e-01 -4.0883439771266067e-01
      -1.7963892107208349e-01 3.4668450493028929e-01
      1.2822275164065143e+01 -9.1276884673829453e-02
      -2.6737070603040763e-01 -1.0805418960033129e-01
      4.5877557116945900e-01 -1.6189484306122875e-01
      -2.1027659089613568e-01 5.9900562553264314e-02
      1.4965667373584754e-01 -1.7254382663220144e-01
      2.6703851202181193e-03 4.1849631683902454e-02
      -6.5050969696133595e-02 -9.6197263918391993e-02
      -5.0540730002341140e-02 -2.8759365332246006e-01
      7.6915487784812817e-02 4.6279671906464248e-01
      -1.7433598365115788e-01 -2.2234116806844151e-01
      5.1258153631971171e-01 -5.8237768097568303e-02
      2.0525884165769875e-01 1.9348877989758456e-01
      -5.1409059257406207e-03 1.2903126603692724e-01
      -6.5006220106978574e-01 -1.5312422955167299e-01
      2.7608490008005204e-02 -1.4658688995398722e-01
      -1.2079158701151695e-01 2.0140300112568141e-01
      1.4171557514829955e+01 -8.4145816186475653e-02
      -2.2426959564212681e-01 2.3706296208751206e-02
      3.6903649146110640e-01 -1.8844687402551613e-01
      -1.8563316672712607e-01 5.6518823069816024e-02
      -7.2710470166384170e-02 -2.1600785650186471e-01
      -1.2690520461907581e-01 -5.6227551768028926e-02
      -1.9390195634969962e-01 -3.5064606395429609e-01
      1.3484474078141359e-01 -1.0000445190982039e-01
      -1.9368598618112482e-02 2.3952084610517196e-01
      -2.0222424492240981e-01 -1.2199380062196119e-01
      3.6072902729782125e-01 -1.6462469919011802e-01
      2.0879830904559082e-01 4.5483556244594804e-02
      2.7288383602782202e-02 8.4649230529866976e-02
      -8.2988901953993699e-01 -8.8903804002542164e-02
      5.1646637071063997e-02 -2.9853609845835299e-01
      -9.2820654875583913e-02 3.1260724904961334e-01
      1.4028885841110034e+01 -9.8252416413388666e-02
      -1.2907674470397973e-01 2.5999696124630123e-01
      2.1416739787905861e-01 -4.6782475461266343e-01
      4.1094154968431405e-02 2.9283740800642660e-01
      4.0476234599838977e-02 7.2308950811483377e-02
      -4.8682200587546333e-02 -1.1821866761094305e-01
      -5.8566016447151509e-02 -9.5329477738947552e-02
      1.4914486839878323e-02 7.5969829149253154e-02
      -2.5456326878332425e-01 -2.6469868987321565e-01
      -3.0048619251024555e-01 -6.6526623504863922e-02
      1.3706196092020609e-01 -1.9484057817264566e-01
      1.4400677766697392e-01 -1.1032087099968228e-01
      -8.7888137105366910e-04 -8.7160139246292463e-03
      -2.9768390276098172e-01 -1.9165986807430635e-01
      1.2695409206190109e-01 -1.0298673728673036e-01
      -1.2140609867165499e-01 1.1871833997090086e-02
      1.3308610166142456e+01 -1.5609274428627792e-01
      -1.0647309543353499e-01 3.7126730714031747e-01
      7.2014226679279772e-02 -2.0932328411424886e-01
      1.5326052944303345e-01 2.1875272973011459e-01
      -3.6840192356178614e-01 1.8643814045910209e-01
      1.5714152156962422e-01 -4.4074118626979568e-02
      7.6093831514617891e-02 1.7748761962299234e-01
      -2.3265891590537149e-01 2.1892296680016332e-01
      -1.9358172260957093e-01 -4.9110558538984611e-01
      -3.3879574911820076e-01 -1.3658930919063186e-01
      1.7225914965070251e-02 6.7859914178997185e-02
      4.9374582811652884e-02 -5.8376245048496131e-02
      -9.5289618917451135e-02 2.1789963336634683e-03
      -5.7189901962792250e-02 -2.1079759162298903e-01
      7.1470880429065645e-02 1.7570953133889231e-01
      -1.4866504942455963e-01 -1.5419107828183423e-01
      1.2820857697300655e+01 5.7759993539346841e-03
      -2.6960140320897541e-01 2.3684512592025042e-01
      7.3264247998963555e-02 4.4200469864206525e-02
      1.8778363494228137e-01 9.9351414699845486e-02
      -4.4758576666779859e-01 -4.9587492359844346e-02
      1.9966196205179779e-01 8.1434095102117139e-03
      -2.0822251804936762e-01 -2.5947585900945140e-02
      -3.6442238951000255e-01 3.1062003189399036e-02
      1.2144129677664346e-01 -2.0442328544266811e-01
      -2.7795841412129701e-01 -1.7076945441561173e-01
      7.2165809855515309e-02 -9.2892355891237306e-03
      1.1065091862150224e-02 1.0210850103151332e-02
      -1.8589764357701938e-01 1.0184187115317007e-01
      -1.1093546648458710e-01 -2.4527781224340778e-01
      3.3182830517492506e-01 -6.3850554115739949e-02
      -2.3595736211910634e-01 1.7948076806888777e-01
      1.2030064504689351e+01 1.0953804181324074e-01
      -4.4049100119435236e-01 2.0304003739380655e-01
      2.4052651017018683e-02 -7.5695879021122209e-02
      1.5533132314925788e-01 2.7465791564714365e-02
      9.8517408639261284e-02 -1.7851142901244951e-01
      -1.3972022018709169e-02 9.2319326673126381e-02
      -5.4568295173685599e-01 -4.2072763658546131e-01
      -5.0491073265802788e-01 -1.4730798994429462e-01
      9.6621849253460401e-02 1.5134230268809420e-01
      -1.2667470982695797e-01 -1.8860451578400753e-01
      -7.0095273836812272e-02 -6.7876886078427151e-02
      1.3013185610138525e-02 1.5507757159190713e-01
      -3.4075647254312426e-02 2.2050371872767907e-01
      -4.6233962017757485e-01 -2.3360236789946071e-01
      4.9795987679528297e-01 -3.8429310307601328e-01
      -3.4827606490463192e-01 4.8793636996580386e-01
      1.1237159711318112e+01 2.1335414709312955e-01
      -3.8091485899492233e-01 2.5326322721648387e-01
      7.6960306637570072e-02 -3.9956609551341032e-01
      -8.7807730098914735e-03 2.1868290974102950e-01
      1.7438439532318528e-01 1.1481992477347495e-01
      2.2348184247990798e-02 1.9550286477928547e-02
      -5.5764483078802685e-01 -2.6706659021185408e-01
      -5.1777328307233383e-01 -2.2300019597665106e-02
      3.6673589815530920e-02 1.7297763965192453e-01
      1.3378103371907141e-01 -1.8507683221702484e-01
      -7.7495732575337095e-02 1.4552162424303361e-01
      1.6980762745629794e-02 1.7470080918587075e-01
      -1.6090948458810184e-01 1.9681912637029900e-01
      -6.2612151056496301e-01 -2.1563618640404386e-01
      2.9532422431879701e-01 -2.3230972494831609e-01
      -3.8034154054484692e-01 2.9176548715701844e-01
      1.0244050917644126e+01 2.8995542779752875e-01
      -3.7654011906110257e-01 2.2808914967333993e-01
      2.6209876752964395e-01 -4.4638290930931229e-01
      -1.5544109988940544e-01 9.7166027116973808e-02
      -2.4728790395090289e-01 4.1178726341345451e-02
      -1.8759950324263341e-01 -1.4200376884451005e-01
      -4.2999164418991032e-01 -3.3452098001785868e-01
      -2.4265213704569574e-01 -1.0888594473570651e-01
      1.3835476332182930e-01 2.4852833646229236e-01
      2.4788636352272821e-02 -1.1898976565371518e-01
      1.7225098552024056e-02 -1.2720390448388558e-01
      6.6577664606620096e-02 1.7004867403704468e-01
      -3.3506353027563679e-01 2.6563700846762101e-01
      -6.7503804431423831e-01 -3.2831393877074011e-01
      2.8787725870269432e-01 -1.1310579115797922e-01
      -3.0860014241575418e-01 4.8985021638010456e-01
      1.0549040892870135e+01 3.2665407980498534e-01
      -2.8893027097275764e-01 2.8342923920150276e-01
      3.5490645220662226e-01 -3.6199288410753333e-01
      -2.6041304730266779e-01 -3.3525482430634058e-02
      -3.0585839822772337e-01 -2.8177684101944422e-01
      -1.5976018792420238e-01 -1.6340006070635316e-01
      -3.8117631659644674e-01 -4.6385996256469963e-01
      -6.8862902432657233e-02 -1.9178413272650652e-01
      3.3009534004129110e-01 2.2057734755212047e-01
      -6.7107985070717649e-02 -8.8561005261242276e-02
      2.6176141969349587e-01 -2.7151289735566314e-01
      6.8091300640743910e-02 4.7837467128165875e-02
      -2.7786095599855037e-01 2.4660860917728991e-01
      -7.5146236178955972e-01 -5.0602356566016526e-01
      4.0997099218555533e-01 -2.9775950690265374e-01
      -2.4530902756865880e-01 3.6036535602499598e-01
      1.1422307309230423e+01 2.5088624811475574e-01
      -2.5671469605213770e-02 2.9484149559017331e-01
      2.1192886972894934e-01 -4.1540035390989616e-01
      -1.9194005016388727e-02 -2.6145812722328087e-02
      -5.0048135904471069e-01 -2.9719794695425339e-01
      -1.0185502663276381e-02 -1.2127920678394886e-01
      -3.2660365894134308e-01 5.4338557665987643e-02
      2.1978279283943040e-03 2.0579394248671772e-02
      2.7792873546187613e-01 3.4663931492910804e-02
      -2.9670278048987666e-02 -7.3718123590266749e-02
      3.5583452227540613e-01 8.4402332120964027e-02
      6.3499909964244206e-02 1.5731309615191907e-01
      -1.7564836220880223e-01 1.3476868998017069e-01
      -3.9695625749277813e-01 -4.3784013030109553e-01
      1.1285482725869661e-01 -5.6703198097329677e-01
      -1.4310580942200510e-01 1.4410599000751348e-01
